-6.290224939584732056e-02
-8.766696453094482422e-01
-7.424060702323913574e-01
-7.530348300933837891e-01
3.059032000601291656e-02
1.817602537812490482e-06
1.150919433712260798e-05
-1.094208121299743652e+00
7.456634193658828735e-06
-6.950731873512268066e-01
7.714119419688358903e-06
-3.609119951725006104e-01
-1.673814952373504639e-01
-6.024625897407531738e-01
-1.536400532131665386e-06
-5.620093941688537598e-01
-1.720996260701213032e-05
1.168066660284239333e-06
-4.430001676082611084e-01
-9.732145816087722778e-02
1.249696424565627240e-06
-1.349350661039352417e-01
-1.154866004071664065e-05
-8.214270472526550293e-01
-1.953466236591339111e-01
-6.332248631224501878e-06
-3.519190549850463867e-01
-5.195105671882629395e-01
5.480330401042010635e-06
4.481842097447952256e-06
-3.092550039291381836e-01
3.537605834935675375e-06
-6.082075238227844238e-01
-2.482085954397916794e-03
8.525263518095016479e-02
-2.910883128643035889e-01
-9.895089268684387207e-02
-2.237419039011001587e-01
1.471098214387893677e-01
-4.508536458015441895e-01
-3.110233843326568604e-01
-1.532846391201019287e-01
3.207203917554579675e-06
-9.604442119598388672e-02
3.878595180140109733e-06
-4.266647696495056152e-01
-5.011498928070068359e-01
1.150169850916427094e-06
2.705990482354536653e-06
-1.306155681610107422e+00
5.199464794714003801e-06
-1.087582632899284363e-01
-1.814025491476058960e-01
-6.989816370150947478e-07
1.130112286773510277e-05
-2.719418108463287354e-01
-7.711541652679443359e-01
-2.756388485431671143e-01
-3.962319493293762207e-01
-4.329340755939483643e-01
3.860958258883329108e-06
8.795849978923797607e-02
-7.740210890769958496e-01
-7.724203169345855713e-02
-1.811627298593521118e-01
2.957570814032806084e-06
-2.597993443487212062e-06
-8.748406798986252397e-06
-6.181389380799373612e-06
-4.512917101383209229e-01
-4.167525768280029297e-01
-1.616974486751132645e-06
-8.414192795753479004e-01
-5.167958736419677734e-01
9.870677441358566284e-02
-2.747818529605865479e-01
1.394924220221582800e-05
-1.833681722018809523e-06
-9.816161394119262695e-01
-2.789244055747985840e-02
-8.337748050689697266e-02
6.000430323183536530e-03
-7.737493774584436323e-07
-6.250087022781372070e-01
-7.401298717013560236e-06
-1.479999274015426636e-01
-8.578612804412841797e-01
-6.597814559936523438e-01
9.472007604927057400e-07
-5.051039457321166992e-01
2.582358149538777070e-07
-1.585950702428817749e-01
3.613259423218551092e-06
-5.478693842887878418e-01
1.450342915632063523e-05
1.054030690283980221e-06
1.876777787401806563e-06
-1.266748011112213135e-01
-4.728616774082183838e-01
-3.771124780178070068e-02
-8.424201041634660214e-06
-1.403364181518554688e+00
-1.001137025014031678e-05
-9.354838728904724121e-02
-2.180681228637695312e-01
4.000733952125301585e-06
-6.077937483787536621e-01
-4.542503878474235535e-02
-1.254922986030578613e+00
-8.975383934739511460e-06
-1.170269489288330078e+00
-1.292153298854827881e-01
4.056680609210161492e-06
-4.586256146430969238e-01
-5.108638405799865723e-01
1.108696665141906124e-06
-4.055142104625701904e-01
-8.346059918403625488e-01
-1.196923255920410156e-01
2.275522500276565552e-01
-2.441981732845306396e-01
-5.543493032455444336e-01
-9.744845032691955566e-01
7.460068900400074199e-06
-2.175185203552246094e+00
1.700083521427586675e-05
8.843482646625488997e-06
-1.927577704191207886e-01
-5.622136592864990234e-01
-3.823742866516113281e-01
-7.094532251358032227e-01
-5.159385204315185547e-01
-3.988569915236439556e-06
5.332156270742416382e-02
9.639061318011954427e-07
-3.449318910497822799e-06
2.762857320703915320e-07
-7.877131104469299316e-01
-2.906206250190734863e-01
-4.880854703515069559e-06
-7.865931391716003418e-01
-1.165600776672363281e+00
-7.120784521102905273e-01
3.774914603127399459e-06
-7.982690930366516113e-01
-4.630961120128631592e-01
-5.620226860046386719e-01
-2.083925753831863403e-01
7.252961950143799186e-06
-6.011524200439453125e-01
-6.623281538486480713e-02
-7.256075143814086914e-01
-1.415251493453979492e-01
-1.949755272789843730e-07
-1.080679416656494141e+00
-2.659542560577392578e-01
-6.533072590827941895e-01
2.351695911784190685e-06
-9.014272689819335938e-02
-8.821001648902893066e-01
-1.131133649323601276e-05
7.391939220724452753e-07
-3.751877102331491187e-06
-8.724778126634191722e-06
-2.158798452001065016e-06
-2.118935981343383901e-06
9.279646292270626873e-06
6.344493158394470811e-06
-8.037251234054565430e-01
1.128029089159099385e-05
-2.170890271663665771e-01
-8.322605935973115265e-06
-1.962203741073608398e+00
-6.595204025506973267e-02
-5.494501590728759766e-01
-6.253032088279724121e-01
-2.812921404838562012e-01
-4.375675022602081299e-01
2.420186547169578262e-06
1.321479082107543945e-01
-7.587309482914861292e-06
-2.192409510826109909e-06
-4.203571677207946777e-01
1.747715714373043738e-06
-6.945060249563539401e-06
2.608185468488954939e-06
8.325321232405258343e-07
-2.384675666689872742e-03
-4.808493852615356445e-01
-6.228453457879368216e-06
-2.281599790876498446e-06
-3.940696716308593750e-01
-4.916646182537078857e-01
-2.143659591674804688e-01
-2.223755866289138794e-01
-2.477841675281524658e-01
1.104268580675125122e-01
3.911533440259518102e-06
-6.717222332954406738e-01
1.483750194311141968e-01
-4.425475895404815674e-01
-3.354214131832122803e-01
-4.361852109432220459e-01
-7.120477557182312012e-01
-8.629869818687438965e-01
-5.005453228950500488e-01
6.658684014837490395e-06
4.854234703088877723e-06
-3.506841949274530634e-06
-3.688210426844307221e-06
-5.197576284408569336e-01
-9.455891251564025879e-01
-6.323022716969717294e-06
-2.145022451877593994e-01
1.730482836137525737e-05
-7.028613239526748657e-03
-5.181508064270019531e-01
-1.028994211083045229e-05
4.898792667518137023e-06
-5.279185771942138672e-01
-8.717568675820075441e-07
2.215262497884395998e-07
-7.337733507156372070e-01
-2.036033391952514648e+00
-5.688496912625851110e-06
-1.334203630685806274e-01
-2.002631425857543945e-01
6.689499514322960749e-06
-5.143986344337463379e-01
-5.392369075707392767e-06
-8.182807505363598466e-06
-5.608212947845458984e-01
-1.792477071285247803e-02
-1.421831683501295629e-07
-8.364195823669433594e-01
-3.266698122024536133e-01
-5.307399630546569824e-01
4.558662567433202639e-06
1.426933985203504562e-02
1.000492375169415027e-05
-1.081902980804443359e+00
-7.059019207954406738e-01
-2.059350311756134033e-01
-9.975464308809023350e-06
-4.975207448005676270e-01
-5.926560163497924805e-01
-3.919268846511840820e-01
-8.072546734183561057e-06
3.310812871859525330e-06
-3.545462787151336670e-01
1.905588060617446899e-02
-8.792783021926879883e-01
-7.436274290084838867e-01
-3.819752335548400879e-01
-2.903777360916137695e-01
-3.845748603343963623e-01
-6.013129677739925683e-06
-6.344583630561828613e-01
-4.160166978836059570e-01
-7.619457244873046875e-01
-3.797617864620406181e-07
2.233562327091931365e-06
1.994681269934517331e-06
-5.945789813995361328e-01
-3.021493852138519287e-01
-4.237003922462463379e-01
-1.163721442222595215e+00
5.726497875002678484e-06
-2.354546338319778442e-01
-9.190308446704875678e-06
-6.524454355239868164e-01
-5.538487434387207031e-01
5.231514023762429133e-06
3.445186465978622437e-02
5.019580271437007468e-07
6.370249593601329252e-06
1.101172870221489575e-06
-3.589654266834259033e-01
-2.924760282039642334e-01
-7.852067938074469566e-06
-5.016003251075744629e-01
-3.489773916953708977e-06
-2.507801055908203125e-01
-1.932917907834053040e-02
1.278269519389141351e-05
-3.851180970668792725e-01
8.599859029345680028e-06
1.762934402904647868e-06
-7.539687752723693848e-01
-1.708582385617773980e-05
-5.956645011901855469e-01
-1.088052392005920410e+00
-2.367946194681280758e-07
-6.453539729118347168e-01
-2.384774684906005859e-01
-7.180230021476745605e-01
-4.715582430362701416e-01
-2.354592680931091309e-01
-5.543147400021553040e-02
-3.363309502601623535e-01
1.137020171881886199e-05
-3.925307393074035645e-01
-3.688704669475555420e-01
-8.703591823577880859e-01
-8.376079676963854581e-06
2.274465487062116154e-06
-6.334289312362670898e-01
-1.818413693399634212e-06
-4.233426153659820557e-01
-3.955190777778625488e-01
-1.957969516515731812e-01
5.803362280130386353e-02
-1.873979840638639871e-06
-8.022312819957733154e-02
-4.072885811328887939e-01
-5.293547928886255249e-06
7.810737192630767822e-02
1.283140409213956445e-05
-9.125444293022155762e-01
-5.864662528038024902e-01
-2.185148745775222778e-01
-2.915983796119689941e-01
-1.969347209751504124e-07
-3.707305490970611572e-01
-6.564489603042602539e-01
-4.840523600578308105e-01
-2.835012972354888916e-01
-1.052136030921246856e-05
-1.695518374443054199e+00
-4.273641407489776611e-01
-2.775233983993530273e-01
2.028780728578567505e-01
-4.342947304248809814e-01
1.446035821572877467e-05
-4.259212801116518676e-06
-3.437814414501190186e-01
1.730184521875344217e-05
3.124373853206634521e-01
-4.922048747539520264e-01
-6.295936703681945801e-01
-6.578724878636421636e-06
6.594359874725341797e-02
-2.407999485731124878e-01
-4.440141320228576660e-01
-6.609896421432495117e-01
-4.218385583953931928e-06
-6.897820830345153809e-01
5.534095635084668174e-06
3.338024271215545014e-06
-6.084519028663635254e-01
-4.794877440872369334e-06
4.221774361212737858e-06
-6.176596283912658691e-01
5.549794423131970689e-06
-5.364601016044616699e-01
-1.124982759356498718e-01
-5.908861756324768066e-01
-2.136745005846023560e-01
1.104970579035580158e-05
-1.327039967691234779e-06
-2.542103528976440430e-01
1.712986081838607788e-01
-6.489028334617614746e-01
-2.096112072467803955e-01
-4.679569900035858154e-01
-5.312751531600952148e-01
-4.133149981498718262e-01
1.618572923689498566e-06
-1.243844032287597656e+00
-5.970201492309570312e-01
2.699456899790675379e-06
9.994097993626382959e-09
4.815020474779885262e-06
-4.543967247009277344e-01
-1.545702479779720306e-02
1.701884269714355469e-01
-1.039264321327209473e+00
-8.714010715484619141e-01
-3.796712458133697510e-01
5.160238742973888293e-06
9.221055279340362176e-07
4.898736278846627101e-06
-5.607907772064208984e-01
-6.892664146107563283e-07
-6.192217938405519817e-07
-4.431007504463195801e-01
-2.689958810806274414e-01
-5.668088761012768373e-06
-8.995609283447265625e-01
-5.294693112373352051e-01
-5.697911547031253576e-06
5.631055955745978281e-06
6.467270851135253906e-02
7.678098882024642080e-06
-7.486004506063181907e-06
1.199183134303893894e-05
-7.734349310339894146e-06
-3.370327949523925781e-01
-1.239162429556017742e-06
-3.825570274784695357e-06
9.651860636950004846e-06
-1.189556159079074860e-02
-5.345739722251892090e-01
-9.641831638873554766e-06
-1.990337856113910675e-02
-1.101518392562866211e+00
-9.819917678833007812e-01
-2.229971624910831451e-02
2.283886487930431031e-06
4.519134563452098519e-06
2.903110953411669470e-06
-1.924467086791992188e-01
1.974034355953335762e-03
4.534790605248417705e-06
-2.497497007425408810e-06
-3.295716345310211182e-01
-1.905136369168758392e-02
2.007570713758468628e-01
-4.922404885292053223e-01
-4.110730588436126709e-01
3.581535793273360468e-06
-4.176990842097438872e-06
-2.563994228839874268e-01
-1.080332603305578232e-02
1.263689547777175903e-01
-1.092411821446148679e-06
-3.924541473388671875e-01
-1.128140762448310852e-01
-1.103863723983522505e-06
-1.221633056047721766e-06
4.673214334616204724e-06
-2.619725364638725296e-06
4.204115612083114684e-06
-7.719889879226684570e-01
1.423823237419128418e-01
1.522859632968902588e-01
-5.962980985641479492e-01
-7.702356583649816457e-07
-4.537789821624755859e-01
-4.918609857559204102e-01
6.212370408320566639e-06
-3.369893133640289307e-01
-1.512815654277801514e-01
-3.709893226623535156e-01
-4.083923697471618652e-01
-2.852048724889755249e-02
-8.701536059379577637e-02
-4.031996726989746094e-01
-8.649001717567443848e-01
1.729437826725188643e-06
-2.289564758539199829e-01
-1.182736396789550781e+00
-4.683332443237304688e-01
5.658578629663679749e-06
8.322043868247419596e-06
-8.516132831573486328e-01
-1.771049499511718750e-01
-2.681077937438658410e-08
-5.990855242998804897e-06
1.456935660826275125e-05
9.845959993981523439e-07
1.264882575924275443e-05
-1.251482808584114537e-05
-1.001886725425720215e+00
-6.693539023399353027e-01
9.158885404758621007e-06
-2.645370066165924072e-01
1.289982810703804716e-05
1.123916263168212026e-05
2.997742512889089994e-06
-6.313972789939725772e-06
-1.240081563591957092e-01
-3.113935065357509302e-07
-5.940136361459735781e-06
-1.313717663288116455e-01
-2.607311010360717773e-01
-1.629666447639465332e+00
-5.913795828819274902e-01
-8.577854633331298828e-01
-4.304372668266296387e-01
-3.115076422691345215e-01
-1.068025630956981331e-05
-6.582270264625549316e-01
-1.010462983686011285e-05
-4.703159332275390625e-01
-7.519830887758871540e-06
-3.760741278529167175e-02
1.121736750064883381e-05
-6.169991493225097656e-01
-1.388789200973405968e-06
8.426683962170500308e-06
-1.782594919204711914e-01
-3.670100271701812744e-01
-7.567307949066162109e-01
1.103651629819069058e-05
-5.856748819351196289e-01
1.303608268499374390e-01
3.405038796699955128e-06
1.556383166462182999e-02
-5.478550519910641015e-06
-5.194737315177917480e-01
-4.307906329631805420e-01
-2.040825486183166504e-01
-2.188053846359252930e+00
3.120959718216909096e-06
-9.364242941956035793e-06
-9.399271607398986816e-01
-1.955115795135498047e-01
-2.986350011724425713e-07
-9.706767741590738297e-06
-1.040666341781616211e+00
-6.987932920455932617e-01
1.084053201338974759e-05
-4.397917985916137695e-01
-1.133105911321763415e-06
8.770197629928588867e-02
-6.411627680063247681e-02
-9.430314898490905762e-01
8.690810773259727284e-07
-3.048632208901835838e-07
-5.635546445846557617e-01
-2.626039758979459293e-06
-1.646670284571882803e-06
-7.602809667587280273e-01
-4.253628551959991455e-01
-1.521021366119384766e+00
1.333414911641739309e-05
-2.474689930677413940e-01
3.095896317972801626e-06
4.739072664960986003e-06
8.034018719627056271e-06
-4.217144250869750977e-01
-6.942656040191650391e-01
-1.448903822165448219e-05
-6.629035621881484985e-02
4.939385689795017242e-06
-1.869585365056991577e-01
-3.739589154720306396e-01
-1.628729842195753008e-05
-4.805266559123992920e-01
-8.686221008247230202e-06
-4.561496376991271973e-01
-1.248294324796006549e-06
2.676483518371242099e-06
-6.613345742225646973e-01
-7.190178166638361290e-06
1.229715871886583045e-05
-5.798146503366297111e-06
-4.806835022463928908e-06
-8.544428965251427144e-06
-1.028547525405883789e+00
-4.294471442699432373e-01
-5.335180759429931641e-01
-2.611742317676544189e-01
6.946921985218068585e-06
-1.275848353543551639e-05
-8.250660357589367777e-06
4.764854111272143200e-06
1.758514736138749868e-05
-3.939183652400970459e-01
-1.959432438525254838e-06
-5.842723250389099121e-01
-6.780096143484115601e-02
2.140663582395063713e-06
-5.900392352486960590e-07
1.872783154249191284e-02
-6.576392650604248047e-01
1.227173015649896115e-05
2.629452865221537650e-06
-6.492861075457767583e-07
-8.555692829759209417e-07
-8.026384748518466949e-03
-3.713824972510337830e-02
-5.728285908699035645e-01
-9.857673197984695435e-02
-4.105638563632965088e-01
5.940508799540111795e-06
2.658426183188566938e-06
-1.280572632822440937e-05
-4.274309277534484863e-01
-3.475465774536132812e-01
-6.419174075126647949e-01
-6.988490819931030273e-01
6.040391046553850174e-03
-7.236270904541015625e-01
-4.775347709655761719e-01
4.837565938942134380e-06
3.554683189577190205e-06
-2.825438044965267181e-03
-9.783283472061157227e-01
-2.771971821784973145e-01
-1.361856357107171789e-05
-3.666896224021911621e-01
2.860309905372560024e-06
8.369615898118354380e-06
-3.491845130920410156e-01
-1.956216465259785764e-06
-4.755072295665740967e-01
-1.035374045372009277e+00
6.789310646126978099e-06
-1.737801581621170044e-01
-5.264520049095153809e-01
-1.624034098313131835e-07
-7.103753089904785156e-01
-1.366082074127916712e-06
3.845924511551856995e-02
-5.528363585472106934e-01
-9.651235342025756836e-01
5.177084729075431824e-02
-4.140729010105133057e-01
-3.469132934696972370e-06
3.589516154534067027e-06
-3.684102594852447510e-01
-5.148499894858105108e-06
-3.838240504264831543e-01
-5.403309464454650879e-01
-6.973449217184679583e-06
1.116884322982514277e-05
-3.870920538902282715e-01
-5.140923857688903809e-01
-5.028682608099188656e-06
-2.905309759080410004e-02
-3.676478266716003418e-01
-1.707082628854550421e-05
-4.043460488319396973e-01
-2.221857585027464665e-06
-1.403152964485343546e-05
-4.401157498359680176e-01
-2.661052531038876623e-05
-1.917381450766697526e-05
-3.464343249797821045e-01
-7.817648649215698242e-01
-6.130080691946204752e-06
-3.260855972766876221e-01
-1.379360583086963743e-05
-3.534870743751525879e-01
-1.655230075120925903e-01
-8.798774615570437163e-06
-7.228123308777867351e-07
-4.247962236404418945e-01
-8.176234364509582520e-01
-1.268544906452007126e-06
-3.048058033527922817e-06
-5.709550976753234863e-01
-4.682617600337835029e-06
-3.490622639656066895e-01
-2.263489216566085815e-01
-4.285033792257308960e-02
-1.484995335340499878e-01
-2.136729955673217773e-01
1.818867027759552002e-02
-3.029770217835903168e-02
-3.188966512680053711e-01
6.678226327494485304e-06
-4.674523770809173584e-01
-1.165677785873413086e+00
-8.817613888822961599e-06
2.206747531890869141e-01
-1.162881851196289062e+00
-7.973269224166870117e-01
-5.364336175261996686e-06
-1.670221090316772461e-01
1.326058059930801392e-01
8.325363523908890784e-06
-1.593799970578402281e-05
-8.225073218345642090e-01
-5.305072136252420023e-06
1.616447269916534424e-01
2.350213751196861267e-02
-3.232513904571533203e+00
-6.767169907107017934e-06
-1.336297259513230529e-06
9.226718248100951314e-06
2.066670731437625363e-06
-4.989201426506042480e-01
-1.111358869820833206e-05
1.243927272298606113e-05
3.434237896726699546e-06
2.243491735498537309e-06
-4.873166978359222412e-01
-9.089077115058898926e-01
-1.900001406669616699e+00
6.916323854966321960e-06
-1.253360460395924747e-05
-1.407822012901306152e+00
-4.912109673023223877e-01
-5.062903761863708496e-01
-1.491207838058471680e+00
-5.021559000015258789e-01
-6.261885166168212891e-01
-5.824928283691406250e-01
-2.285048367411945947e-06
-4.001369774341583252e-01
5.194516688789008185e-06
-2.113277763128280640e-01
-4.122861325740814209e-01
-8.798466296866536140e-06
-4.158779120189137757e-06
-4.419632256031036377e-01
-2.151327878236770630e-01
-7.189167718024691567e-06
8.601602530688978732e-06
-2.460340261459350586e-01
-7.782704234123229980e-01
-1.328050345182418823e-01
3.880504664266481996e-06
2.704522557905875146e-06
-9.882309313979931176e-06
-3.073522520935512148e-06
-2.067057490348815918e-01
-5.790711384179303423e-06
-7.589086635562125593e-06
-2.616067433791613439e-07
-5.583547135756816715e-06
-4.257540404796600342e-01
9.131192200584337115e-06
6.413119535864097998e-06
-1.678340882062911987e-01
-6.584401130676269531e-01
1.356573829980334267e-05
3.674921799756702967e-06
8.818683028221130371e-02
4.421897977590560913e-02
8.450692803307902068e-06
4.502385482192039490e-02
-1.173757837591438147e-07
-2.373184543102979660e-06
-7.132143974304199219e-01
2.407408207654953003e-01
5.691872502211481333e-06
-1.402277112007141113e+00
1.337488629360450432e-05
-3.257923126220703125e-01
-7.289986610412597656e-01
-2.735167443752288818e-01
-7.716312073171138763e-03
-1.198595836758613586e-01
-1.991212248802185059e+00
-9.331756700703408569e-06
-1.074588298797607422e-02
-1.695954597380477935e-05
-7.401484253932721913e-06
-2.943874001502990723e-01
-4.000840783119201660e-01
-1.045382759912172332e-06
2.196348160505294800e-01
2.545372990425676107e-04
-2.362012764933751896e-06
-7.227741662063635886e-06
1.161893942480674013e-05
-8.133088052272796631e-02
-7.795419692993164062e-01
9.089172817766666412e-03
-5.716106295585632324e-01
-4.077679514884948730e-01
-4.059082567691802979e-01
-4.835865795612335205e-01
-4.079888164997100830e-01
4.217573859932599589e-06
-7.113651633262634277e-01
-6.287331757448555436e-07
-3.278055787086486816e-01
-7.909522423688031267e-07
-3.033218681812286377e-01
-1.424174159765243530e-01
-5.179952979087829590e-01
2.629387381603009999e-06
-5.313982963562011719e-01
-7.878916263580322266e-01
-4.142315313220024109e-02
-1.262559067072288599e-06
4.615277248376514763e-06
-7.658905386924743652e-01
4.651023573387647048e-06
-3.531022369861602783e-02
-1.653058230876922607e-01
-5.760619640350341797e-01
-4.408866061567096040e-06
-5.434219837188720703e-01
-7.325290441513061523e-01
-5.994827747344970703e-01
9.803334251046180725e-06
-5.426232814788818359e-01
-1.979679473151918501e-05
-8.780702352523803711e-01
-1.448635756969451904e-01
-5.200026631355285645e-01
4.767621703649638221e-06
-4.940277040004730225e-01
-1.437040269374847412e-01
7.522988880737102591e-07
-2.899789706134470180e-06
-1.796115994453430176e+00
1.030301427817903459e-05
-6.254659638216253370e-06
-6.352796845021657646e-06
2.942968194474815391e-06
-5.816352768306387588e-06
-1.476405373068701010e-06
-1.269694530492415652e-05
-1.279969751522003207e-06
-4.548618107946822420e-06
-3.218990059394855052e-06
-9.511952157481573522e-06
-1.716304570436477661e-01
-3.661791682243347168e-01
1.000886368274223059e-05
1.014869436621665955e-01
-5.675488114356994629e-01
-4.128334224224090576e-01
-5.098748207092285156e-01
-3.114758729934692383e-01
-1.226644172902524588e-07
3.576055405574152246e-06
-6.702765822410583496e-03
1.098128905141493306e-05
-6.876646876335144043e-01
-1.440643332898616791e-02
-7.021957039833068848e-01
4.984647148376097903e-06
-1.909991397042176686e-06
-1.303074714087415487e-05
5.072502062830608338e-08
1.054791482602013275e-05
1.194367632706416771e-05
-5.462171435356140137e-01
-8.626340786577202380e-06
-8.865593671798706055e-01
-1.932662826220621355e-06
-4.355309307575225830e-01
-6.222441792488098145e-01
-7.054325124045135453e-06
3.942661805922398344e-06
-1.705256998538970947e-01
3.658101832115789875e-06
2.396526497250306420e-06
-1.930934935808181763e-01
-5.213488111621700227e-05
-3.295392096042633057e-01
1.104241346183698624e-05
1.299880750593729317e-05
1.261263489723205566e-01
-5.531526803970336914e-01
-5.169622898101806641e-01
-4.689745903015136719e-01
-7.641519606113433838e-02
-7.954439520835876465e-01
-2.314556837081909180e-01
-1.797260892999474891e-06
-2.301089912652969360e-01
7.447123380188713782e-07
2.209482772741466761e-06
-2.527016215026378632e-02
2.033875716733746231e-06
-4.339981675148010254e-01
-3.820219933986663818e-01
9.562680133967660367e-06
-4.818489775061607361e-03
-2.501385211944580078e-01
6.234240117919398472e-06
-8.202224373817443848e-01
8.693070412846282125e-06
-5.538793802261352539e-01
1.759398764988873154e-05
-2.031033830007800134e-07
-7.109978795051574707e-01
6.569158585989498533e-07
-3.429932594299316406e-01
-3.129181777694611810e-06
-4.893715679645538330e-01
-4.866768717765808105e-01
1.068349956767633557e-05
-1.157488673925399780e-01
6.620679050683975220e-02
-4.151399731636047363e-01
-6.361249089241027832e-01
-5.183603167533874512e-01
-9.487726725637912750e-03
-9.312345981597900391e-01
5.153156962478533387e-06
-1.049859046936035156e+00
-1.841360273147074622e-07
1.074579631676897407e-05
-5.470190048217773438e-01
-3.838228881359100342e-01
1.947376858879579231e-06
-2.004354596138000488e-01
1.279022358357906342e-02
4.691808499046601355e-06
1.151639298768714070e-05
3.983781880378955975e-06
1.285858899354934692e-01
1.129945985667291097e-06
-8.830010890960693359e-01
7.735332474112510681e-06
-4.510647613642504439e-06
5.618962924927473068e-03
-2.192213742091553286e-06
-5.097249746322631836e-01
-3.288169409643160179e-06
1.438379172213899437e-06
-1.114397036872105673e-05
-1.057837978005409241e-01
-1.804738193750381470e-01
-5.767937302589416504e-01
1.199092730530537665e-05
-3.478889539110241458e-06
-8.183141946792602539e-01
-9.182491302490234375e-01
-2.270095365020097233e-06
6.766519618395250291e-06
2.332139015197753906e-02
7.616758011863566935e-06
-5.509166717529296875e-01
-2.112023139488883317e-06
-4.010782959085190669e-06
1.302767259403481148e-06
-4.484083950519561768e-01
-1.047291517257690430e+00
-6.397020229087502230e-07
-5.617038160562515259e-02
-5.205458402633666992e-01
-1.348406821489334106e-01
-1.207140758197056130e-05
-1.569456160068511963e-01
-7.550916075706481934e-02
-5.319349725141364615e-07
5.659814632963389158e-06
-1.458277438359800726e-06
5.063718163000885397e-06
-8.163433670997619629e-01
4.029996887311426690e-07
-1.021934349410003051e-05
-2.204755842685699463e-01
-1.926818868014379404e-06
7.931564003229141235e-02
-4.363344311714172363e-01
7.571436100306527806e-08
-3.183767830705619417e-06
2.891827989515149966e-06
1.550830347696319222e-06
1.318185240961611271e-05
-8.546974658966064453e-01
5.060771852731704712e-02
6.453102287196088582e-06
-7.520427971030585468e-06
-4.096606969833374023e-01
3.938285772164817899e-06
-1.333097517490386963e-01
-5.124019384384155273e-01
1.569934338331222534e-01
9.350338586955331266e-06
8.709347248077392578e-02
-5.913279950618743896e-02
9.868818779068533331e-06
-4.084678292274475098e-01
-8.108655810356140137e-01
-1.719525812404754106e-06
-2.097321599721908569e-01
-6.607611477375030518e-02
-4.859752058982849121e-01
-6.310108346951892599e-07
-6.869059801101684570e-01
-9.956587746273726225e-06
-7.541953027248382568e-02
-6.885146831336896867e-06
-1.930628865957260132e-01
-3.107183147221803665e-06
-8.687821718922350556e-06
-1.290266513824462891e+00
-5.048306658864021301e-02
4.162205641478067264e-06
-8.663513660430908203e-01
-8.704751729965209961e-02
-1.001845628678665889e-08
-4.735231414088048041e-06
-3.807317625614814460e-06
5.299549922347068787e-02
-5.737090110778808594e-01
-8.411487340927124023e-01
5.832610186189413071e-03
5.032737180590629578e-02
-4.696668088436126709e-01
-1.219350099563598633e-01
-3.389000594615936279e-01
-1.884301809695898555e-06
1.430555433034896851e-01
-1.494412183761596680e+00
-5.579429864883422852e-01
7.684697038712329231e-07
-9.768339991569519043e-02
-8.726899977773427963e-06
-2.621885538101196289e-01
-1.443491964892018586e-05
-1.044758707284927368e-01
-5.638701915740966797e-01
-4.869520962238311768e-01
4.443003490450792015e-06
6.352710723876953125e-02
1.558138080781645840e-07
-1.073513831943273544e-02
-9.569455385208129883e-01
-1.422198920408845879e-06
-6.347237825393676758e-01
-7.575352810818003491e-06
3.279860690236091614e-02
-6.286951702350052074e-06
-3.925149142742156982e-01
-7.719474434852600098e-01
1.751419040374457836e-05
-1.106597574107581750e-05
-3.590616881847381592e-01
-2.931240200996398926e-01
-7.321652770042419434e-01
-9.927244484424591064e-02
-3.492034077644348145e-01
-1.614717621123418212e-05
-6.763290166854858398e-01
-3.272794485092163086e-01
-1.113824055209988728e-05
-4.560658999253064394e-04
-8.510556221008300781e-01
-2.947659194469451904e-01
1.191064435988664627e-02
-2.953671810246305540e-06
-1.530778408050537109e-01
-5.563301783695351332e-06
-4.048088937997817993e-02
-9.616635907150339335e-06
1.162467287940671667e-05
-4.273988902568817139e-01
-5.746305584907531738e-01
-5.841256380081176758e-01
-6.662871837615966797e-01
5.781434992968570441e-06
4.894376615993678570e-06
-8.264766335487365723e-01
-3.937455415725708008e-01
-3.868516162037849426e-02
-5.386285781860351562e-01
-2.587947547435760498e-01
-9.140065312385559082e-02
-1.050430637405952439e-05
-2.683406174182891846e-01
4.094773430551867932e-06
-8.095842204056680202e-04
-4.884001555183203891e-06
4.889785941486479715e-06
1.861099576672131661e-07
1.425465256943425629e-07
-8.441601991653442383e-01
-3.937366727768676355e-06
8.298217835545074195e-06
4.078480287716956809e-06
-5.252029895782470703e-01
-9.575962424278259277e-01
-1.155529025709256530e-05
-2.596041560173034668e-01
-5.341031551361083984e-01
-6.709634065628051758e-01
-6.151465186121640727e-06
2.589229097793577239e-06
-1.268830895423889160e-01
1.173763030237751082e-05
-3.441245326030184515e-06
-7.965642809867858887e-01
-9.504195077170152217e-06
-1.288560509681701660e+00
-9.588127136230468750e-01
-4.869386553764343262e-01
-4.097642749547958374e-02
-6.736645847558975220e-02
7.397904028039192781e-06
-1.206073984503746033e-01
3.721493158082012087e-06
-8.682642146595753729e-06
-5.793493613600730896e-02
-5.226325392723083496e-01
2.993312478065490723e-02
-5.374635748012224212e-06
-2.282278686761856079e-01
-5.050982236862182617e-01
-1.130323380493791774e-05
-5.191007852554321289e-01
-3.023117780685424805e-01
-5.122246742248535156e-01
-2.379689831286668777e-03
-4.168815612792968750e-01
-3.531437218189239502e-01
-2.034509629011154175e-01
6.473969202488660812e-03
-5.337730422616004944e-02
4.015638493001461029e-03
-6.873514056205749512e-01
-5.895488858222961426e-01
1.254320293664932251e-01
-5.200397968292236328e-01
-9.163793492916738614e-07
-3.845493665721733123e-06
-1.144129782915115356e-02
-6.768730282783508301e-01
-9.536235552332072984e-07
-5.779063105583190918e-01
-4.956677556037902832e-01
-1.187661051750183105e+00
1.013811561278998852e-05
5.141204837855184451e-06
-2.945335805416107178e-01
-1.344478823739336804e-05
5.727299594582291320e-06
-5.420335531234741211e-01
-3.652675331977661699e-06
-7.209550858533475548e-07
5.271352847557864152e-07
-6.193922162055969238e-01
-1.767136812210083008e+00
2.007561624050140381e-01
-6.770162582397460938e-01
-1.502968668937683105e-01
-2.765651047229766846e-01
8.867114782333374023e-02
-1.188467308566032443e-06
-4.163874387741088867e-01
-5.395596027374267578e-01
7.755902409553527832e-02
-6.649943316006101668e-06
-1.448706916562514380e-05
-3.705757535499287769e-06
-1.136105507612228394e-02
-4.678650498390197754e-01
-1.679910719394683838e-01
-1.315628737211227417e-01
-1.640807867050170898e+00
-5.677719400409841910e-06
-2.676549926400184631e-02
-1.755558855620620307e-06
4.702977093984372914e-06
4.264500737190246582e-02
-1.584932208061218262e-01
2.098450204357504845e-05
-4.963798820972442627e-01
-1.479068160057067871e+00
9.415756494490779005e-07
1.060044723999453709e-05
-8.967466783360578120e-06
-3.078719373661442660e-06
-9.611688938093720935e-07
-6.711804866790771484e-01
-6.621082320634741336e-06
-3.462193262748769484e-06
-3.007903695106506348e-01
-1.910104155540466309e-01
-5.664186477661132812e-01
-1.789942942559719086e-02
-2.884056866168975830e-01
-2.496369006621534936e-06
-2.418462599962367676e-06
-8.193805217742919922e-01
-3.549506366252899170e-01
-1.950289515662007034e-06
-1.255940060218563303e-05
-8.723956942558288574e-01
-3.783894271691679023e-06
-1.369903087615966797e+00
-1.225850656628608704e-01
-1.055424213409423828e+00
-3.078647807797096903e-07
-4.486434161663055420e-01
8.458018783130683005e-06
-3.574283709895098582e-06
-9.574978351593017578e-01
-1.478734463453292847e-01
-3.783867955207824707e-01
-4.597942279360722750e-06
-1.858868300914764404e-01
-1.290223008254542947e-05
5.473553983392775990e-07
-6.802313923835754395e-01
-4.371582235762616619e-06
-5.315106362104415894e-02
5.587952500718529336e-07
-2.172072527173440903e-06
-4.975693821907043457e-01
-9.356465339660644531e-01
-2.151763737201690674e-01
-3.933816552162170410e-01
-4.447614550590515137e-01
-9.717477041704114527e-06
-1.742801259752013721e-06
-2.382422983646392822e-01
-4.081095159053802490e-01
-1.789322644472122192e-01
-4.847480356693267822e-02
4.623980657925130799e-06
1.506143416918348521e-05
8.276558219222351909e-06
-8.053206205368041992e-01
-7.264977693557739258e-02
7.967807505337987095e-06
-2.607782334962394089e-06
-3.760869503021240234e-01
-5.542661710933316499e-06
-5.244192481040954590e-01
3.043757715204264969e-06
1.189773229270940647e-05
-6.805449258536100388e-03
-4.757836163043975830e-01
-4.492457264859694988e-06
1.840087747950747143e-06
-4.990130364894866943e-01
-2.149798125028610229e-01
-5.593688570115773473e-07
4.381921371532371268e-06
-4.699726105172885582e-06
1.452867854823125526e-05
-7.637766429979819804e-06
-2.138818651437759399e-01
6.842290986242005602e-06
-8.003882169723510742e-01
-9.014622122049331665e-02
-6.318448185920715332e-01
-3.694668412208557129e-01
-4.803880155086517334e-01
-7.354371973633533344e-06
5.330905423761578277e-06
1.370884384959936142e-02
-1.036299181578215212e-05
9.255330951418727636e-06
4.662420906242914498e-06
5.189454928040504456e-02
1.039171365846414119e-06
-3.251434266567230225e-01
-1.665804862976074219e+00
6.372137249854858965e-06
-1.325933456420898438e+00
1.493389997631311417e-02
4.622298547474201769e-06
5.490506737260147929e-06
-4.902794898953288794e-06
-3.739918470382690430e-01
-7.332112090807640925e-06
-4.320845603942871094e-01
-1.170056521004880778e-06
-7.020263671875000000e-01
4.497806457948172465e-06
-7.219333648681640625e-01
-1.251077413558959961e+00
-4.994160830974578857e-01
-6.964951808186015114e-06
-8.105777737910102587e-07
-3.408153588679851964e-06
4.121567599213449284e-06
-1.230700581800192595e-05
-4.238188862800598145e-01
-2.948346734046936035e-01
-8.059713840484619141e-01
-4.952946305274963379e-01
1.376301270283875056e-06
3.619033122959081084e-06
4.011315852403640747e-02
-9.551625251770019531e-01
6.365159606502857059e-06
-1.123706221580505371e+00
2.484437525272369385e-01
-5.399401187896728516e-01
3.163016515372873982e-08
1.421590596437454224e-01
-7.791249752044677734e-01
-3.406879603862762451e-01
-6.333600140351336449e-06
-2.630640268325805664e-01
-7.714072125963866711e-06
-4.563542604446411133e-01
-7.664832082809880376e-06
2.426626906526507810e-06
8.410104783251881599e-06
-6.144555807113647461e-01
-1.356084048748016357e-01
-3.003777563571929932e-01
1.104127659345977008e-05
-7.296330761164426804e-03
-3.438779711723327637e-01
-4.586222075886325911e-06
-6.616691280214581639e-06
-4.037530124187469482e-01
-7.275027201103512198e-06
-3.981266218033852056e-06
-2.857113778591156006e-01
-4.042933596792863682e-06
-1.088489741086959839e-01
6.445950269699096680e-02
-6.616044640541076660e-01
1.202905514219310135e-05
-1.487338244915008545e-01
-1.543937027454376221e-01
2.789548261716845445e-06
-1.848717374741681851e-06
-1.300429105758666992e-01
-2.626416385173797607e-01
6.266935088206082582e-06
-2.226855307817459106e-01
-2.055119693977758288e-06
-6.227214932441711426e-01
3.452742475928971544e-06
-2.772652208805084229e-01
-1.390506029129028320e+00
1.296362825087271631e-06
3.468127176165580750e-02
3.081419777117844205e-07
6.627127062529325485e-03
1.180738955736160278e-01
1.007982864975929260e-01
1.684079325059428811e-05
-6.320237517356872559e-01
-2.010860145092010498e-01
5.528969722945475951e-06
-5.227391719818115234e-01
-1.585067063570022583e-01
-6.648496724665164948e-03
-5.290280580520629883e-01
-8.688710629940032959e-02
-4.189847111701965332e-01
-5.991050004959106445e-01
1.282485845877090469e-05
-1.027046710078138858e-05
-3.544329106807708740e-01
-2.202019542455673218e-01
-7.525892853736877441e-01
-1.059936046600341797e+00
-5.709295868873596191e-01
-4.640487432479858398e-01
-6.206153631210327148e-01
-6.711743474006652832e-01
-9.674799442291259766e-01
-5.095185041427612305e-01
-7.974580526351928711e-01
4.742956662084907293e-06
-5.789508122688857839e-06
-5.004953145980834961e-01
-8.065406291279941797e-06
8.070475814747624099e-06
-1.974661052227020264e-01
6.634372766711749136e-07
-2.481564024492399767e-06
-6.763365945516852662e-06
-4.974313378334045410e-01
-7.388636469841003418e-01
1.379876136779785156e-01
-5.245662927627563477e-01
-3.956482112407684326e-01
-4.153721928596496582e-01
2.022638909693341702e-06
3.928882676973444177e-07
-1.195311665534973145e+00
7.227405905723571777e-02
3.946557171730091795e-06
5.655155291606206447e-06
-5.138286948204040527e-01
-3.425142494961619377e-06
-8.394789099693298340e-01
6.111787115514744073e-06
-3.755276203155517578e-01
8.060322898018057458e-07
-8.919821381568908691e-01
-6.961106919334270060e-06
-4.620508477091789246e-02
-9.920473758029402234e-07
-6.651147007942199707e-01
-1.813785502235987224e-06
-3.711096942424774170e-01
-8.787312507629394531e-01
1.367907316307537258e-05
-5.642727613449096680e-01
-2.657096956681925803e-06
-4.749707579612731934e-01
-8.178981261153239757e-06
-2.964564859867095947e-01
-7.889490802881482523e-07
5.115568910696310923e-06
6.550692766904830933e-02
-2.331524044275283813e-01
7.856150659790728241e-06
-7.379375100135803223e-01
6.817052053520455956e-06
3.302222921774955466e-06
9.418074569111922756e-07
-1.282688390347175300e-05
3.448269143700599670e-02
1.093804240226745605e-01
-9.100113857130054384e-06
4.307668859837576747e-06
1.265863829758018255e-06
1.479656621813774109e-02
-5.139297842979431152e-01
-3.722618520259857178e-01
-1.351973414421081543e-01
-7.512246966361999512e-01
1.843036413192749023e-01
-4.307342767715454102e-01
-4.976721107959747314e-01
-7.464749813079833984e-01
-4.486171746975742280e-06
-3.854981362819671631e-01
-3.963359892368316650e-01
4.278361302567645907e-06
-5.193381905555725098e-01
-5.189752578735351562e-01
1.410076583852060139e-05
-6.614874005317687988e-01
-7.184564135968685150e-03
7.164793260017177090e-06
-7.709380042797420174e-06
-5.367833375930786133e-01
-5.059891343116760254e-01
-5.149201154708862305e-01
-3.681395351886749268e-01
8.395842996833380312e-06
-3.206041355952038430e-06
-2.120526283979415894e-01
-2.741220891475677490e-01
-3.815204203128814697e-01
-4.563756585121154785e-01
-9.494187235832214355e-01
-9.364433586597442627e-02
-9.421377778053283691e-01
-2.163636982440948486e-01
-1.255911588668823242e-01
-8.044779300689697266e-01
-4.823266267776489258e-01
-1.020978288579499349e-06
-3.808580636978149414e-01
1.027630150929326192e-05
1.187012276204768568e-05
-1.129320571635616943e-05
-7.191438674926757812e-01
1.227918232871161308e-06
-1.121817513194400817e-05
3.251080214977264404e-02
-5.579417484113946557e-05
1.861991677287733182e-06
-1.047726273536682129e+00
-3.217627406120300293e-01
-5.235006809234619141e-01
-1.926321387290954590e-01
-1.835821196436882019e-02
-8.172623893187846988e-06
1.571203917264938354e-01
-8.182378411293029785e-01
-9.195779966830741614e-06
-3.948297798633575439e-01
2.557251751422882080e-01
5.476197227835655212e-02
-6.742821931838989258e-01
-1.981523633003234863e-02
-4.470321834087371826e-01
4.061959311366081238e-02
-5.096810460090637207e-01
1.591469347476959229e-01
-5.284371227025985718e-02
-3.963741164625389501e-06
-1.515503972768783569e-01
-1.925378819578327239e-05
-3.380565047264099121e-01
-3.418973088264465332e-01
-4.349253773689270020e-01
4.493535670917481184e-04
5.925477580603910610e-06
-5.847395658493041992e-01
-5.847079137311084196e-06
-6.953221559524536133e-01
-6.896162033081054688e-01
4.360177626949734986e-06
-7.264410257339477539e-01
8.342617974221866461e-08
-5.397399663925170898e-01
4.271918442100286484e-06
-6.432653665542602539e-01
-3.994854390621185303e-01
-1.116543626267230138e-05
9.341551958641503006e-07
-3.046560883522033691e-01
1.871595904231071472e-02
5.265616891847457737e-06
3.852906047541182488e-06
-6.953458068892359734e-06
1.967174512174096890e-06
-3.629912137985229492e-01
-5.987081527709960938e-01
-3.207444548606872559e-01
1.638638605072628707e-05
-4.311647713184356689e-01
-5.117896762385498732e-06
-4.584570229053497314e-01
1.359179236715135630e-06
3.711181989274336956e-06
-1.510073343524709344e-05
-1.864376281446311623e-05
6.336583879829049692e-08
-1.306030601263046265e-01
-9.909791499376296997e-02
5.987188778817653656e-03
1.200469887407962233e-05
-2.244507223367691040e-01
-8.942408561706542969e-01
-7.822496443986892700e-02
-8.359571666005649604e-07
-3.966525793075561523e-01
-7.617583833052776754e-06
-1.706177443265914917e-01
-4.893934726715087891e-01
-2.046458572149276733e-01
-2.101725041866302490e-01
1.029856889545044396e-06
-5.223789215087890625e-01
-1.955291926860809326e-01
-1.808214783668518066e-01
-5.666519200531183742e-07
-5.939176844549365342e-06
-1.722154974937438965e+00
9.274744242429733276e-02
-6.626126170158386230e-01
-8.865283727645874023e-01
-1.355091171717504039e-06
-6.510440111160278320e-01
-5.386128123063826934e-06
-1.100600287318229675e-01
-5.182636380195617676e-01
-1.064360737800598145e+00
-1.237307116389274597e-02
-4.614015519618988037e-01
-9.310401044785976410e-03
1.602791962795890868e-05
-1.372964106849394739e-06
3.500514594634296373e-06
-8.852302432060241699e-01
-7.389834536297712475e-06
-9.566338062286376953e-01
-2.407678039162419736e-06
-1.300764324696501717e-05
1.180191710591316223e-02
-5.563339591026306152e-01
2.593178805909701623e-06
-5.641528332489542663e-06
-1.744631958899844903e-06
-6.439924240112304688e-01
3.571062507035094313e-06
-1.313195843977155164e-05
-4.838519915938377380e-02
-6.593831777572631836e-01
-5.773383378982543945e-01
2.438415322103537619e-06
3.735174004759755917e-06
-1.871616989374160767e-01
-8.509920917276758701e-06
-3.711111843585968018e-01
-6.557034254074096680e-01
-1.021775245666503906e+00
-5.549843907356262207e-01
-4.180016219615936279e-01
-9.084023237228393555e-01
-6.580200195312500000e-01
8.116950880321383011e-07
-4.187320824712514877e-03
-2.739026546478271484e-01
-4.903432130813598633e-01
-1.815785914659500122e-01
-6.091384589672088623e-02
2.707137763500213623e-01
-1.146453359979204834e-05
-3.164553344249725342e-01
-1.701281785964965820e+00
-8.595551848411560059e-01
-2.676548774616094306e-06
-7.757803201675415039e-01
-1.377742228214628994e-05
-5.550511479377746582e-01
-7.451800684066256508e-06
-7.511764764785766602e-01
5.549524644266057294e-07
-7.372132688760757446e-02
7.862172275781631470e-02
-4.947871267795562744e-01
-1.898725628852844238e-01
-9.035313269123435020e-06
-4.932754635810852051e-01
-6.905338068463606760e-06
-1.056363344192504883e+00
-1.060781050910009071e-05
-8.341563344001770020e-01
-9.351834654808044434e-01
-3.200746774673461914e-01
-9.666810001363046467e-06
6.888699317642021924e-06
-5.217804387211799622e-02
-2.017173756030388176e-06
-1.161513663828372955e-02
2.012934535741806030e-02
-5.535926222801208496e-01
-6.770012378692626953e-01
-5.335040688514709473e-01
