8.361238241195678711e-02 5.428240448236465454e-02 9.432282298803329468e-02 9.258303791284561157e-02 -6.023755669593811035e-02 -1.361778378486633301e-01 2.164353802800178528e-02 -2.915996313095092773e-02 -1.255393214523792267e-02
9.502215683460235596e-02 8.987186476588249207e-03 -9.175060391426086426e-01 1.146790012717247009e-01 -2.259916998445987701e-02 1.830660551786422729e-01 -3.305348800495266914e-03 4.477438628673553467e-01 1.344003598205745220e-03
-2.380829751491546631e-01 -2.351494133472442627e-02 -4.396862089633941650e-01 -3.115233182907104492e-01 -1.245650127530097961e-01 -2.768819034099578857e-01 -4.838165640830993652e-02 -3.655808866024017334e-01 -1.728573814034461975e-02
2.660681307315826416e-01 5.194494128227233887e-02 -9.610072374343872070e-01 2.728827064856886864e-03 -2.469686558470129967e-03 2.947195060551166534e-02 -1.771722733974456787e-02 -1.591580547392368317e-02 7.981803268194198608e-03
-4.620765522122383118e-02 4.608006402850151062e-02 1.506562978029251099e-01 7.012825459241867065e-02 -1.126163899898529053e-01 -1.463115513324737549e-01 9.909383207559585571e-02 1.849362105131149292e-01 1.574193239212036133e-01
-1.652705213928129524e-05 -2.358401434321422130e-05 -3.649930931715061888e-06 1.618354144738987088e-05 3.915491106454282999e-06 8.071876436588354409e-06 -4.850855475524440408e-06 3.065731334572774358e-06 -1.436441652913345024e-05
1.245140629180241376e-05 -6.914713594596832991e-06 -2.645501808729022741e-06 1.310956031375098974e-05 -1.259171858691843227e-05 3.439239435465424322e-07 -1.664092815190088004e-05 7.869361070333980024e-06 4.725085091195069253e-06
1.003141775727272034e-01 9.248754940927028656e-03 1.874179691076278687e-01 -2.221095412969589233e-01 7.664920687675476074e-01 -2.733179032802581787e-01 -1.662193387746810913e-01 -6.043514981865882874e-02 2.272992767393589020e-02
-1.478892528439246234e-07 9.870736903394572437e-06 4.869825716014020145e-06 2.110713694492005743e-06 -1.709606067379354499e-06 7.045419465612212662e-07 -1.581392825755756348e-05 3.123377609881572425e-06 -1.498975962022086605e-06
-8.698622137308120728e-02 -1.230886299163103104e-02 -3.557818233966827393e-01 -7.485901117324829102e-01 -6.925439927726984024e-03 1.032222270965576172e+00 -9.281215071678161621e-02 5.126372352242469788e-02 5.623879260383546352e-04
1.126377173932269216e-05 -1.109855566028272733e-05 -7.537457804573932663e-06 -7.766288945276755840e-06 9.105617209570482373e-06 -1.027726284519303590e-05 -1.154851725004846230e-05 -4.294686561934213387e-07 -4.428933971212245524e-05
-1.125196516513824463e-01 1.265360265970230103e-01 2.204198986291885376e-01 -2.090558558702468872e-01 -1.845562644302845001e-02 1.251596808433532715e-01 -8.867225842550396919e-04 -1.893355846405029297e-01 1.037189289927482605e-01
5.772046744823455811e-02 3.767285495996475220e-02 -8.124172687530517578e-03 -1.640068143606185913e-01 2.562535926699638367e-02 2.392986267805099487e-01 4.458874464035034180e-02 1.095528528094291687e-01 -4.818507283926010132e-02
-9.933013934642076492e-04 -3.016411885619163513e-02 5.153443217277526855e-01 2.868360579013824463e-01 5.743670742958784103e-03 -8.854785561561584473e-01 -6.418010592460632324e-02 1.729706078767776489e-01 1.867558434605598450e-02
8.000306479516439140e-06 -4.260314199200365692e-06 -4.965168045600876212e-06 -1.070320558937964961e-05 3.113738421234302223e-05 -6.385016149579314515e-06 -4.857481599174207076e-06 -1.515032363386126235e-05 -4.377273853606311604e-06
4.432084411382675171e-02 1.661286316812038422e-02 -9.349522739648818970e-02 1.496677547693252563e-01 5.540206432342529297e-01 1.648127473890781403e-02 6.764616072177886963e-02 -6.227403506636619568e-02 8.047533035278320312e-02
-2.309655428689438850e-06 -5.627584414469311014e-06 -2.204021711804671213e-06 -7.908417501312214881e-06 1.936324042617343366e-05 -2.587423750810557976e-06 -4.330589945311658084e-06 -3.685625642901868559e-06 -2.008986302826087922e-05
6.375906878020032309e-07 2.350490831304341555e-06 4.399043973535299301e-06 3.366813871252816170e-06 2.253412640129681677e-05 -4.571580120682483539e-06 9.218415470968466252e-06 -1.213904621266692629e-08 -1.044213149725692347e-05
-3.265569731593132019e-02 -5.082109197974205017e-02 -4.079857841134071350e-02 5.508208274841308594e-01 5.907580256462097168e-02 -7.695471495389938354e-02 -2.002252340316772461e-01 -1.355341225862503052e-01 -3.018491901457309723e-02
2.347766980528831482e-02 7.512948010116815567e-03 8.435509353876113892e-02 -3.425898030400276184e-02 5.208828672766685486e-02 -8.147665113210678101e-02 3.106420859694480896e-02 1.197008639574050903e-01 8.419691771268844604e-02
-6.897519142512464896e-06 4.072246883879415691e-05 1.345794771623332053e-05 -6.903897883603349328e-06 2.311280468347831629e-06 -4.100746082258410752e-06 -5.957391294941771775e-06 2.184220420531346463e-06 -4.244962781285721576e-07
5.815002694725990295e-02 -1.027836874127388000e-01 -2.485526958480477333e-03 1.093015596270561218e-01 -1.801774054765701294e-01 -1.279274281114339828e-02 -5.237359181046485901e-02 -9.207380563020706177e-02 -7.367700338363647461e-02
-7.934419045341201127e-06 -2.068579669867176563e-05 1.153627272287849337e-05 -7.005533916526474059e-06 1.025250276143196970e-05 7.274570634763222188e-06 1.160558622359531000e-05 -1.715949792924220674e-06 -1.602068005013279617e-05
1.158205270767211914e-01 -6.078776437789201736e-03 4.805254340171813965e-01 -7.811555266380310059e-01 4.565751552581787109e-02 -3.877000212669372559e-01 2.718693315982818604e-01 1.066444069147109985e-02 1.669820398092269897e-02
3.415000811219215393e-02 -9.909193962812423706e-03 1.065804600715637207e+00 -6.777757406234741211e-01 -7.716075051575899124e-03 -4.819285273551940918e-01 5.259249592199921608e-04 -3.228591382503509521e-02 -4.217380657792091370e-03
-1.223819253937108442e-06 2.362087798246648163e-05 7.985524774767327472e-08 5.740744654758600518e-06 2.300985397596377879e-05 -3.421012024773517624e-06 1.036414118971151765e-06 8.961211278801783919e-06 2.036516525549814105e-05
1.521523892879486084e-01 5.666987970471382141e-02 6.303574144840240479e-02 -7.707969844341278076e-02 1.118325516581535339e-01 -6.412934511899948120e-02 -1.074617612175643444e-03 5.992333889007568359e-01 2.300940454006195068e-02
-5.059180781245231628e-02 6.446444243192672729e-02 -2.960762679576873779e-01 -2.145035862922668457e-01 5.282816011458635330e-03 5.739304050803184509e-02 -2.226977199316024780e-01 5.321460962295532227e-01 1.523759867995977402e-02
2.066721208393573761e-06 -2.062478597508743405e-05 -1.910158289319952019e-06 -4.883022029389394447e-06 -5.483708719111746177e-06 -1.025874439619656187e-06 -4.798298959940439090e-06 -2.563031330282683484e-06 -2.040756589849479496e-05
7.977492714417167008e-06 -9.252753443433903158e-06 6.900543667143210769e-06 -8.478766176267527044e-06 -1.687806434347294271e-05 2.776947212623781525e-06 -7.517724043282214552e-06 7.997381544555537403e-06 -1.626483208383433521e-05
-2.228540740907192230e-02 -1.772420704364776611e-01 1.345641165971755981e-01 -5.308838188648223877e-02 2.080262452363967896e-01 -2.615814097225666046e-02 8.364051580429077148e-02 -6.249659508466720581e-02 -1.315388130024075508e-03
8.742046702536754310e-06 -1.481957770010922104e-05 -4.414357590576400980e-06 -4.444279511517379433e-06 -4.107950644538505003e-06 -1.848642750701401383e-05 -1.330826307821553200e-05 -7.335084319493034855e-06 -1.635631451790686697e-05
7.254340499639511108e-02 3.340312093496322632e-02 9.813497215509414673e-02 -2.926506996154785156e-01 -2.955588698387145996e-01 3.093625977635383606e-02 1.787123829126358032e-01 4.348669648170471191e-01 9.761831909418106079e-02
4.384785424917936325e-03 -8.296318352222442627e-03 -2.054033987224102020e-02 -1.889294572174549103e-02 -1.920853555202484131e-02 6.229133810847997665e-03 -2.551232650876045227e-02 -4.548378661274909973e-02 -4.771488904953002930e-02
-2.394077628850936890e-01 -4.272814840078353882e-02 7.207767367362976074e-01 -4.652872979640960693e-01 -7.763160392642021179e-03 3.704616427421569824e-02 4.696625098586082458e-02 -1.507669240236282349e-01 1.129685249179601669e-02
-2.574018836021423340e-01 7.150469720363616943e-02 1.138738095760345459e-01 5.735254287719726562e-02 8.982903510332107544e-02 1.368316113948822021e-01 -1.129894852638244629e-01 1.634102910757064819e-01 1.363940834999084473e-01
-3.063547797501087189e-02 6.611498072743415833e-03 -2.541005983948707581e-02 -5.207955837249755859e-03 5.386388301849365234e-02 1.489525288343429565e-01 2.692126855254173279e-02 6.721709389239549637e-03 4.954230040311813354e-02
5.612168461084365845e-02 3.995574265718460083e-02 8.326365053653717041e-02 -3.681998699903488159e-02 -5.225498601794242859e-02 1.679251343011856079e-01 2.117729634046554565e-01 8.260920643806457520e-02 4.334275424480438232e-02
-6.839857250452041626e-02 -1.466723680496215820e-01 -1.497543752193450928e-01 1.811457611620426178e-02 -1.463392078876495361e-01 -3.952712565660476685e-02 1.054607927799224854e-01 5.726444721221923828e-02 1.517544686794281006e-01
-8.159820735454559326e-02 7.838587462902069092e-02 1.806616932153701782e-01 2.896036207675933838e-01 1.299810111522674561e-01 -1.392265409231185913e-01 1.698902249336242676e-01 5.487040057778358459e-02 -6.946600228548049927e-02
2.988223358988761902e-02 1.420706361532211304e-01 -5.806204676628112793e-02 -1.114121675491333008e-01 9.704349189996719360e-02 -4.718996118754148483e-03 -1.300254464149475098e-01 5.438774824142456055e-02 -2.514009773731231689e-01
-4.816691577434539795e-02 -1.196187804453074932e-05 -1.499850582331418991e-02 -1.472718954086303711e+00 -8.905232883989810944e-03 1.321313977241516113e+00 6.650747964158654213e-04 -3.423668444156646729e-02 2.939837577287107706e-04
7.991221536940429360e-06 1.698209962341934443e-05 2.525665422581369057e-06 -1.477288151363609359e-05 7.697644832660444081e-06 -1.571967550262343138e-05 -9.720713023853022605e-06 -8.884826456778682768e-06 -3.454184843576513231e-05
1.229271944612264633e-02 -2.001455286517739296e-03 4.340589791536331177e-02 5.878351628780364990e-03 2.520746737718582153e-02 -1.246259883046150208e-01 6.800655741244554520e-03 2.264578826725482941e-02 1.878849789500236511e-02
7.593190275656525046e-06 1.673703263804782182e-05 1.343970052403165027e-05 -5.570570465351920575e-06 -5.637779395328834653e-06 -8.481879376631695777e-06 -1.282024823012761772e-05 9.317237527284305543e-06 -2.461470830894540995e-05
9.851565957069396973e-02 1.565084606409072876e-01 -3.610697984695434570e-01 2.660570144653320312e-01 9.453278779983520508e-02 1.009636521339416504e-01 2.266200631856918335e-02 7.479714602231979370e-02 -1.933215372264385223e-02
-3.972885012626647949e-02 9.011130034923553467e-02 3.512849807739257812e-01 5.815345048904418945e-02 3.008978366851806641e-01 -9.329518675804138184e-02 2.177267894148826599e-02 -3.189218938350677490e-01 7.260662503540515900e-03
-1.158946247414860409e-06 8.060324944381136447e-06 -8.372680895263329148e-06 6.549262252519838512e-06 -1.034008710121270269e-05 -4.207844540360383689e-06 -6.979407203289156314e-07 -1.166816309705609456e-05 2.161739394068717957e-05
-9.627542567614000291e-06 8.692491064721252769e-06 1.109401637222617865e-05 -3.862448636482440634e-07 -6.856849267933284864e-06 -3.531544507495709695e-06 -7.545678272435907274e-06 4.740094482258427888e-06 4.099777015653671697e-06
2.454597875475883484e-02 2.286147885024547577e-02 -6.965451836585998535e-01 5.794600397348403931e-02 4.540848731994628906e-02 -2.702678442001342773e-01 1.224002689123153687e-01 -3.273419737815856934e-01 1.087915971875190735e-01
9.662112461228389293e-06 -1.518590033811051399e-05 3.309072269530588528e-07 -1.692018940957495943e-06 -2.019399835262447596e-05 -5.095159394841175526e-06 -8.102801984932739288e-06 7.371461379079846665e-06 -1.128435906139202416e-05
3.813372179865837097e-02 7.174748461693525314e-03 -4.726202692836523056e-03 -5.380436778068542480e-02 -3.102713450789451599e-02 1.882810592651367188e-01 -5.379360914230346680e-02 3.702551126480102539e-03 5.205441638827323914e-02
-1.786470226943492889e-02 -4.651150852441787720e-02 1.192833632230758667e-01 -1.412958800792694092e-01 5.450323596596717834e-02 1.383983939886093140e-01 1.158293858170509338e-01 5.997928977012634277e-02 1.148767173290252686e-01
4.847944978791929316e-07 -1.559619886393193156e-05 5.416227395471651107e-06 -5.237463483354076743e-06 1.601918302185367793e-05 -3.173788627464091405e-06 -1.092739785235607997e-05 1.327902964476379566e-06 -1.897065340017434210e-05
9.711392522149253637e-06 2.507001772755756974e-05 1.124277423514286056e-05 -1.568115067129838280e-06 -1.253587379324017093e-05 -4.724366590380668640e-06 -1.445249472453724593e-05 8.230963430833071470e-06 -1.213280484080314636e-06
-2.894943766295909882e-02 -1.330673843622207642e-01 6.736848503351211548e-02 2.817866504192352295e-01 -1.404642462730407715e-01 3.440098464488983154e-02 3.821633383631706238e-02 -3.245003521442413330e-02 1.315484941005706787e-01
2.689301967620849609e-01 6.842151284217834473e-02 -4.885391592979431152e-01 3.047976791858673096e-01 -2.956216339953243732e-04 3.314465284347534180e-01 -1.392618119716644287e-01 1.489510238170623779e-01 4.091534018516540527e-02
-2.111706882715225220e-02 9.337334334850311279e-02 -3.522416949272155762e-01 4.479521885514259338e-02 1.232141107320785522e-01 -1.368274912238121033e-02 4.774412445840425789e-05 -1.239126697182655334e-01 -1.459252554923295975e-02
8.737761527299880981e-02 -7.031036168336868286e-02 6.813227199018001556e-03 -8.123759925365447998e-02 -3.110494017601013184e-01 1.942922323942184448e-01 1.668407022953033447e-01 -1.372724622488021851e-01 3.802467137575149536e-02
-4.601139947772026062e-02 6.065449118614196777e-02 7.958282530307769775e-02 -4.245823025703430176e-01 -1.033095568418502808e-01 -3.069879412651062012e-01 3.503518998622894287e-01 3.423388674855232239e-02 3.373610600829124451e-02
6.626164577028248459e-06 -2.610980800454854034e-06 -7.289102086360799149e-06 -1.412549295309872832e-06 -1.153571247414220124e-05 -9.579192010278347880e-06 -1.504132069385377690e-05 -9.181841960526071489e-06 -1.994149897655006498e-05
4.124110192060470581e-02 -5.834238603711128235e-02 -7.904803007841110229e-02 -8.574547618627548218e-02 -9.217193350195884705e-03 -3.516518697142601013e-02 -3.531440719962120056e-02 -2.615326270461082458e-02 -5.212243646383285522e-02
2.596619352698326111e-02 2.513833343982696533e-02 2.086690068244934082e-02 -9.164455696009099483e-04 -9.526886045932769775e-03 -1.718434505164623260e-02 -3.793751075863838196e-02 5.628567934036254883e-01 8.198451995849609375e-01
6.403976585716009140e-03 1.078893244266510010e-02 -1.264630164951086044e-02 5.536047741770744324e-02 -6.563603132963180542e-02 9.442482888698577881e-02 4.624900594353675842e-02 1.953915320336818695e-02 4.359065368771553040e-02
-3.344987705349922180e-02 5.866196379065513611e-02 7.439707964658737183e-02 2.508557029068470001e-02 4.352062568068504333e-02 3.371199220418930054e-02 -1.937615312635898590e-02 -9.585833549499511719e-02 -4.016348719596862793e-02
1.657825123402290046e-05 -1.572663859406020492e-05 2.766140369203640148e-06 -9.535311619401909411e-06 -1.263725152966799214e-05 -8.412145689362660050e-06 -8.056548722379375249e-06 3.643966238087159581e-06 -8.240657734859269112e-06
4.285845989215886220e-06 1.420618991687661037e-05 -1.180844833470473532e-06 -8.229251761804334819e-06 -8.089138646028004587e-06 8.570615364078548737e-07 -1.284724839933915064e-05 -3.111637170150061138e-06 -2.132004192390013486e-05
-5.755099664384033531e-06 -3.147638153677689843e-06 1.848130636972200591e-06 -6.950946044526062906e-06 2.186239044021931477e-06 6.429910968108742964e-07 -1.544537781228427775e-06 7.181733508332399651e-06 1.723658715491183102e-05
2.983407057399745099e-06 1.004309615382226184e-05 -5.908223101869225502e-07 -1.753192736941855401e-05 -1.255895949725527316e-05 -3.495028977340552956e-06 -6.811223101976793259e-06 3.677186668937793002e-06 -3.446817208896391094e-05
3.286549076437950134e-02 2.160573564469814301e-02 -9.821926355361938477e-01 7.355670928955078125e-01 -3.288492327556014061e-03 6.633533537387847900e-02 2.861949987709522247e-02 6.461834907531738281e-02 1.585042104125022888e-02
-6.020291522145271301e-02 2.234807759523391724e-01 3.222127854824066162e-01 1.250864565372467041e-02 -1.465416420251131058e-02 -8.002751320600509644e-02 -8.827073872089385986e-02 -1.735771894454956055e-01 2.348389290273189545e-02
-6.270682661124737933e-06 2.002663904931978323e-06 4.494658696785336360e-06 -1.352589265479764435e-06 1.114118913392303512e-05 2.410180286460672505e-06 -8.284160685434471816e-06 1.379867535433731973e-05 1.845016413426492363e-06
1.111424937844276428e-01 1.474476139992475510e-02 8.283600211143493652e-01 -4.793284237384796143e-01 -5.600002128630876541e-03 -6.396936178207397461e-01 1.022624298930168152e-01 7.423121482133865356e-02 7.209685631096363068e-03
2.548674046993255615e-01 1.604687124490737915e-01 3.216703534126281738e-01 -1.235904470086097717e-01 5.701932683587074280e-02 -3.662616759538650513e-02 2.203896790742874146e-01 -5.576217174530029297e-02 1.195960417389869690e-01
1.427641659975051880e-01 5.632600281387567520e-03 -1.848435848951339722e-01 1.236155536025762558e-02 -1.408400833606719971e-01 -3.973325714468955994e-02 -6.662765890359878540e-02 -8.095888793468475342e-02 -7.047510892152786255e-02
-3.438074514269828796e-02 -7.252388168126344681e-03 9.965624660253524780e-02 2.313115000724792480e-01 -8.391612023115158081e-02 8.443073928356170654e-02 2.976348809897899628e-02 2.513307891786098480e-02 2.173339016735553741e-02
-9.466558367421384901e-06 2.677251359273213893e-06 2.045296469077584334e-06 1.110261791836819611e-06 3.088342737100902013e-06 5.822522780363215134e-06 4.704264938482083380e-06 -2.226244987468817271e-06 4.661243622194888303e-07
-1.002842054731445387e-05 -5.374967713578371331e-06 -1.511568711975996848e-06 5.506275329025811516e-07 9.318036063632462174e-06 2.226024207629961893e-06 -4.481367795960977674e-06 8.544827323930803686e-06 1.563405021443031728e-05
7.695833593606948853e-02 -1.101731732487678528e-01 -2.170149087905883789e-01 -3.033867478370666504e-01 5.211833491921424866e-02 -3.073611855506896973e-01 2.989977002143859863e-01 -4.745130240917205811e-01 5.866004526615142822e-02
7.386188022792339325e-03 4.451827332377433777e-02 6.603306531906127930e-02 4.691704362630844116e-02 -1.391512602567672729e-01 6.587442010641098022e-02 9.282696247100830078e-02 -5.303039401769638062e-02 -7.771618198603391647e-03
8.585207164287567139e-03 1.366395130753517151e-02 -4.043450579047203064e-03 -5.865934491157531738e-02 9.627048671245574951e-02 3.006475418806076050e-02 4.350123926997184753e-02 -4.748030751943588257e-02 -2.135473676025867462e-02
1.459898799657821655e-01 4.015771672129631042e-02 4.076706990599632263e-02 -1.352534592151641846e-01 1.802745908498764038e-01 -1.650793701410293579e-01 1.916243433952331543e-01 2.129743695259094238e-01 7.587069272994995117e-02
-5.461441105580888689e-06 5.836244554302538745e-07 3.357295554451411590e-06 2.814477966239792295e-06 1.516699558123946190e-05 5.622927190529480868e-08 9.072217835637275130e-06 -6.005573595757596195e-06 -1.994229933188762516e-05
5.562783479690551758e-01 2.114494442939758301e-01 -1.245254185050725937e-02 -1.318975444883108139e-02 -1.140020228922367096e-02 -2.874549292027950287e-02 -7.160998880863189697e-02 -5.833153799176216125e-02 -1.657496392726898193e-01
1.273639441023988184e-06 -3.069733793381601572e-05 -1.557453174427791964e-06 -8.255698958237189800e-06 -1.267273546545766294e-05 1.048475223797140643e-05 6.080580533307511359e-06 8.650714335090015084e-06 -7.930234460218343884e-06
2.791021764278411865e-02 7.136353850364685059e-02 5.100214853882789612e-02 4.062542319297790527e-02 -1.179326921701431274e-01 1.104644238948822021e-01 1.264700293540954590e-01 -1.434129476547241211e-02 -6.964801251888275146e-02
-2.213230133056640625e-01 -4.193490836769342422e-03 -1.525954753160476685e-01 4.922184646129608154e-01 2.905085124075412750e-02 -3.121506571769714355e-01 -1.386745274066925049e-01 -2.047012001276016235e-01 1.860244199633598328e-02
2.561159804463386536e-02 1.726342178881168365e-02 2.169337719678878784e-01 4.387205839157104492e-02 -6.072950959205627441e-01 -2.697027921676635742e-01 1.042098850011825562e-01 2.590313181281089783e-02 3.885586559772491455e-02
-7.211765023384941742e-06 1.938092509590205736e-06 -9.332372428616508842e-06 -3.166228452755603939e-06 4.633547632693080232e-06 -9.066752681974321604e-06 -7.184336027421522886e-06 -6.164434580568922684e-07 7.189197276602499187e-06
7.862818241119384766e-02 3.512145578861236572e-02 -2.371802777051925659e-01 7.519154250621795654e-02 1.861370950937271118e-01 1.156632602214813232e-01 5.481795668601989746e-01 1.127925217151641846e-01 9.862995892763137817e-02
1.147100374510046095e-05 -1.920134673127904534e-05 -1.193459866044577211e-05 -4.644556611310690641e-06 -2.192790361732477322e-06 -8.496485861542169005e-06 -5.271945155982393771e-06 1.144568614108720794e-06 -2.504519579815678298e-05
6.193861365318298340e-02 4.131255671381950378e-02 -2.083737775683403015e-02 5.134829878807067871e-01 -1.097028981894254684e-02 -7.505699396133422852e-01 -4.040949046611785889e-02 2.999547123908996582e-01 3.144327923655509949e-02
1.424205311195692047e-05 -9.368100108986254781e-06 -1.953411265276372433e-05 -6.136295269243419170e-06 -7.871503839851357043e-07 -1.510585479991277680e-05 -2.038105321844341233e-06 -7.011753496044548228e-06 2.960439815069548786e-06
-1.405641622841358185e-02 -4.342440515756607056e-02 1.333989202976226807e-01 -1.217654794454574585e-01 1.473217271268367767e-03 3.887193799018859863e-01 -1.647291630506515503e-01 1.413841843605041504e-01 -1.288678497076034546e-01
-5.110958227305673063e-06 3.373015033503179438e-06 -7.712835525808259263e-08 1.257219264516606927e-05 1.944944051501806825e-05 1.685028223619156051e-06 -2.678953933354932815e-06 -9.590780791768338531e-06 1.649535624892450869e-05
2.690160954443854280e-06 -9.979783044400392100e-07 6.795114586566342041e-06 -9.196079190587624907e-06 4.002662080893060192e-06 -5.292363312037196010e-06 -1.134260764956707135e-05 9.398738257004879415e-06 -6.876552106405142695e-06
1.657602115301415324e-05 -1.100676581700099632e-05 -6.108687557571101934e-06 -1.098025222745491192e-05 1.179751870949985459e-05 -1.412173151038587093e-05 -9.251120900444220752e-06 -1.476393936172826216e-05 -1.230030557053396478e-05
-1.468108966946601868e-02 4.390407726168632507e-02 -1.053829193115234375e-01 -4.306311532855033875e-02 1.771081984043121338e-01 1.477654930204153061e-02 6.315892934799194336e-02 4.699124023318290710e-02 7.145188748836517334e-02
-3.002568483352661133e-01 3.030479252338409424e-01 3.041636943817138672e-01 -4.173570498824119568e-02 5.256877094507217407e-02 8.268032968044281006e-02 5.544527433812618256e-03 2.388035506010055542e-02 7.268359512090682983e-02
8.098654448986053467e-03 7.360557094216346741e-03 2.302743867039680481e-02 -7.703244686126708984e-02 1.487242709845304489e-02 7.871328294277191162e-02 7.990318350493907928e-03 4.941179975867271423e-02 3.162640333175659180e-02
2.820160034389118664e-06 -9.976707588066346943e-06 1.647412136662751436e-05 -1.335268007096601650e-05 6.569377546838950366e-06 1.362277180305682123e-05 -2.447678525641094893e-06 2.432392875562072732e-06 -2.814893923641648144e-05
-4.497042298316955566e-01 5.040032323449850082e-03 -1.325441449880599976e-01 -1.197567582130432129e-01 -9.980823844671249390e-02 -1.720650792121887207e-01 6.225565075874328613e-01 -8.898207545280456543e-02 6.408572942018508911e-02
-8.556732609577011317e-06 -1.312727704316785093e-06 -4.394486950332066044e-06 6.017401574354153126e-06 1.137968774855835363e-05 1.077005435945466161e-05 2.483450316503876820e-06 5.296702966006705537e-06 2.012929871852975339e-05
2.181488834321498871e-02 1.660256274044513702e-02 2.668023668229579926e-02 -1.071040984243154526e-02 -1.929739303886890411e-02 2.913090027868747711e-02 1.028669904917478561e-02 -5.956877768039703369e-02 -3.841001540422439575e-02
-1.108563095331192017e-01 1.493043382652103901e-04 -2.904608100652694702e-02 1.606528311967849731e-01 1.795126125216484070e-02 2.004509568214416504e-01 6.554681342095136642e-03 -5.298468470573425293e-02 3.483696654438972473e-02
8.481400982418563217e-06 -1.704322130535729229e-05 1.087307828129269183e-05 2.695484681680682115e-06 3.480323357507586479e-06 4.348285983724053949e-06 -9.337180927104782313e-06 -6.161071723909117281e-06 -7.806025905665592290e-07
-1.358821541070938110e-01 1.542227864265441895e-01 -8.520307391881942749e-02 -1.073613762855529785e-02 -3.463798901066184044e-03 -1.198972109705209732e-02 1.706468015909194946e-01 -2.742111384868621826e-01 4.401971697807312012e-01
-1.131424605846405029e-01 3.317610546946525574e-02 1.194585785269737244e-01 1.191049665212631226e-01 -2.564909160137176514e-01 1.183328330516815186e-01 -5.965825542807579041e-02 1.262006461620330811e-01 3.212019056081771851e-02
1.387891918420791626e-01 3.168758749961853027e-02 2.824812829494476318e-01 -6.350230574607849121e-01 -1.735485941171646118e-01 -5.043793916702270508e-01 -2.630194835364818573e-02 2.079355716705322266e-02 -2.846792340278625488e-02
1.693621015874668956e-05 -8.816014997137244791e-06 -7.680374437768477947e-06 -1.061905368260340765e-05 -7.077840564306825399e-06 -8.312100362672936171e-06 2.925783746832166798e-06 -4.645115950552280992e-06 -2.519974259485024959e-05
-8.700212836265563965e-02 -5.674781203269958496e-01 3.846459388732910156e-01 3.129583597183227539e-02 -1.415485329926013947e-02 -6.263541989028453827e-03 -3.249206021428108215e-02 -3.873126581311225891e-02 -2.291621454060077667e-02
-3.246700763702392578e-02 -3.258888609707355499e-03 1.544579514302313328e-03 6.260837614536285400e-02 5.140370875597000122e-02 2.725129760801792145e-02 2.320948094129562378e-01 2.602895721793174744e-02 2.611433714628219604e-02
-1.601426993147470057e-05 1.181546122097643092e-05 5.042717020842246711e-06 6.720976216456620023e-06 9.039072210725862533e-06 1.569645604604374967e-07 1.045176122715929523e-05 -2.333882548555266112e-06 2.183689139201305807e-05
-3.095852397382259369e-02 1.976657211780548096e-01 8.011297136545181274e-02 -9.698119759559631348e-02 4.323256388306617737e-02 -4.612842202186584473e-01 4.676033928990364075e-02 -3.836674988269805908e-02 5.016051977872848511e-02
1.415054202079772949e-01 -1.273831818252801895e-02 -9.015403687953948975e-02 6.709965318441390991e-02 4.349844753742218018e-01 8.009523153305053711e-02 -4.456425458192825317e-02 3.982897847890853882e-03 -1.070101931691169739e-01
1.330232407781295478e-06 6.473009761975845322e-06 -2.478903297742363065e-06 4.172705132532428252e-07 2.674738425412215292e-06 -1.842453684730571695e-06 1.840133450059511233e-06 -8.818882633931934834e-06 -2.054971810139250010e-05
2.919430471956729889e-02 -6.605177372694015503e-02 3.480831980705261230e-01 -5.562195181846618652e-02 5.009133741259574890e-02 1.027113944292068481e-01 2.014243789017200470e-02 -2.285847961902618408e-01 -4.799073189496994019e-02
2.031437009572982788e-01 5.705444887280464172e-02 5.680937319993972778e-02 8.840504288673400879e-02 1.001600548624992371e-02 -7.031217813491821289e-01 -3.256837371736764908e-03 4.015574455261230469e-01 6.176345795392990112e-02
1.623454503715038300e-02 1.157796382904052734e-01 1.298061758279800415e-01 8.717056363821029663e-02 3.674661740660667419e-02 -7.265305519104003906e-02 -9.520405903458595276e-03 -9.429854154586791992e-02 -2.875295095145702362e-02
4.220481961965560913e-02 5.406067147850990295e-02 -1.803427189588546753e-01 -1.677792221307754517e-01 -2.254977822303771973e-03 -1.148054525256156921e-01 1.230583935976028442e-01 2.494941353797912598e-01 -6.938353925943374634e-02
9.189971722662448883e-03 -1.413792371749877930e-02 -2.744479477405548096e-01 2.423446066677570343e-02 5.850623175501823425e-02 3.968114405870437622e-02 -3.434108942747116089e-02 1.500778086483478546e-02 -2.583282184787094593e-04
1.339359730482101440e-01 9.028900414705276489e-02 3.978472650051116943e-01 3.382560312747955322e-01 -7.796809077262878418e-02 -5.149640515446662903e-02 3.379396796226501465e-01 6.449259072542190552e-02 4.396282508969306946e-02
-2.753652036190032959e-01 -4.344224464148283005e-03 -2.508938014507293701e-01 -2.314861714839935303e-01 6.205988675355911255e-02 -2.230879664421081543e-01 5.410133004188537598e-01 1.073602437973022461e-01 1.370402276515960693e-01
-5.257809334580088034e-07 -1.885450001282151788e-05 5.494342190104362089e-07 -2.220601345470640808e-06 1.025334859150461853e-05 1.092819093173602596e-05 -4.251739937899401411e-06 6.520190709125017747e-06 -9.150390724244061857e-06
1.496631652116775513e-01 1.236382722854614258e-01 -7.619565725326538086e-02 4.878138005733489990e-01 -1.923936791718006134e-02 -2.763341926038265228e-02 -5.630071833729743958e-02 -1.117739304900169373e-01 9.168096184730529785e-01
4.261019057594239712e-06 6.109888545324793085e-06 -7.933930646686349064e-06 2.498467665645875968e-06 -5.710044206352904439e-07 -9.058593605004716665e-06 -1.575649912410881370e-05 -6.922511602169834077e-06 1.378644446958787739e-05
1.011041422316338867e-05 -1.262520618183771148e-05 -6.613116511289263144e-06 5.484040229930542409e-06 -1.345185955869965255e-05 4.460780928638996556e-06 8.299328328575938940e-06 -1.760289592311892193e-06 1.678330590948462486e-05
9.141538292169570923e-02 -1.713949143886566162e-01 -1.884441226720809937e-01 8.693805336952209473e-02 6.907811760902404785e-02 -7.654745876789093018e-02 6.399184465408325195e-02 -1.259892731904983521e-01 1.872685365378856659e-02
-9.088166058063507080e-02 2.774455025792121887e-02 -5.972534418106079102e-01 1.536088436841964722e-01 6.718197464942932129e-02 3.510060906410217285e-01 2.167962491512298584e-01 8.719111233949661255e-02 5.189676210284233093e-02
-3.823622465133666992e-01 -9.781409800052642822e-02 8.424397557973861694e-02 -6.701882928609848022e-02 1.925211958587169647e-02 1.162685453891754150e-01 7.770144939422607422e-02 4.614742100238800049e-02 -1.455049812793731689e-01
9.457767754793167114e-02 -1.527397055178880692e-02 1.708346158266067505e-01 3.370620012283325195e-01 5.066622793674468994e-02 -6.914677023887634277e-01 3.048631548881530762e-01 2.270637825131416321e-02 3.647203743457794189e-02
1.962807402014732361e-02 2.472840994596481323e-01 5.426214933395385742e-01 -2.471290230751037598e-01 -2.982467226684093475e-02 -2.492632716894149780e-02 6.449817121028900146e-02 -3.131748363375663757e-02 8.493941277265548706e-02
-1.329181577602867037e-05 -1.124268692365149036e-05 4.823913059226470068e-06 -2.383078026468865573e-06 1.103995782614219934e-05 1.954464551090495661e-06 1.782714389264583588e-05 -3.987306627095676959e-06 -1.260179033124586567e-06
4.099954664707183838e-02 -2.376544103026390076e-02 -7.504886388778686523e-02 1.264867186546325684e-01 9.718235814943909645e-04 -1.126119345426559448e-01 -9.671727567911148071e-02 1.197345927357673645e-02 -1.171509176492691040e-02
5.077707555756205693e-06 3.297705006843898445e-06 -7.198185812740121037e-06 9.656773727328982204e-07 -1.252859533451555762e-06 -8.795144822215661407e-06 4.403053026180714369e-06 -1.716353472147602588e-05 -1.190243165183346719e-05
7.511487638112157583e-06 4.012119461549445987e-06 -2.472670530551113188e-05 9.073310138774104416e-06 -9.463486094318795949e-06 -1.389309909427538514e-05 3.371770617377478629e-06 -1.566144783282652497e-05 2.567119008745066822e-05
-7.102552899596048519e-06 2.093479452014435083e-05 -6.869679964438546449e-06 4.786225531461241189e-07 1.947174132510554045e-05 -8.855801752361003309e-06 -1.833324176914175041e-06 -1.395766867062775418e-05 -3.549191205820534378e-06
3.470840752124786377e-01 1.298259198665618896e-01 4.439045190811157227e-01 -1.624961495399475098e-01 -5.014020949602127075e-03 8.368121832609176636e-02 2.896825373172760010e-01 2.463764250278472900e-01 -5.112177506089210510e-02
-2.081249840557575226e-02 1.543913595378398895e-02 5.042391642928123474e-02 1.678790897130966187e-01 -9.979977458715438843e-02 -1.818557456135749817e-02 -6.658931076526641846e-02 4.693939983844757080e-01 1.153471171855926514e-01
-1.215848101310257334e-06 4.019984316983027384e-06 1.872157918114680797e-05 1.058625184668926522e-05 2.908982423832640052e-06 1.484681797592202201e-05 1.046000761562027037e-05 1.055039047059835866e-05 1.993905061681289226e-05
-4.734231159090995789e-02 -4.689443856477737427e-02 -3.369205072522163391e-02 -1.463587209582328796e-02 8.010548949241638184e-01 3.476578742265701294e-02 5.044334381818771362e-02 5.087918788194656372e-02 7.787464559078216553e-02
1.241783425211906433e-01 2.297802455723285675e-02 9.245572686195373535e-01 -1.189665868878364563e-01 -5.008894577622413635e-02 -8.926746249198913574e-02 -1.235085576772689819e-01 1.815343648195266724e-02 2.230434119701385498e-01
2.818877100944519043e-01 6.554049998521804810e-02 -1.145084574818611145e-01 7.970423996448516846e-02 1.081374660134315491e-02 -6.837926805019378662e-02 7.155963778495788574e-01 -2.313494086265563965e-01 6.062727421522140503e-02
-9.165016308543272316e-06 8.560024070902727544e-06 7.527709840360330418e-06 1.146215072367340326e-05 1.150131629401585087e-05 5.969252470094943419e-06 6.084241704229498282e-06 6.875497547298436984e-06 3.659118374343961477e-05
1.636593788862228394e-01 1.164049953222274780e-01 3.362843301147222519e-03 4.202008843421936035e-01 -4.218164831399917603e-02 2.633594349026679993e-02 2.380586601793766022e-02 6.811491250991821289e-01 1.172664463520050049e-01
1.064013838768005371e-01 -3.745774552226066589e-02 2.206876724958419800e-01 -4.684969782829284668e-01 3.960791975259780884e-02 2.676699161529541016e-01 1.560806185007095337e-01 -1.478534638881683350e-01 -1.284640431404113770e-01
-9.404320269823074341e-02 -4.510700702667236328e-02 -3.007129998877644539e-03 -2.020814865827560425e-01 -9.603912383317947388e-02 -4.479761421680450439e-01 3.915283456444740295e-02 -5.754157900810241699e-02 -1.759953796863555908e-01
-2.743689157068729401e-02 4.524417594075202942e-02 8.394293487071990967e-02 -1.062233000993728638e-01 2.526125609874725342e-01 5.792628973722457886e-02 2.042536437511444092e-02 3.007252141833305359e-02 2.991153486073017120e-02
-1.389615317748393863e-05 4.813039140572072938e-06 7.434602139255730435e-06 9.692415915196761489e-06 1.205430908157723024e-05 1.154575897999166045e-06 -1.210566279041813686e-05 6.803803898947080597e-06 2.438454248476773500e-05
2.545078694820404053e-01 -2.110206335783004761e-02 2.352926135063171387e-01 -4.918874502182006836e-01 2.884623408317565918e-02 3.487012684345245361e-01 9.248007088899612427e-02 -6.368792057037353516e-02 1.048241853713989258e-01
1.925033144652843475e-02 1.138488203287124634e-02 8.005056530237197876e-03 -3.374742576852440834e-03 1.110562533140182495e-01 -1.085024252533912659e-01 -1.463191770017147064e-02 2.171716280281543732e-02 3.783143183682113886e-04
-4.620548188686370850e-01 -3.279061242938041687e-02 -4.107246547937393188e-02 -1.807252131402492523e-02 -1.241645365953445435e-01 -1.361332982778549194e-01 -3.102690540254116058e-02 -1.439000368118286133e-01 5.436788499355316162e-02
-2.676003146916627884e-03 5.761894397437572479e-03 -7.624921947717666626e-02 4.866437241435050964e-02 -5.606919899582862854e-02 5.892503634095191956e-02 2.176601998507976532e-02 1.302078962326049805e-01 8.262674510478973389e-02
-8.425538908340968192e-06 -9.629993655835278332e-06 4.754506619519816013e-07 -1.074419742508325726e-05 2.100876736221835017e-05 1.702265535641345195e-06 -2.974081553475116380e-06 6.533056421176297590e-06 -4.506099685386288911e-06
-1.441115736961364746e-01 -9.444056451320648193e-02 -4.799254536628723145e-01 -2.166988700628280640e-01 5.663583055138587952e-03 -3.678696453571319580e-01 3.778568282723426819e-02 4.509277641773223877e-01 4.071370139718055725e-02
-8.634990081191062927e-03 2.199446316808462143e-03 7.649171352386474609e-02 6.339742243289947510e-02 1.157119218260049820e-02 7.477854937314987183e-02 -1.781050115823745728e-02 -1.891501694917678833e-01 1.618084684014320374e-02
5.518195629119873047e-01 -1.960624754428863525e-01 -3.211302757263183594e-01 -1.750957965850830078e-01 1.831353642046451569e-02 -1.623324304819107056e-01 -1.659974828362464905e-02 3.069693408906459808e-02 7.763680815696716309e-02
5.194753612158820033e-06 5.190927367948461324e-06 -2.358475285291206092e-06 -9.548045454721432179e-06 -2.273638529004529119e-05 -9.041922567121218890e-06 1.087766122509492561e-06 -7.917976290627848357e-06 -9.039887117978651077e-06
-6.886958330869674683e-02 -4.092313349246978760e-03 -1.206555142998695374e-01 7.776010632514953613e-01 -8.839587680995464325e-03 -7.313198447227478027e-01 -4.166159406304359436e-02 -2.190842665731906891e-02 -2.708539832383394241e-03
-1.732230931520462036e-01 1.496108472347259521e-01 -3.778092265129089355e-01 -5.298550426959991455e-02 6.849767267704010010e-02 4.573816841002553701e-04 1.553115397691726685e-01 5.965269207954406738e-01 -8.663222938776016235e-02
-7.985156116774305701e-06 -6.878613476146711037e-06 2.052213631031918339e-06 5.258026703813811764e-06 2.817438598867738619e-06 1.561824683449231088e-05 1.127209452533861622e-05 3.727593366420478560e-06 2.047195994236972183e-05
-4.221195467835059389e-06 1.026951395033393055e-05 2.163753379136323929e-05 -3.946815922972746193e-06 -4.048026312375441194e-06 1.340723338216776028e-05 4.960029400535859168e-06 2.729598963924217969e-05 2.957003516712575220e-06
-1.378054548695217818e-05 2.523052171454764903e-05 1.004547721095150337e-05 1.571587858961720485e-06 -1.359282919111137744e-06 2.092371460094000213e-06 1.145038459071656689e-05 -2.422889110675896518e-06 1.360803798888809979e-05
-2.350096110603772104e-06 -1.555657217977568507e-05 -4.286723651603097096e-06 -4.061376785102766007e-06 -2.260070323245599866e-05 1.212942788697546348e-05 1.439051357010612264e-05 1.565858292451594025e-05 1.443248379473516252e-06
-2.078656052617589012e-06 -2.876063626899849623e-05 -1.327520840277429670e-05 6.033061481502954848e-07 -2.227516461061895825e-06 1.145600799645762891e-05 8.346341019205283374e-06 6.464464377131662332e-07 8.531150342605542392e-06
7.023990747256902978e-06 4.499969236348988488e-06 -8.743682883505243808e-06 -3.099488139923778363e-06 -5.851779405929846689e-06 -8.802055162959732115e-06 -8.941322448663413525e-06 -7.077095460772397928e-07 6.319721137515443843e-07
3.558267280823201872e-06 1.259350483451271430e-05 -3.961470611102413386e-06 1.462878117308719084e-05 -1.355505628453101963e-05 -1.069536847353447229e-05 -3.065053761019953527e-06 -2.459865129367244663e-07 8.952662028605118394e-06
-1.456211748518398963e-06 1.224962943524587899e-05 -4.887166596745373681e-06 7.862444363126996905e-06 -1.718489147606305778e-05 -6.291677436820464209e-06 -9.778244020708370954e-06 4.499187980400165543e-06 7.401222319458611310e-06
-7.909593731164932251e-02 -3.927874937653541565e-02 1.335898041725158691e-01 -9.362047165632247925e-02 3.486324846744537354e-02 -7.205573320388793945e-01 4.739093407988548279e-02 -3.394688665866851807e-02 8.314013481140136719e-02
-1.197724395751720294e-05 2.340595892746932805e-05 -4.566474217426730320e-06 -1.506681996943370905e-07 1.456948029954219237e-05 -7.565594842162681744e-06 -7.187039955169893801e-06 -1.156425423687323928e-05 3.877375638694502413e-05
1.851614005863666534e-02 3.402418643236160278e-02 6.438028533011674881e-03 2.791230566799640656e-02 5.884974822402000427e-02 1.083839535713195801e-01 1.650978624820709229e-01 4.279949963092803955e-01 1.842168420553207397e-01
-1.035164487461770477e-08 2.170934976675198413e-06 4.070637260156217963e-06 -7.338762770814355463e-06 -3.414303364479565062e-06 6.951972409297013655e-06 1.232745580637129024e-05 7.395721240754937753e-06 1.156905636889860034e-05
-6.235061287879943848e-01 6.623927503824234009e-02 -4.623593091964721680e-01 -3.659151494503021240e-01 -2.441904135048389435e-02 -3.226917088031768799e-01 9.203658252954483032e-02 8.417387306690216064e-02 -9.444926679134368896e-02
6.177562475204467773e-02 -1.603730767965316772e-02 2.251610904932022095e-02 -2.007654756307601929e-01 1.363101303577423096e-01 -1.146630034781992435e-03 -8.572973893024027348e-04 7.233183830976486206e-02 1.083376556634902954e-01
-1.002487912774085999e-01 6.020740047097206116e-02 4.665534570813179016e-02 1.363424211740493774e-02 -1.171627640724182129e-01 1.446621678769588470e-02 5.829545855522155762e-01 3.607836738228797913e-02 3.473651409149169922e-01
2.494705766439437866e-01 5.892795324325561523e-02 -3.564351797103881836e-01 -8.363919705152511597e-02 -3.502143546938896179e-02 3.524931669235229492e-01 2.873032987117767334e-01 3.110285103321075439e-01 7.765039056539535522e-02
1.646820828318595886e-02 -1.922473870217800140e-02 7.306157797574996948e-02 3.070801310241222382e-02 5.607900395989418030e-02 -3.436603546142578125e-01 -1.801626640371978283e-03 8.329845964908599854e-02 3.468833491206169128e-02
3.020882979035377502e-02 3.478530049324035645e-01 8.695001900196075439e-02 -5.095755457878112793e-01 3.263752162456512451e-02 2.242850326001644135e-02 8.683748543262481689e-03 3.868316486477851868e-02 1.693884283304214478e-02
1.199717735289596021e-05 2.498752655810676515e-05 -5.002825673727784306e-06 2.961436166515341029e-06 -5.874245289305690676e-06 -1.207953027915209532e-05 -1.225788946612738073e-05 2.978938255182583816e-06 1.399296343151945621e-05
7.533714175224304199e-02 8.396953344345092773e-03 4.120076000690460205e-01 1.027445867657661438e-02 6.371207535266876221e-02 -5.115720629692077637e-01 9.159427881240844727e-02 -1.115226373076438904e-01 -2.849412523210048676e-02
6.275118380472122226e-07 -6.672596555290510878e-06 9.937639333656989038e-07 2.381869535383884795e-06 1.637071477489371318e-06 -3.305281325083342381e-06 -9.630214663047809154e-06 8.197517672670073807e-06 -2.872736331482883543e-06
9.178252184938173741e-06 -2.387841959716752172e-05 -1.800939685381308664e-06 -1.051241179084172472e-05 -4.404605988383991644e-06 -1.264292450287030078e-06 -1.680827722339017782e-06 -3.161584345434675924e-06 -3.213311720173805952e-05
3.046852052211761475e-01 4.043015465140342712e-02 2.585669755935668945e-01 3.839270472526550293e-01 1.906861434690654278e-03 -4.095881283283233643e-01 7.035127282142639160e-02 -2.720676362514495850e-01 4.697523545473814011e-03
3.301718436432565795e-07 -1.871184394985903054e-06 -8.840174245960952248e-07 7.205226211226545274e-07 -1.438108847651164979e-05 5.895098638575291261e-06 4.070639079145621508e-07 2.163598310289671645e-06 4.103187166037969291e-06
1.521247122582281008e-05 -2.640372440509963781e-05 -7.513503987865988165e-06 -4.746850663650548086e-06 -2.903324457292910665e-05 1.364056970487581566e-06 4.757108399644494057e-06 4.092759354534791782e-06 -1.920413160405587405e-05
-1.241906102222856134e-05 1.012853681459091604e-05 -4.296858605812303722e-06 6.387002031260635704e-06 3.394352688701474108e-06 3.094487738053430803e-06 1.044181954057421535e-05 1.391286332363961264e-06 2.049258728220593184e-05
-2.526744253827928333e-07 -9.417925321031361818e-05 1.335160868620732799e-05 4.624305802281014621e-06 -3.920184099115431309e-06 1.466242883907398209e-05 -8.650648624097811989e-07 1.865683771029580384e-06 4.391452239360660315e-05
2.744142664596438408e-03 -1.646986976265907288e-02 1.464131847023963928e-02 5.098842084407806396e-02 6.318606901913881302e-03 -4.200615733861923218e-02 2.442269027233123779e-02 2.574446424841880798e-02 3.395081683993339539e-02
-1.292145401239395142e-01 2.025289684534072876e-01 5.730230733752250671e-02 3.406579494476318359e-01 -6.096258386969566345e-02 1.062776669859886169e-01 -1.273372620344161987e-01 5.544219166040420532e-02 -3.952692821621894836e-02
1.710798278509173542e-05 -7.251008355524390936e-06 -1.048300237016519532e-05 -1.878570583357941359e-05 3.009992269653594121e-06 1.754461322889255825e-06 -9.123801646637730300e-06 1.451634261684375815e-06 -1.376259388052858412e-05
3.803344952757470310e-06 -1.285647431359393522e-05 -2.156753907911479473e-06 -5.874684575246647000e-06 1.342527184533537365e-06 4.768529606735683046e-07 -1.116122803068719804e-06 -6.980268608458572999e-06 -5.587773102888604626e-06
5.679852329194545746e-03 4.852013662457466125e-02 7.944397628307342529e-02 2.883338630199432373e-01 3.090651705861091614e-02 1.028127130120992661e-02 1.258257310837507248e-02 -2.614017724990844727e-01 -4.382063448429107666e-02
2.826395928859710693e-01 -5.626478046178817749e-02 -1.545902043581008911e-01 -7.174404859542846680e-01 1.266777701675891876e-02 1.313746720552444458e-01 6.484615057706832886e-02 3.409772412851452827e-03 -5.316435173153877258e-02
7.382655888795852661e-02 7.278282940387725830e-02 -1.886773407459259033e-01 -2.151085436344146729e-02 -5.455920100212097168e-02 -1.028815880417823792e-01 -9.558030404150485992e-03 8.231931366026401520e-03 1.486191153526306152e-01
-2.223037555813789368e-02 -9.784281253814697266e-03 5.799468234181404114e-02 7.579420506954193115e-02 2.777422405779361725e-02 8.512973785400390625e-02 -1.336102187633514404e-01 -4.311505705118179321e-02 3.240522462874650955e-03
4.311009868979454041e-02 -1.103295944631099701e-02 2.968955338001251221e-01 9.205604344606399536e-02 -1.684672012925148010e-02 -1.304435133934020996e-01 2.387066632509231567e-01 2.147271297872066498e-03 -2.034324780106544495e-02
-7.192379236221313477e-02 -2.746263518929481506e-02 -8.644455671310424805e-02 -1.496858447790145874e-01 1.681545674800872803e-01 -1.455249786376953125e-01 1.933512687683105469e-01 9.530145674943923950e-03 5.879510194063186646e-03
-1.620727061890647747e-06 -4.737404015031643212e-05 -4.125133273191750050e-06 9.886983207252342254e-06 1.403021059331877041e-07 1.202869043481769040e-05 -7.262925464601721615e-06 -2.486850689820130356e-07 -1.675740168138872832e-05
1.550867110490798950e-01 -2.297537326812744141e-01 -7.677566027268767357e-04 4.927687346935272217e-01 -1.610563951544463634e-03 -9.606702625751495361e-02 -5.823985487222671509e-02 3.013935089111328125e-01 6.380476802587509155e-02
1.953325569629669189e-01 8.797099441289901733e-02 -2.314336746931076050e-01 -1.143921837210655212e-01 -1.101155858486890793e-02 1.213902700692415237e-02 2.064589112997055054e-01 1.618909537792205811e-01 2.028305828571319580e-02
1.853337045758962631e-03 1.609217491932213306e-03 5.893221870064735413e-02 4.435062110424041748e-01 -8.787204325199127197e-02 -4.054612014442682266e-03 4.006424546241760254e-02 1.950831711292266846e-02 1.632588217034935951e-03
-3.582295775413513184e-01 -3.064300417900085449e-01 -8.938714861869812012e-02 -6.518463045358657837e-02 3.298180177807807922e-02 -7.602683454751968384e-02 3.453791886568069458e-02 1.354999393224716187e-01 -1.454316824674606323e-01
-3.114523738622665405e-02 4.604635760188102722e-02 -1.874280124902725220e-01 1.239819005131721497e-01 7.628545910120010376e-02 4.164955615997314453e-01 -2.432798407971858978e-02 -2.704229578375816345e-02 -2.512745559215545654e-02
-1.088867783546447754e-01 -1.153413206338882446e-02 -4.854423105716705322e-01 7.026584446430206299e-02 -4.434883594512939453e-01 7.007155567407608032e-02 2.464174181222915649e-01 4.588169232010841370e-02 3.452875837683677673e-02
-4.424578696489334106e-02 -4.570177197456359863e-02 -3.895322382450103760e-01 -3.339018300175666809e-02 -1.867566704750061035e-01 -2.003698498010635376e-01 1.153467036783695221e-02 2.468969672918319702e-01 2.510432600975036621e-01
-1.723387390375137329e-01 -7.334277778863906860e-02 -1.453422941267490387e-02 -9.338747709989547729e-02 5.519772414118051529e-03 4.143545925617218018e-01 -1.475604921579360962e-01 1.286856532096862793e-01 5.959318205714225769e-02
-2.280975422763731331e-05 -2.227717777714133263e-05 9.553987183608114719e-06 6.919829957041656598e-06 4.491633717407239601e-06 8.156102921930141747e-06 -9.680630682851187885e-06 4.773901309818029404e-06 -7.449291842931415886e-06
-3.186439244018401951e-06 -8.013649676286149770e-06 4.415980129124363884e-06 4.236552740621846169e-06 7.397164154099300504e-06 -1.693510512268403545e-06 -6.045875579729909077e-06 -4.892200195172335953e-06 -1.947199052665382624e-05
7.697989872212929185e-07 2.471563129802234471e-05 2.218394911324139684e-06 1.106768831959925592e-05 -2.760342340479837731e-06 -1.063548324964358471e-06 1.439058337382448371e-06 6.238528982294155867e-08 2.295552440045867115e-05
-5.403553132055094466e-06 -1.369813708151923493e-05 -8.419781316604257881e-09 -1.511415170796226448e-08 6.121132173575460911e-06 3.255639740018523298e-06 2.357071252845344134e-06 1.643369250814430416e-05 1.985054223041515797e-05
-6.780400872230529785e-04 -2.427460439503192902e-02 -2.605820000171661377e-01 -1.796221882104873657e-01 -1.207801103591918945e-01 -2.764251828193664551e-01 -2.802798151969909668e-01 3.207072019577026367e-01 6.156533583998680115e-02
2.407817244529724121e-01 -3.088369965553283691e-02 -5.464098453521728516e-01 2.922377288341522217e-01 3.192277625203132629e-02 -6.121848225593566895e-01 -6.981462356634438038e-04 5.833832174539566040e-02 1.870756782591342926e-02
-3.789906713791424409e-06 -8.482985322189051658e-06 -2.424580713977775304e-07 8.942927706812042743e-06 -1.405372404406080022e-05 2.122202204191125929e-05 1.381178481096867472e-05 6.196916729095391929e-06 2.626366222102660686e-05
-6.981987506151199341e-02 -6.914861965924501419e-03 5.147205665707588196e-02 1.577450037002563477e-01 -4.560143128037452698e-02 7.851087301969528198e-02 5.105026811361312866e-02 3.494307696819305420e-01 1.803577393293380737e-01
9.398654583492316306e-06 -1.842121855588629842e-05 -1.263687045138794929e-05 6.376310921041294932e-06 -1.335378692601807415e-05 -7.187672508734976873e-06 -1.182025243906537071e-05 -3.627831347330356948e-06 8.251566214312333614e-06
-2.133371382951736450e-01 1.402619332075119019e-01 1.645542532205581665e-01 1.981770247220993042e-01 4.748391732573509216e-02 -2.455349862575531006e-01 -2.377089578658342361e-03 2.141189575195312500e-02 -7.639980874955654144e-03
-1.173920091241598129e-02 -7.024972885847091675e-02 -7.423084974288940430e-02 -2.338351011276245117e-01 -9.031755477190017700e-02 -3.425079286098480225e-01 -1.239346563816070557e-01 -3.031349480152130127e-01 -5.068513005971908569e-02
-1.093134960683528334e-05 -2.869743548217229545e-05 -9.057574743565055542e-07 1.229855661222245544e-05 4.612898010236676782e-06 4.011830696981633082e-06 3.928358182747615501e-06 2.922922249126713723e-06 7.393907708319602534e-06
-3.060403741983463988e-06 -2.526876778574660420e-05 -4.468771749088773504e-06 -1.097084350476507097e-05 -4.999400516680907458e-06 -2.433460394968278706e-06 1.954786966962274164e-06 -1.526408595964312553e-05 -1.643885843805037439e-05
-2.426139712333679199e-01 3.017010688781738281e-01 4.165623486042022705e-01 -1.398296952247619629e-01 3.277990221977233887e-02 -3.253324329853057861e-02 1.672570593655109406e-02 -1.652641743421554565e-01 -6.189148128032684326e-02
-6.208290415088413283e-06 6.476321686932351440e-06 -7.494120836781803519e-06 8.402738785662222654e-06 1.206089791594422422e-06 3.745330786841805093e-06 2.956847538371221162e-06 2.450990450597601011e-06 1.132216493715532124e-05
1.261607394553720951e-05 -7.587123945995699614e-06 -1.425329719495493919e-05 -1.026359041134128347e-05 -1.755238736222963780e-05 -1.522639922768576071e-05 -9.012609552883077413e-06 1.985701373996562324e-06 -1.740082188916858286e-05
-8.475580252707004547e-03 -7.135656196624040604e-03 1.578255444765090942e-01 -4.465099573135375977e-01 5.003666132688522339e-02 -5.509259700775146484e-01 -4.403276741504669189e-02 2.747684121131896973e-01 -1.752843521535396576e-02
-2.528649866580963135e-01 1.900182478129863739e-02 -9.340555965900421143e-02 -5.572810024023056030e-02 1.146507024765014648e+00 -5.557609722018241882e-02 -9.106237441301345825e-02 -7.308992743492126465e-02 2.090051211416721344e-02
-1.025360143103171140e-05 1.929117024701554328e-05 2.579408601377508603e-06 -9.990976650442462415e-07 7.041716798994457349e-06 1.112125846702838317e-05 1.827464802772738039e-05 4.180206360615557060e-06 -1.090290516003733501e-05
-6.016852799803018570e-03 1.225286163389682770e-02 -1.768155395984649658e-01 4.846525564789772034e-02 1.671208739280700684e-01 2.295522019267082214e-02 4.815284162759780884e-02 1.255372725427150726e-02 3.612108901143074036e-02
1.044916640967130661e-02 -4.937062412500381470e-02 -1.861677318811416626e-01 1.440170556306838989e-01 6.167605146765708923e-02 1.252575069665908813e-01 -1.133570969104766846e-01 2.631300315260887146e-02 1.842783391475677490e-01
-4.688590706791728735e-06 9.249180038750637323e-06 -2.844567688953247853e-06 5.680380581907229498e-06 -6.733226655342150480e-06 -1.157442875410197303e-05 9.602788850315846503e-06 -8.463352969556581229e-06 1.945292206073645502e-05
-2.415878325700759888e-02 1.642984002828598022e-01 1.158014312386512756e-01 -1.762269735336303711e-01 4.644460976123809814e-02 -1.170660629868507385e-01 2.748899161815643311e-01 -7.272331044077873230e-03 -1.207137554883956909e-01
1.516877773610758595e-06 -1.288600287807639688e-05 5.738778327213367447e-06 1.790499709386494942e-06 5.031369255448225886e-06 9.928737199516035616e-06 3.448178858889150433e-06 1.058485031535383314e-05 -1.353075276711024344e-05
4.687368345912545919e-06 -5.388817498896969482e-06 3.435676717344904318e-06 4.011090368294389918e-06 5.776180842076428235e-06 -7.760085622976475861e-07 4.616344995156396180e-06 1.587738734087906778e-05 1.119818534789374098e-05
2.229211330413818359e-01 4.348820820450782776e-02 5.703313276171684265e-02 -7.021867483854293823e-02 -2.688936889171600342e-01 -6.693872809410095215e-02 3.524295985698699951e-01 4.278010874986648560e-02 -7.347207516431808472e-02
9.136374108493328094e-03 -6.005241535604000092e-03 1.936044171452522278e-02 1.859841123223304749e-02 -2.954520843923091888e-02 -5.709250457584857941e-03 4.160120151937007904e-03 -4.084082029294222593e-04 3.355888416990637779e-03
1.998517973333946429e-06 4.574600552587071434e-06 9.475082265453238506e-07 2.719798885664204136e-06 -1.510754100308986381e-05 2.252633294119732454e-06 -2.371887148910900578e-06 -3.818787490672548302e-07 1.813544986362103373e-05
1.015531793236732483e-01 1.343830488622188568e-02 -7.424447685480117798e-02 -2.586693167686462402e-01 -2.775694429874420166e-01 -3.004913032054901123e-01 -1.380566135048866272e-02 3.623355925083160400e-01 -2.660402841866016388e-02
-8.470582962036132812e-02 2.244954742491245270e-02 1.243687584064900875e-03 3.066766858100891113e-01 1.078196838498115540e-01 1.367271225899457932e-02 -1.844182237982749939e-02 9.746345132589340210e-02 6.398456171154975891e-03
-4.247516393661499023e-02 -6.246527656912803650e-02 -3.013783991336822510e-01 3.492958843708038330e-01 1.259305328130722046e-01 3.252025246620178223e-01 -1.163946241140365601e-01 -1.507099717855453491e-02 -7.537807524204254150e-02
8.948013601184356958e-06 -8.937311577028594911e-06 -5.780941137345507741e-06 -8.370357136300299317e-06 1.284178506466560066e-05 -6.264735020522493869e-06 -2.072787083307048306e-06 -7.989901860128156841e-07 -2.434561065456364304e-05
-6.210886873304843903e-03 -3.192541375756263733e-02 -8.650651574134826660e-02 1.400996651500463486e-02 4.098071716725826263e-03 7.016871590167284012e-03 -1.256181672215461731e-02 -1.013000905513763428e-01 -7.005386054515838623e-02
-1.007206446956843138e-05 2.429797859804239124e-06 1.652672153795720078e-06 4.957671080774161965e-06 3.471820491540711373e-06 1.319428974966285750e-06 8.591813639213796705e-06 -1.986305687751155347e-05 2.873977791750803590e-05
4.202022552490234375e-01 -3.622773587703704834e-01 -1.605582833290100098e-01 4.424099996685981750e-02 1.571146026253700256e-02 3.699009865522384644e-02 5.405304953455924988e-03 3.403752446174621582e-01 -2.915750443935394287e-02
-5.019776225090026855e-01 1.772909015417098999e-01 2.337896823883056641e-02 -1.717501431703567505e-01 -5.997813865542411804e-02 -1.703960448503494263e-01 -7.015714049339294434e-02 -5.004503950476646423e-02 -8.024927973747253418e-02
4.440722987055778503e-02 5.739660188555717468e-02 4.938161745667457581e-02 -6.448931526392698288e-03 -2.084084153175354004e-01 2.567763999104499817e-02 -3.103045001626014709e-02 -2.268190979957580566e-01 -3.141663270071148872e-03
-3.255084948250441812e-06 3.116350171694648452e-06 -5.428012627817224711e-06 -1.615017208678182214e-05 1.706933653622400016e-05 3.172208153046085499e-06 9.925443919200915843e-06 3.390923666302114725e-06 -1.746221460052765906e-05
2.673496864736080170e-02 -3.093705512583255768e-02 3.525865823030471802e-02 3.071019612252712250e-02 -2.080710977315902710e-01 2.615117467939853668e-02 9.036923199892044067e-02 5.469434708356857300e-02 5.565798282623291016e-01
-9.044255316257476807e-02 6.311225146055221558e-02 1.395715922117233276e-01 4.725393839180469513e-03 -2.498750537633895874e-01 1.438078135251998901e-01 3.842421993613243103e-02 5.562718510627746582e-01 1.176341809332370758e-02
-3.509585261344909668e-01 -1.167273242026567459e-02 -2.638929486274719238e-01 1.063247025012969971e-01 1.623479425907135010e-01 -1.760792732238769531e-01 7.898321002721786499e-02 8.111325651407241821e-02 -2.652575634419918060e-02
4.553777671389980242e-06 8.769305281930428464e-07 -1.371842472508433275e-06 7.260736310854554176e-06 -1.177317517431220040e-05 1.466676440031733364e-05 1.285439157072687522e-05 1.524317485745996237e-05 3.171580465277656913e-05
-8.894658094504848123e-06 4.838582867705554236e-07 8.117620382108725607e-06 2.640353613969637081e-06 -1.945651092682965100e-06 -2.807930059134378098e-06 2.956309572255122475e-06 -8.313496437040157616e-06 5.333198714652098715e-06
-5.661729350686073303e-02 1.152051985263824463e-01 9.351511299610137939e-02 -6.019075959920883179e-02 1.496844110079109669e-03 4.789097234606742859e-02 1.959736347198486328e-01 -2.825638353824615479e-01 2.104214578866958618e-02
-7.945039309561252594e-03 2.714053727686405182e-03 -4.954451695084571838e-02 -6.635137647390365601e-02 1.302733868360519409e-01 -1.026282310485839844e-01 -1.076646223664283752e-01 -7.828224450349807739e-02 -1.055545136332511902e-01
1.883122026920318604e-01 -3.716051578521728516e-02 -4.600707888603210449e-01 -5.045663565397262573e-02 6.336615979671478271e-02 -3.507334291934967041e-01 4.561849683523178101e-02 5.810190439224243164e-01 9.397700428962707520e-02
-2.128683328628540039e-01 1.383490711450576782e-01 1.885949075222015381e-01 1.046520620584487915e-01 2.132679708302021027e-02 -2.218683063983917236e-02 8.776394277811050415e-02 8.417806625366210938e-01 5.488696321845054626e-02
2.950293719768524170e-01 -8.720675110816955566e-02 1.411798000335693359e-01 2.642315998673439026e-02 -1.554639171808958054e-02 -2.359738945960998535e-02 -4.434071183204650879e-01 1.044559665024280548e-02 5.805997061543166637e-04
8.131056278944015503e-02 7.870395481586456299e-02 9.128556400537490845e-02 -1.339398324489593506e-03 -6.626018881797790527e-02 -3.472555428743362427e-03 2.803902626037597656e-01 1.484495848417282104e-01 -1.241004317998886108e-01
5.563544575124979019e-03 1.345228124409914017e-02 -1.365103423595428467e-01 1.591109633445739746e-01 -4.355826675891876221e-01 1.554329246282577515e-01 2.022143304347991943e-01 2.317958027124404907e-01 4.359495267271995544e-02
-5.853066795680206269e-06 -5.685605174221564084e-06 -3.429296839385642670e-06 -3.491979441605508327e-06 1.420559601683635265e-05 5.183527264307485893e-06 8.707419851816666778e-07 1.536056515760719776e-05 2.318397127964999527e-05
2.186862826347351074e-01 -4.819677025079727173e-02 -1.504754573106765747e-01 -1.221011281013488770e-01 -2.560577690601348877e-01 3.763763010501861572e-01 3.184428811073303223e-02 2.088814824819564819e-01 3.471117839217185974e-02
-8.178422600030899048e-02 -1.531207002699375153e-02 2.960178554058074951e-01 8.814027905464172363e-02 -9.032978862524032593e-02 1.084630787372589111e-01 -1.938836425542831421e-01 -1.190603673458099365e-01 -5.910366401076316833e-02
1.710461527109146118e-01 1.460307687520980835e-01 -1.180203408002853394e-01 5.124309682287275791e-04 5.005758721381425858e-03 -2.594909816980361938e-02 1.121877282857894897e-01 7.043825387954711914e-01 -1.351131200790405273e-01
-1.179223090730374679e-05 4.773566161020426080e-06 2.581168700999114662e-06 5.905236776015954092e-06 -1.823104526010865811e-06 1.117260035243816674e-05 -6.594648880309250671e-07 1.560104351483460050e-06 -3.987096874880080577e-07
-4.060443188791396096e-06 -2.820497911670827307e-06 -7.072029802657198161e-06 -2.202787300120689906e-06 1.222452374349813908e-05 -8.275218533526640385e-06 7.406740678561618552e-06 -1.567278923175763339e-05 2.880038437069742940e-06
2.974049721160554327e-06 1.518296176072908565e-05 -8.568255907448474318e-06 -1.334128455710015260e-06 -2.206148928962647915e-05 -6.446088718803366646e-06 -1.245670864591374993e-05 -1.958748725883197039e-06 -4.769768565893173218e-06
4.325405061244964600e-01 -7.754744589328765869e-02 -1.610999256372451782e-01 -4.422162845730781555e-02 -1.001082286238670349e-01 1.742974072694778442e-01 -1.605925410985946655e-01 4.739777743816375732e-02 1.605205833911895752e-01
-9.753623604774475098e-02 1.903423070907592773e-01 3.038275614380836487e-02 -6.597878411412239075e-03 -2.933577001094818115e-01 6.025169417262077332e-02 4.381728917360305786e-02 1.103587895631790161e-01 1.192023456096649170e-01
-1.993398964405059814e-01 2.353533655405044556e-01 -4.452252089977264404e-01 2.650622045621275902e-04 -5.493458732962608337e-02 3.265720233321189880e-02 3.786063520237803459e-03 -2.864263653755187988e-01 -1.995691284537315369e-02
-1.687159389257431030e-01 -1.776633597910404205e-02 -4.429097175598144531e-01 3.458995223045349121e-01 2.546218689531087875e-03 -5.774030089378356934e-01 -1.133626028895378113e-01 2.364576756954193115e-01 5.393632873892784119e-02
1.276831062568817288e-05 2.231850157841108739e-05 2.836726025634561665e-06 -1.140222320827888325e-05 -3.192149051756132394e-06 2.139047410310013220e-06 -5.708177923224866390e-06 -2.052267745966673829e-06 -1.173110285890288651e-05
-2.249539047479629517e-01 -1.864510774612426758e-01 3.686814755201339722e-02 -7.180351763963699341e-02 -7.301568239927291870e-02 -5.985971167683601379e-02 -1.927157491445541382e-02 3.906938135623931885e-01 6.182512640953063965e-02
-8.849649930198211223e-06 3.755806028493680060e-05 2.579356760179507546e-06 4.306318714952794835e-06 1.174307908513583243e-05 4.277408152120187879e-06 4.625476776709547266e-06 -1.745667645991488826e-06 1.843688323788228445e-06
-3.296097815036773682e-01 2.484690211713314056e-02 1.411222666501998901e-01 4.067034125328063965e-01 3.016649745404720306e-02 3.479214906692504883e-01 7.120798528194427490e-02 5.750888586044311523e-02 1.033488437533378601e-01
2.534056305885314941e-01 6.542331725358963013e-02 -3.242946863174438477e-01 4.100607931613922119e-01 -5.240542814135551453e-04 -1.689055711030960083e-01 1.932936459779739380e-01 3.680498600006103516e-01 4.401591420173645020e-02
-3.764107987080933526e-06 -1.099554083339171484e-05 1.121167861128924415e-05 -5.096776931168278679e-06 4.362370418675709516e-06 4.028965179259103024e-07 -7.996832209755666554e-06 -1.900151687550533097e-06 -4.471496140467934310e-05
-3.319220617413520813e-02 -1.510671377182006836e-01 -1.458190232515335083e-01 -6.126873195171356201e-02 6.417681276798248291e-02 6.989693641662597656e-02 1.185022294521331787e-01 -1.144875213503837585e-01 -3.873513266444206238e-02
-7.181085038610035554e-06 -1.500276630395092070e-05 -4.190585300989368989e-08 -3.140892701480879623e-08 9.151232916337903589e-06 2.847752057277830318e-06 6.727339041390223429e-07 -1.504468855273444206e-06 -2.357893890803097747e-06
-2.248267207960452652e-07 -2.647016481205355376e-05 2.617056679810048081e-06 1.531611087557394058e-05 1.093030914489645511e-05 1.942624294315464795e-05 -1.075264117389451712e-05 4.069075203005922958e-06 1.902745225379476324e-06
-1.453464392398018390e-06 2.760363713605329394e-05 9.685502391221234575e-07 1.168955168395768851e-05 -6.704188308503944427e-06 -5.636293280986137688e-06 7.521653969888575375e-06 -9.618633157515432686e-06 2.561964174674358219e-05
1.020561382174491882e-01 -6.894139200448989868e-02 -9.886230528354644775e-02 1.981143057346343994e-01 -1.535917371511459351e-01 3.357699140906333923e-02 -1.912473440170288086e-01 7.417769730091094971e-02 1.628630459308624268e-01
-2.516387403011322021e-02 1.076431125402450562e-01 -7.709126174449920654e-02 -1.362305320799350739e-02 1.253565251827239990e-01 -8.487083762884140015e-02 -1.898543983697891235e-01 5.655507445335388184e-01 1.685165017843246460e-01
1.298592269449727610e-05 -9.513619261269923300e-06 -8.095540579233784229e-06 -8.026057912502437830e-06 -1.068708297680132091e-05 4.137783378155290848e-07 -4.690868991019669920e-06 5.411444817582378164e-06 -1.741185951686929911e-05
6.670261733233928680e-03 1.362824887037277222e-01 3.710061609745025635e-01 2.431821636855602264e-02 3.691995516419410706e-02 1.033910736441612244e-01 1.671911776065826416e-01 2.510650455951690674e-01 1.709685078822076321e-03
7.852233466110192239e-06 -1.286128554056631401e-05 7.682195246161427349e-06 -6.521954219351755455e-06 2.427684648864669725e-06 1.033818716678069904e-05 -2.243958533654222265e-06 1.068408073479076847e-05 -2.919152939284685999e-05
1.623314619064331055e-01 8.303051814436912537e-03 -5.600115284323692322e-02 1.883486062288284302e-01 -1.109560132026672363e-01 -5.081863608211278915e-03 7.200967520475387573e-03 1.701921522617340088e-01 1.637877896428108215e-02
-1.856987178325653076e-02 5.499273538589477539e-03 3.108036518096923828e-02 1.382223330438137054e-02 1.898917742073535919e-02 1.147734466940164566e-02 4.574192315340042114e-02 6.819690763950347900e-02 8.418405801057815552e-02
1.218810666614444926e-06 -2.425603724987013265e-06 -7.645980986126232892e-06 3.331183279442484491e-06 9.512536962574813515e-06 4.770303803525166586e-06 7.139349236240377650e-06 -1.021127445710590109e-06 -1.634731052035931498e-05
-1.000946611166000366e-01 -5.221939459443092346e-02 2.025076597929000854e-01 2.320229113101959229e-01 -5.776925478130578995e-03 2.134969457983970642e-02 1.811478659510612488e-02 -4.599374532699584961e-02 8.971914066933095455e-04
1.084869154510670342e-06 1.041043378791073337e-05 -7.956852641655132174e-06 -4.704013463197043166e-06 -1.271011024073231965e-05 -9.434595085622277111e-06 -1.884223706838383805e-06 -3.529959542447613785e-07 7.515211109421215951e-06
-7.215661753434687853e-06 -9.455644089939596597e-08 -3.811184612345641654e-08 -3.242452521590166725e-06 1.140189942816505209e-05 2.795797854560078122e-06 7.273832579812733456e-06 -4.946621629642322659e-06 -1.687879193923436105e-05
3.548699617385864258e-01 -2.836650051176548004e-02 -2.075059413909912109e-01 -3.862151131033897400e-02 8.147065341472625732e-02 -4.355225861072540283e-01 -5.619318690150976181e-03 1.524218171834945679e-01 -1.722573935985565186e-01
5.860903456778032705e-06 -5.541110681406280492e-07 4.544466492006904446e-07 -3.453633325989358127e-07 -1.507663637312361971e-05 8.076498488662764430e-06 1.245460316567914560e-05 1.471710675104986876e-05 -8.056375918386038393e-06
-1.011757552623748779e-02 -5.449326708912849426e-03 -4.255420267581939697e-01 4.819198697805404663e-02 2.480132728815078735e-01 -2.657547295093536377e-01 4.021818935871124268e-02 2.550010085105895996e-01 1.053261980414390564e-01
-1.201525703072547913e-01 9.067820012569427490e-02 -1.448825150728225708e-01 -3.106898069381713867e-02 -3.898882120847702026e-02 2.981756627559661865e-01 -1.090105175971984863e-01 -3.199162781238555908e-01 3.731628060340881348e-01
5.581728714787459467e-07 -1.206013621413148940e-05 -2.825441015374963172e-06 4.197505404590629041e-06 1.395275921822758391e-05 9.850368769548367709e-06 4.380665359349222854e-06 7.696276952628977597e-06 9.933936780726071447e-06
1.583797931671142578e-01 6.143485754728317261e-02 2.815043330192565918e-01 -3.614310026168823242e-01 9.031249582767486572e-02 -4.532037675380706787e-01 2.440067976713180542e-01 1.015599295496940613e-01 -4.469261039048433304e-03
6.168242916464805603e-02 -6.359618902206420898e-02 -5.148185417056083679e-02 -6.950413435697555542e-02 3.593239933252334595e-02 1.381912734359502792e-03 -3.069227002561092377e-02 4.966686367988586426e-01 2.229790091514587402e-01
1.842855848371982574e-02 3.575853630900382996e-02 -2.791897654533386230e-01 7.998598217964172363e-01 1.477654092013835907e-02 -4.850116670131683350e-01 5.487073212862014771e-02 1.174496561288833618e-01 2.122057601809501648e-02
1.402271538972854614e-01 9.215462207794189453e-02 -2.542745694518089294e-02 4.900887142866849899e-04 -1.210182607173919678e-01 2.414348423480987549e-01 -8.171411603689193726e-02 -3.470932245254516602e-01 -6.396080553531646729e-02
1.191195193678140640e-02 2.664655074477195740e-02 1.948863267898559570e-01 -4.298008047044277191e-03 -4.250637255609035492e-03 1.282980944961309433e-02 2.416296750307083130e-01 2.265486307442188263e-02 1.892761886119842529e-01
5.783553048968315125e-02 4.285917803645133972e-02 1.118619963526725769e-01 1.083050444722175598e-01 -1.778516769409179688e-01 -7.702055573463439941e-02 -3.983702138066291809e-02 8.524836599826812744e-02 -1.384036056697368622e-02
-3.362462818622589111e-01 8.815953880548477173e-02 -2.054989039897918701e-01 -6.074613332748413086e-02 5.990307778120040894e-02 -3.252266719937324524e-02 8.201857656240463257e-02 2.829604148864746094e-01 2.400444149971008301e-01
1.803876330086495727e-06 -4.399696535983821377e-06 -6.799888979003299028e-06 1.059427813743241131e-05 -1.207757486554328352e-05 -7.413641924358671531e-06 -5.525297638087067753e-06 -1.950195292010903358e-05 1.394890205119736493e-05
1.599292010068893433e-01 -5.818902282044291496e-04 1.376183480024337769e-01 7.582405209541320801e-02 -4.737393558025360107e-01 1.395358443260192871e-01 4.714109748601913452e-02 2.385179251432418823e-01 8.189538866281509399e-02
-1.159012783318758011e-02 -1.163524296134710312e-02 1.256234496831893921e-01 7.105238735675811768e-02 2.862830758094787598e-01 1.880608871579170227e-02 -4.236694872379302979e-01 -6.782457977533340454e-02 -2.157403342425823212e-02
3.770398199558258057e-01 2.322530746459960938e-02 1.064047515392303467e-01 -7.239872813224792480e-01 3.636690974235534668e-02 7.267393171787261963e-02 4.779161140322685242e-02 4.326069056987762451e-01 4.021731019020080566e-02
-1.231258011102909222e-05 -9.814456234380486421e-07 -8.530731975042726845e-06 2.977156100314459763e-06 7.354337412834865972e-06 -5.381655228120507672e-06 -2.925312401202972978e-06 -3.787148443734622560e-06 8.205847734643612057e-06
-1.226671338372398168e-05 1.559827614983078092e-05 1.275927843380486593e-05 5.060073362983530387e-06 2.923884130723308772e-05 -5.240531208983156830e-06 -1.702519739410490729e-06 -3.898884642694611102e-06 7.579068096674745902e-06
-4.096633791923522949e-01 6.462766230106353760e-02 5.005285739898681641e-01 9.755988419055938721e-02 -3.516793996095657349e-02 -1.198989301919937134e-01 -5.021368339657783508e-02 -1.400021165609359741e-01 -2.794207260012626648e-02
-8.269554200523998588e-06 -2.272484744025859982e-05 8.117322977341245860e-06 1.494621483288938180e-05 2.800988340823096223e-06 1.434956357115879655e-05 1.128537769545800984e-05 1.714029531285632402e-05 2.390109784755622968e-06
9.055425971746444702e-02 1.418306380510330200e-01 -2.615838646888732910e-01 6.710185110569000244e-02 1.593519300222396851e-01 1.581297069787979126e-01 1.263351738452911377e-01 -2.559632658958435059e-01 1.185290589928627014e-01
1.513287574052810669e-01 -1.085022538900375366e-01 -4.555627703666687012e-01 2.165138721466064453e-02 -2.342713251709938049e-02 -2.248216187581419945e-03 -8.842746913433074951e-02 -1.475017666816711426e-01 -8.824247121810913086e-02
-2.814710512757301331e-02 -4.477738589048385620e-02 1.249003931879997253e-01 3.484423831105232239e-02 -6.021705269813537598e-02 2.007083743810653687e-01 5.603905394673347473e-02 6.653242558240890503e-02 1.336977481842041016e-01
3.150854632258415222e-02 1.122915185987949371e-02 6.620891392230987549e-02 -2.105769217014312744e-01 1.660488992929458618e-01 -2.110053598880767822e-01 1.558140069246292114e-01 4.821388982236385345e-03 -1.466932613402605057e-02
-1.010074083751533180e-05 -4.960185833624564111e-06 3.551969257387099788e-06 -6.689120255032321438e-06 1.770279823176679201e-06 -3.996254633875651052e-07 -1.064786943061335478e-06 -8.718458957446273416e-06 -1.597081609361339360e-05
-5.658594425767660141e-03 -2.228367887437343597e-02 1.377160400152206421e-01 4.511056840419769287e-02 -5.478736758232116699e-02 -5.122996494174003601e-02 -5.056035146117210388e-02 2.205016016960144043e-01 -1.736743003129959106e-02
1.706792861223220825e-01 -1.041091307997703552e-01 -3.111747801303863525e-01 2.446806877851486206e-01 1.041426435112953186e-01 1.312695741653442383e-01 1.309172362089157104e-01 1.521456390619277954e-01 1.247277036309242249e-01
4.609331654137349688e-07 -6.878258318465668708e-06 -2.678011696843896061e-06 3.783417810154787730e-07 2.187505742767825723e-06 8.052115845202933997e-06 9.404187039763201028e-06 -3.455044861766509712e-06 3.871680746669881046e-06
-4.951239749789237976e-02 -3.433969244360923767e-02 -1.851924806833267212e-01 6.203696876764297485e-02 1.455670893192291260e-01 -1.538225710391998291e-01 -1.164760664105415344e-01 -7.456964254379272461e-02 -9.021747857332229614e-03
-1.081551999959629029e-06 1.231726400874322280e-05 -4.119526693102670833e-06 1.080877700587734580e-05 -2.241589072582428344e-06 -1.313368011324200779e-05 -4.579027972795302048e-06 -1.566185528645291924e-05 3.361636800036649220e-06
2.559538781642913818e-01 3.154474496841430664e-02 -3.857848644256591797e-01 -2.762186229228973389e-01 1.065164133906364441e-01 -2.931377589702606201e-01 2.358695119619369507e-01 9.441635571420192719e-03 -2.760037779808044434e-02
2.088522911071777344e-01 -1.398449763655662537e-02 3.269273042678833008e-01 1.104185953736305237e-01 1.406521201133728027e-01 -4.851828217506408691e-01 3.023921325802803040e-02 2.944535315036773682e-01 7.898067682981491089e-02
1.030490994453430176e-01 -6.376168131828308105e-02 1.792118251323699951e-01 -9.142250567674636841e-02 1.179752871394157410e-01 -3.978372737765312195e-02 -6.059874966740608215e-02 5.854716524481773376e-02 9.564054757356643677e-02
-1.648369282484054565e-01 6.753594428300857544e-02 -1.374957114458084106e-01 -2.090446650981903076e-02 4.522123187780380249e-02 9.594331681728363037e-02 5.495745688676834106e-03 8.877956271171569824e-01 1.185177713632583618e-01
-9.143821444013155997e-06 -9.931307431543245912e-06 5.711089670512592420e-06 7.116414053598418832e-06 1.366932337987236679e-05 1.379402328893775120e-05 5.554001745622372255e-06 1.757878749231167603e-06 1.238987897522747517e-05
2.581287026405334473e-01 -3.739688545465469360e-02 1.938901841640472412e-01 1.490301918238401413e-02 -1.779743582010269165e-01 -6.494323909282684326e-02 1.932786703109741211e-01 1.314783692359924316e-01 2.936283946037292480e-01
1.448479667305946350e-02 7.223672419786453247e-02 6.430415809154510498e-02 1.998884677886962891e-01 3.561756908893585205e-01 3.891300410032272339e-02 -3.242594003677368164e-01 -9.293703362345695496e-03 8.101157844066619873e-03
-2.413281984627246857e-02 1.562337428331375122e-01 2.296790853142738342e-02 2.147040218114852905e-01 -2.380605088546872139e-03 1.925446540117263794e-01 2.056118249893188477e-01 -2.764800488948822021e-01 -4.896739497780799866e-02
1.515187788754701614e-02 4.778584092855453491e-02 2.219310402870178223e-01 5.160243599675595760e-04 -1.085978150367736816e-01 -7.840818911790847778e-02 -2.482378855347633362e-02 2.764980494976043701e-01 2.975282669067382812e-01
-1.149713443737709895e-05 5.830565896758344024e-06 4.665899723477195948e-06 -5.515466000360902399e-06 1.781925129762385041e-05 6.837198725406778976e-06 1.981676723517011851e-05 -1.957660060725174844e-06 7.382619969575898722e-06
1.242702528834342957e-01 7.916585355997085571e-02 3.034457564353942871e-02 -4.549789056181907654e-02 -4.683746024966239929e-02 -5.932056531310081482e-02 1.664518415927886963e-01 -1.465698778629302979e-01 9.782667756080627441e-01
-8.602386713027954102e-02 5.408512428402900696e-02 4.248879253864288330e-01 7.491560280323028564e-02 -4.518827423453330994e-02 3.396192193031311035e-02 -1.540645658969879150e-01 6.762090325355529785e-02 -2.270960807800292969e-02
-1.084921360015869141e-01 6.061508134007453918e-02 -7.594071794301271439e-03 -2.271901816129684448e-02 8.800210058689117432e-02 -4.260999336838722229e-02 1.200505197048187256e-01 -2.036041021347045898e-01 5.630597099661827087e-02
5.215446278452873230e-02 -2.796378359198570251e-02 -2.938987016677856445e-01 -6.348391622304916382e-02 -5.165085662156343460e-03 -2.243841625750064850e-02 -1.983451396226882935e-01 7.098249346017837524e-02 1.436631828546524048e-01
-3.944483026862144470e-02 4.805368930101394653e-02 -6.729455292224884033e-02 -6.222334504127502441e-02 -2.791373245418071747e-02 -4.544043242931365967e-01 -1.949355453252792358e-01 -4.547670856118202209e-02 -7.014600932598114014e-02
-1.062952287611551583e-05 2.785108563330140896e-06 -2.050956481980392709e-06 -5.544102350540924817e-07 6.121035312389722094e-06 6.663493081759952474e-07 2.371935806877445430e-06 4.412961516209179536e-06 4.616723799699684605e-06
-9.186020122342597460e-08 2.254227865705615841e-06 5.973985935270320624e-06 -2.000480708375107497e-05 -1.450965010008076206e-05 -6.031918928783852607e-06 -3.019477389898383990e-06 1.108860374188225251e-06 -1.210403934237547219e-05
-8.782298117876052856e-02 3.445460228249430656e-03 7.108251005411148071e-02 -8.788917213678359985e-02 7.618083804845809937e-02 2.088943272829055786e-01 -4.062686115503311157e-02 -1.487248092889785767e-01 -2.738310396671295166e-02
1.542933091513987165e-06 2.613742537960206391e-07 -1.723206196402315982e-06 9.738702829054091126e-06 -6.789662620576564223e-06 -1.224449169967556372e-05 -7.867378371884115040e-06 -2.348714042454957962e-05 -2.485705863364273682e-06
1.657475084066390991e-01 -8.198088407516479492e-02 -2.128394395112991333e-01 -1.108082383871078491e-01 -1.419064849615097046e-01 -1.180771514773368835e-01 -4.542735591530799866e-02 2.089910209178924561e-01 -3.928010165691375732e-02
2.218007482588291168e-02 -1.002206057310104370e-01 2.869467809796333313e-02 1.202533766627311707e-02 6.991934031248092651e-02 3.453348875045776367e-01 1.424795091152191162e-01 1.538127362728118896e-01 -1.984086483716964722e-01
1.052990257740020752e-01 1.969932615756988525e-01 -6.801782874390482903e-04 -4.444437623023986816e-01 4.223083332180976868e-02 2.065684199333190918e-01 2.109973877668380737e-01 2.592600882053375244e-01 2.766308933496475220e-02
6.541120001202216372e-06 -2.268717435072176158e-05 3.844343154923990369e-06 -9.405488526681438088e-06 1.399039228999754414e-05 7.958789865369908512e-06 4.860993612965103239e-06 4.303255707327480195e-08 -3.093394116149283946e-05
7.489731162786483765e-02 -4.783800616860389709e-02 2.336686849594116211e-01 -2.751488387584686279e-01 -1.150943525135517120e-02 2.839358337223529816e-02 -2.454661577939987183e-02 -3.171943873167037964e-02 -1.131776571273803711e-01
3.104586619883775711e-03 6.629538536071777344e-02 1.136080995202064514e-01 2.954556345939636230e-01 -4.090680927038192749e-02 -9.366455487906932831e-03 4.270027577877044678e-02 -3.225791454315185547e-02 2.604602463543415070e-02
-1.077737212181091309e-01 3.267940133810043335e-02 2.921558022499084473e-01 -3.222967088222503662e-01 1.732394248247146606e-01 3.751051053404808044e-02 1.942199170589447021e-01 -2.913026511669158936e-02 1.456007659435272217e-01
1.269390136003494263e-01 2.180401422083377838e-02 -3.957750648260116577e-02 -5.948376655578613281e-01 -5.747948959469795227e-02 -2.691063880920410156e-01 -9.785601496696472168e-02 -2.457985132932662964e-01 -6.217297166585922241e-02
1.329160204477375373e-05 -1.788415102055296302e-05 2.852091938621015288e-06 -8.678622180013917387e-06 4.723074198409449309e-06 -7.162618658185238019e-07 -1.308127866650465876e-05 2.906197096308460459e-06 -5.041376789449714124e-05
3.787793964147567749e-02 7.104883901774883270e-03 -3.758892789483070374e-02 -8.595616370439529419e-02 9.127454161643981934e-01 -1.135161072015762329e-01 -2.384805232286453247e-01 -6.629338860511779785e-02 2.893541008234024048e-02
2.065417675112257712e-06 -2.101419704558793455e-05 -1.890118710434762761e-06 -4.883152087131747976e-06 -1.769294613040983677e-05 -3.053128693863982335e-06 -7.747386916889809072e-06 1.320602564192085993e-06 -1.035511559166479856e-05
-7.439268188136338722e-07 1.417643579770810902e-05 7.268408353411359712e-06 -2.536270812925067730e-06 -1.914700442284811288e-05 -4.350991730461828411e-06 -7.867573003750294447e-06 2.224196350653073750e-06 -5.409054665506118909e-06
2.296338379383087158e-01 1.857438385486602783e-01 -6.629008799791336060e-02 9.245568513870239258e-02 -1.796869188547134399e-02 9.713604301214218140e-02 -4.009763300418853760e-01 1.675636135041713715e-02 -1.938949897885322571e-02
-4.925919711240567267e-06 1.101519046642351896e-05 -4.200404873699881136e-06 6.608299827348673716e-07 -7.480120075342711061e-06 3.099439709330908954e-06 9.040954864758532494e-06 2.982438900289707817e-06 -6.661830411758273840e-06
1.991339786400203593e-06 -8.083725333563052118e-06 1.096506275644060224e-05 -3.909638124355296895e-08 -2.554444620272988686e-07 -2.121210854966193438e-06 -5.273147053230786696e-06 -9.423452866030856967e-06 -9.043367754202336073e-06
2.379031777381896973e-01 -1.234573647379875183e-01 -5.202718973159790039e-01 2.094836086034774780e-01 1.594584435224533081e-02 1.400368064641952515e-01 -2.247515022754669189e-01 7.484492659568786621e-02 -1.269612647593021393e-02
3.411769512240425684e-06 -1.210093432746361941e-05 3.575653181542293169e-06 -2.143329311365960166e-06 -1.626303856028243899e-05 -9.372617569169960916e-06 -1.234623482559982222e-06 -2.007750845223199576e-05 -3.197608020855113864e-05
3.670373931527137756e-02 6.618981808423995972e-02 2.856342792510986328e-01 -4.081653803586959839e-02 9.249638766050338745e-02 2.675245404243469238e-01 4.124179780483245850e-01 1.537504047155380249e-01 1.621711552143096924e-01
-8.453363925218582153e-02 3.105091862380504608e-02 1.001454889774322510e-01 9.329432249069213867e-02 -1.086278706789016724e-01 4.490117076784372330e-03 2.054832875728607178e-02 4.117655009031295776e-02 4.380178824067115784e-02
5.663875490427017212e-03 -7.513307966291904449e-03 2.452767342329025269e-01 -1.219086408615112305e+00 8.932038210332393646e-03 2.761819362640380859e-01 1.275109797716140747e-01 1.098184958100318909e-01 -7.817186415195465088e-03
-6.867930293083190918e-02 -3.630762547254562378e-02 -2.554792538285255432e-02 8.113116957247257233e-03 2.751097679138183594e-01 -1.327536404132843018e-01 -4.686430911533534527e-04 3.105685412883758545e-01 3.250623994972556829e-04
4.881795575784053653e-06 2.722444514802191406e-05 2.170485231545171700e-06 -3.900630872522015125e-06 -3.793168161791982129e-06 -1.212567440234124660e-05 -1.062325191014679149e-05 -4.585506587773124920e-07 -8.351476935786195099e-06
-1.675177918514236808e-05 3.486761488602496684e-05 7.128498054953524843e-06 1.273100588150555268e-05 1.493962554377503693e-05 7.342432581936009228e-07 9.636113645683508366e-06 8.192718269128818065e-06 3.352539715706370771e-05
1.396138817071914673e-01 1.537026613950729370e-01 1.276662498712539673e-01 3.479146584868431091e-02 9.338204562664031982e-02 -2.024313360452651978e-01 -1.056491062045097351e-01 -3.194085508584976196e-02 -3.706977143883705139e-02
-5.301048979163169861e-02 2.763501601293683052e-03 -2.725162208080291748e-01 -1.775233745574951172e-01 7.851606607437133789e-02 -2.155430801212787628e-02 1.038189008831977844e-01 -1.358539704233407974e-02 1.625873148441314697e-02
4.209620654582977295e-01 -1.186527907848358154e-01 -5.162664689123630524e-03 1.971072331070899963e-02 8.691988140344619751e-02 -1.854468137025833130e-02 -2.096666246652603149e-01 -3.614223301410675049e-01 4.629639908671379089e-02
3.441964462399482727e-02 -1.107151135802268982e-01 6.234560906887054443e-02 -3.856765851378440857e-02 1.261865943670272827e-01 -1.642790250480175018e-02 -9.209860116243362427e-02 3.478768095374107361e-02 -7.256516069173812866e-02
5.206891149282455444e-02 2.112806402146816254e-02 -4.311531409621238708e-02 1.769458651542663574e-01 4.068560004234313965e-01 -3.803315758705139160e-01 -1.915223747491836548e-01 3.837520256638526917e-02 -1.584544405341148376e-02
-5.412059649825096130e-02 -1.909114653244614601e-03 1.367112398147583008e-01 -3.115822076797485352e-01 2.915422320365905762e-01 5.562397092580795288e-02 6.728169508278369904e-03 5.080966949462890625e-01 1.664612144231796265e-01
1.050116047263145447e-01 -7.614995352923870087e-03 2.130821496248245239e-01 1.227419003844261169e-01 -6.889028102159500122e-02 1.707432046532630920e-02 -8.653872460126876831e-02 -2.998373806476593018e-01 2.642839960753917694e-02
9.223766710420022719e-07 2.027607479249127209e-05 -1.480641913076397032e-05 -6.675810709566576406e-06 -1.548484078739420511e-06 -2.983215608765021898e-06 -4.556191015581134707e-07 -1.292992601520381868e-05 1.166443507827352732e-05
-4.088134467601776123e-01 3.971122950315475464e-02 -3.089968264102935791e-01 6.555998921394348145e-01 5.487610027194023132e-02 1.063887700438499451e-01 -4.874408245086669922e-02 1.726099997758865356e-01 -1.370752230286598206e-02
4.141589403152465820e-01 -1.701595261693000793e-02 2.464661300182342529e-01 2.140119522809982300e-01 1.013652887195348740e-02 -4.684731066226959229e-01 1.453649625182151794e-02 5.958019569516181946e-02 -1.091542094945907593e-02
1.006402089842595160e-05 -1.035859713738318533e-05 -1.251207140740007162e-05 -7.552083843620494008e-06 -3.705435602796569583e-08 -1.121234618040034547e-05 -7.869957698858343065e-06 -1.052218436825569370e-07 -1.646619602979626507e-05
1.120131673815194517e-05 -8.058042908487550449e-07 6.410134119505528361e-06 -8.964381777332164347e-06 -6.082576874177902937e-06 -8.948668437369633466e-06 -7.358349193964386359e-06 -2.179926241296925582e-06 -3.522403130773454905e-05
-1.067859284376027063e-05 -1.154792016677674837e-06 7.443376944138435647e-06 2.626128207339206710e-06 1.184268785436870530e-05 9.016942385642323643e-06 4.748818298594414955e-07 1.665068225520371925e-06 -1.538574542792048305e-05
4.860187321901321411e-02 6.394709646701812744e-02 5.383235812187194824e-01 -5.772646516561508179e-02 9.665451198816299438e-02 -5.215408653020858765e-02 4.845388978719711304e-02 1.503059267997741699e-01 8.709270507097244263e-03
1.868288591504096985e-02 -2.314668381586670876e-03 -1.668003015220165253e-02 4.848567768931388855e-02 1.060097347362898290e-04 -2.812848426401615143e-02 2.170653780922293663e-03 2.586783841252326965e-03 4.544646944850683212e-03
-1.602334678173065186e-01 -7.722590863704681396e-02 -1.904085874557495117e-01 -5.682108551263809204e-02 1.036119181662797928e-02 2.671380341053009033e-01 -5.063129961490631104e-02 1.501639634370803833e-01 -2.202816493809223175e-02
-7.000163942575454712e-02 3.857539966702461243e-02 -4.210074543952941895e-01 2.899762243032455444e-02 -2.378235198557376862e-02 7.322495337575674057e-03 3.190716728568077087e-02 -3.000873886048793793e-02 6.775592565536499023e-01
-2.411539107561111450e-01 -3.074237331748008728e-02 -4.237093627452850342e-01 3.201329708099365234e-01 2.735882252454757690e-02 1.632146537303924561e-01 -2.788179218769073486e-01 9.030447900295257568e-02 8.731130510568618774e-02
-1.389033943414688110e-01 4.635122790932655334e-02 -2.402682974934577942e-02 4.571420252323150635e-01 1.568644889630377293e-03 -4.802439734339714050e-02 9.657830744981765747e-02 1.116108149290084839e-01 4.652867466211318970e-02
1.122697995015187189e-05 -5.946806595602538437e-06 -2.385484776823432185e-06 -1.507003389633609913e-06 -1.052341940521728247e-05 -9.593562026566360146e-06 -9.465740731684491038e-06 -7.692281542404089123e-06 -1.221048023580806330e-06
6.515473614854272455e-06 -2.174998917325865477e-05 2.813393621181603521e-06 -3.257310027038329281e-06 4.923947926727123559e-06 8.849776804709108546e-07 6.645242137892637402e-06 7.586972969875205308e-06 -1.884419361886102706e-05
-6.900305834278697148e-06 1.498407436884008348e-05 3.219346808691625483e-06 2.967552291011088528e-06 3.504609821902704425e-06 -1.938894683917169459e-06 -1.734716352075338364e-05 1.967526486623683013e-06 -6.147783551568863913e-06
-7.968344539403915405e-02 7.819902151823043823e-02 6.458982825279235840e-02 -1.601672149263322353e-03 -1.315982663072645664e-03 1.276775728911161423e-02 -3.019587695598602295e-02 7.224702090024948120e-02 7.312371730804443359e-01
1.183807944471482188e-05 -7.972426828928291798e-06 1.689157443252042867e-06 1.872733150776184630e-06 -1.036305366142187268e-05 -6.416439191525569186e-06 -7.069932053127558902e-06 2.239239847767748870e-06 -1.382433038088493049e-05
-8.303662184516724665e-07 -8.220374184020329267e-06 9.033428796101361513e-06 9.611469977244269103e-06 1.260740987163444515e-06 2.906361714849481359e-06 2.971084427372261416e-07 3.880044914694735780e-06 -2.645206950546707958e-05
-7.021227478981018066e-02 -1.183131337165832520e-02 1.428040564060211182e-01 -1.389181613922119141e-01 1.830828487873077393e-01 3.935171663761138916e-01 -3.373054414987564087e-02 -2.222386598587036133e-01 3.171787410974502563e-02
6.883145123720169067e-02 3.160877153277397156e-02 -2.656576037406921387e-01 -1.598057150840759277e-02 -1.285946276038885117e-02 2.396898269653320312e-01 1.016306132078170776e-02 -5.000511929392814636e-02 5.872477218508720398e-02
1.226010135724209249e-05 -6.268845936574507505e-06 -2.936784767371136695e-06 1.574841576257313136e-06 -3.069138983846642077e-06 3.350350880282348953e-06 -1.187901125376811251e-05 1.650207013881299645e-05 -7.894924237916711718e-06
2.805844247341156006e-01 5.968116968870162964e-02 -3.077985644340515137e-01 -9.643323719501495361e-02 2.008715271949768066e-02 -9.822395443916320801e-02 7.420158386230468750e-01 1.950679868459701538e-01 8.319665491580963135e-02
-8.296660147607326508e-03 -6.385100632905960083e-02 3.290392756462097168e-01 4.040235877037048340e-01 5.060292407870292664e-02 -2.874161899089813232e-01 -1.311988085508346558e-01 -1.502858102321624756e-01 -2.676718682050704956e-02
-4.599128260451834649e-06 1.058242651197360829e-05 -2.181387344535323791e-06 6.139122433523880318e-06 1.416004670318216085e-05 1.182797041110461578e-05 -4.647409124203250030e-09 -3.686658089918637415e-07 1.486599740019300953e-05
-1.039379731082590297e-05 2.335746785320225172e-06 8.904482456273399293e-06 -9.972503903554752469e-06 5.318426701705902815e-06 1.283278015762334689e-05 1.103277440961392131e-06 3.601589924073778093e-06 -2.022970511461608112e-05
1.125430688261985779e-02 -3.208383917808532715e-02 -2.155029326677322388e-01 1.023370251059532166e-01 -1.727293431758880615e-01 2.143528312444686890e-01 8.247718960046768188e-02 1.020103693008422852e-01 -3.610446304082870483e-02
-1.337532739853486419e-05 1.000135966933157761e-06 -1.354927644570125267e-05 7.721088877588044852e-06 -1.195473305415362120e-05 -5.322873676050221547e-06 2.749070290519739501e-06 -1.134417925641173497e-05 1.962911846931092441e-05
8.625783266325015575e-06 -1.674514714977703989e-05 1.044357986756949686e-06 -8.006462849152740091e-06 9.247878551832400262e-06 9.711821803648490459e-06 -9.353416317026130855e-06 1.355360745947109535e-05 -1.191191859106766060e-05
1.566629180160816759e-05 1.494027219450799748e-05 -5.988568318571196869e-06 1.374526277686527465e-06 -1.293586046813288704e-05 -2.061726991087198257e-05 -9.603516446077264845e-06 -3.129432343484950252e-06 7.951317456900142133e-06
1.323637661698739976e-06 -1.712424636934883893e-05 6.826072876719990745e-06 -7.622622433700598776e-06 -1.641814742470160127e-05 5.186053840589011088e-06 -4.940729468216886744e-06 6.503433269244851544e-06 1.311492451350204647e-05
-2.256887406110763550e-01 -1.105167716741561890e-01 -4.129371643066406250e-01 6.503040343523025513e-02 8.365070074796676636e-02 1.458281427621841431e-01 5.588029325008392334e-02 3.615254759788513184e-01 4.123466089367866516e-02
-9.563324965711217374e-06 2.115562529070302844e-05 6.293616024777293205e-06 2.976325731651741080e-06 2.182741241085750517e-07 9.874131137621589005e-06 -7.902266588644124568e-06 6.115767519077053294e-06 -8.395801160077098757e-06
-8.794901987130288035e-06 -9.783126188267488033e-06 4.659153091779444367e-06 -1.164962100119737443e-06 -5.223127118370030075e-06 3.231450591556495056e-07 2.141990535164950415e-06 1.091834383259993047e-05 2.623836917337030172e-05
4.198892384010832757e-06 1.230590805789688602e-05 -7.944797289383132011e-06 1.482047173340106383e-05 -1.639542279008310288e-05 -3.182966338499682024e-06 -3.735522966508142417e-07 -1.238629738509189337e-05 1.379141849611187354e-05
-4.128181934356689453e-02 -1.920939981937408447e-02 4.729273915290832520e-02 2.757012657821178436e-02 -2.350305952131748199e-02 1.387223973870277405e-02 4.136743955314159393e-03 6.998327374458312988e-02 1.433733403682708740e-01
1.039551794528961182e-01 2.694821171462535858e-02 -2.694015502929687500e-01 2.820064723491668701e-01 2.887078002095222473e-02 1.444892305880784988e-02 -5.846388638019561768e-02 3.593851327896118164e-01 3.723736107349395752e-01
-5.673024588759290054e-06 9.228881026501767337e-06 9.488575756222417112e-07 -2.016152620853972621e-06 5.812383733427850530e-06 1.159150087914895266e-06 9.077938557311426848e-06 -7.361107691394863650e-06 1.451328262191964313e-05
-8.093099109828472137e-03 2.816683147102594376e-03 -5.406372994184494019e-02 2.991332858800888062e-02 1.389370393007993698e-02 9.253828227519989014e-02 2.681338600814342499e-02 8.630982041358947754e-02 5.746344476938247681e-02
6.594864651560783386e-03 8.140553720295429230e-03 -1.150594130158424377e-01 -2.754875123500823975e-01 -1.263612061738967896e-01 -1.769943684339523315e-01 7.421733736991882324e-01 -1.019032597541809082e-01 7.425318658351898193e-02
-3.329200148582458496e-01 -8.858930319547653198e-02 -6.780838966369628906e-01 -7.669094949960708618e-02 2.264010719954967499e-02 -1.628931909799575806e-01 -2.587170004844665527e-01 -4.882878810167312622e-02 8.401378989219665527e-02
-2.444186946377158165e-03 7.787603884935379028e-03 2.545508369803428650e-02 9.032326750457286835e-03 -4.763517528772354126e-02 4.427195340394973755e-02 -1.622300036251544952e-02 -2.361581660807132721e-03 3.808846697211265564e-03
-7.223456577776232734e-06 -7.004543476796243340e-06 6.817065695940982550e-06 1.075700583896832541e-05 4.330850060796365142e-06 7.751399607514031231e-06 6.784691322536673397e-06 -1.475199610467825551e-06 1.233066177519503981e-05
1.401451868332515005e-06 7.931188292786828242e-07 4.372303010313771665e-06 1.298132065130630508e-05 -4.365113909443607554e-06 -2.734576810325961560e-06 -7.604536222061142325e-06 5.570328085013898090e-06 6.925267825863556936e-06
2.347575446037808433e-06 -1.530032750451937318e-05 -4.154636371822562069e-06 7.347531663981499150e-06 -2.449345083732623607e-05 -9.316528121416922659e-06 -6.400656275218352675e-06 5.890012744202977046e-07 8.781444194028154016e-06
6.925182044506072998e-02 -1.361547037959098816e-02 1.916417777538299561e-01 -2.535664737224578857e-01 1.047050952911376953e-01 1.715974360704421997e-01 -2.144225239753723145e-01 -8.769031614065170288e-02 -3.370098769664764404e-02
-4.184071719646453857e-02 -2.985470369458198547e-02 -1.462446898221969604e-02 -4.730222746729850769e-02 6.800691783428192139e-02 -1.160338055342435837e-02 -6.034753099083900452e-02 3.651045635342597961e-02 -3.659790009260177612e-02
4.025644102512160316e-07 -2.392544411122798920e-05 1.457601570109545719e-06 -1.567378717481915373e-06 9.334436867902695667e-07 1.608084744475490879e-06 5.188510840525850654e-06 -5.739188395637029316e-07 8.827853889670222998e-06
1.280122160096652806e-05 -1.395649542246246710e-05 2.873535322578391060e-06 -8.851330903780763038e-07 -8.280249858216848224e-06 1.715103098831605166e-05 8.227163561969064176e-06 1.554016853333450854e-05 1.420874014002038166e-05
5.227340012788772583e-02 5.856607854366302490e-02 5.476243793964385986e-02 -8.344684541225433350e-02 -3.113008849322795868e-02 2.453901618719100952e-01 4.469341039657592773e-01 -2.134595438838005066e-02 1.437294036149978638e-01
1.721898093819618225e-02 7.662289310246706009e-03 -1.039887964725494385e-02 -3.757822513580322266e-02 3.980233147740364075e-02 -5.655062384903430939e-03 -2.247450314462184906e-02 2.903277927543967962e-04 -1.354772318154573441e-02
5.117203295230865479e-02 -9.744063019752502441e-02 -1.191256567835807800e-01 -1.667208373546600342e-01 1.341054309159517288e-02 -6.443461030721664429e-02 2.253209948539733887e-01 1.509550511837005615e-01 4.522719979286193848e-02
8.136126399040222168e-02 7.278271950781345367e-03 -1.845367401838302612e-01 1.830527782440185547e-01 -3.748095780611038208e-02 4.857722818851470947e-01 -2.281019389629364014e-01 -1.890945434570312500e-01 -3.586051985621452332e-02
-1.382696330547332764e-01 9.802593290805816650e-02 -1.990684419870376587e-01 1.383669227361679077e-01 8.691561222076416016e-02 -3.482610359787940979e-02 -2.803897950798273087e-03 4.633456468582153320e-01 -1.104445531964302063e-01
1.335427259618882090e-05 3.115647632512263954e-05 -5.273750502965413034e-06 -9.938366218875671620e-08 9.089026207220740616e-06 -1.644426333768933546e-06 3.005908411068958230e-06 -2.386821961408713832e-06 1.004549721983494237e-05
-3.148320729451370426e-06 2.174761175410822034e-05 1.884183984657283872e-05 -3.756429350687540136e-06 2.996324474224820733e-05 3.886520971718709916e-06 4.121556230529677123e-06 6.497015419881790876e-06 -7.325415026571135968e-06
2.033411990851163864e-03 3.057495690882205963e-02 -1.490944176912307739e-01 4.951219260692596436e-02 2.680191211402416229e-02 3.327736556529998779e-01 -9.925590711645781994e-05 5.557037889957427979e-02 3.535791859030723572e-02
-1.980776526033878326e-02 1.260889694094657898e-02 4.691747948527336121e-02 -9.655739180743694305e-03 -1.097843423485755920e-02 3.635485842823982239e-02 -5.098951514810323715e-03 1.128733530640602112e-01 6.317190080881118774e-02
-1.409842222929000854e-01 -7.604490965604782104e-02 -2.596839070320129395e-01 2.576910518109798431e-02 -2.991499938070774078e-02 -2.024825811386108398e-01 1.029225345700979233e-02 1.064139828085899353e-01 2.397743612527847290e-02
2.271438461320940405e-05 -1.743401662679389119e-05 -1.228106521011795849e-05 -6.375814336934126914e-06 -8.234670531237497926e-06 1.872817847470287234e-06 -5.757776762038702145e-06 3.631052322816685773e-06 -7.558394372608745471e-06
-2.736180424690246582e-01 2.679561972618103027e-01 2.617919445037841797e-01 1.346100866794586182e-01 2.068953821435570717e-03 -7.910819724202156067e-03 -1.536065805703401566e-02 -2.129763811826705933e-01 -8.738170377910137177e-03
-6.714732386171817780e-03 9.065134078264236450e-02 1.015565246343612671e-01 -2.017695643007755280e-02 -3.262747451663017273e-02 8.368746191263198853e-02 8.697191625833511353e-02 -5.760675296187400818e-02 6.434352602809667587e-03
-3.081945806115982123e-06 -1.774002339516300708e-05 -1.459174654883099720e-05 -2.445022346364567056e-06 2.404373844910878688e-05 -9.498163308307994157e-06 -1.181167931463278364e-06 -1.668425102252513170e-05 2.139313801308162510e-05
-1.952238562807906419e-06 -1.053153209795709699e-05 1.005247941066045314e-05 -8.302666174131445587e-06 -4.850941422773757949e-06 1.457786765968194231e-05 7.642681339348200709e-06 1.245610474143177271e-05 -7.930505489639472216e-06
-2.211570063082035631e-06 -8.687120498507283628e-06 7.078953785821795464e-06 7.502406333514954895e-06 -2.923246029240544885e-06 8.768085990595864132e-07 -1.517632244940614328e-05 3.081718887187889777e-06 -1.576960676175076514e-05
6.537386980198789388e-06 -3.700846355059184134e-05 5.119967227074084803e-06 -1.408250227541429922e-05 -8.292860798064793926e-07 -2.827993284881813452e-06 4.384145995572907850e-06 -2.889081997636822052e-06 -4.607022492564283311e-05
9.846865395957138389e-06 1.133198020397685468e-05 1.184346365334931761e-05 -5.218933438300155103e-06 -1.066233107849257067e-05 -1.537646312499418855e-05 -9.805416084418538958e-06 -6.509230843221303076e-06 -1.793764749891124666e-05
-4.196105152368545532e-02 -4.685277119278907776e-02 -9.544067978858947754e-01 -1.612383499741554260e-02 1.274596601724624634e-01 1.187092363834381104e-01 -1.063810586929321289e-01 2.668530046939849854e-01 2.701376937329769135e-02
-6.751675903797149658e-02 1.053619980812072754e-01 -1.842257231473922729e-01 -1.328877266496419907e-02 4.548732563853263855e-02 -1.567629352211952209e-02 2.350174039602279663e-01 1.387597918510437012e-01 4.759205877780914307e-02
-9.104044735431671143e-02 6.914713233709335327e-02 -3.446124196052551270e-01 -8.036709576845169067e-02 -9.058640152215957642e-02 2.883052825927734375e-01 -2.717198804020881653e-02 4.282321780920028687e-02 2.690431720111519098e-04
