-4.255526512861251831e-02
2.451444417238235474e-01
-5.485391244292259216e-02
-5.289180949330329895e-02
5.359541624784469604e-02
-1.663380563259124756e-01
3.993421420454978943e-02
-5.004730448126792908e-02
1.570284962654113770e-01
-1.548386067152023315e-01
4.332374315708875656e-03
-2.343163453042507172e-02
-1.093773096799850464e-01
6.561688333749771118e-02
-1.317139267921447754e-01
8.747577667236328125e-03
-3.691881597042083740e-01
-1.299415826797485352e-01
6.334485113620758057e-02
-2.420930117368698120e-01
-1.340933293104171753e-01
1.067176461219787598e-01
1.350119709968566895e-01
-1.810751110315322876e-01
-2.306326478719711304e-01
-1.758864820003509521e-01
8.876471221446990967e-02
-6.500383466482162476e-02
5.522065237164497375e-02
-2.226444184780120850e-01
5.615059658885002136e-02
-1.170233488082885742e-01
-2.084503918886184692e-01
-6.843104958534240723e-02
1.978855580091476440e-01
-8.905067294836044312e-02
-2.521765828132629395e-01
-1.853144764900207520e-01
-1.765463203191757202e-01
-2.118429690599441528e-01
4.461941868066787720e-02
-1.448905467987060547e-01
-1.734055578708648682e-01
-1.959230303764343262e-01
-1.792454905807971954e-02
7.837781310081481934e-02
4.040455073118209839e-02
-1.409177482128143311e-01
-1.035469695925712585e-01
1.041575893759727478e-01
-7.455445080995559692e-02
-8.117780089378356934e-02
-1.312091648578643799e-01
-1.479354202747344971e-01
-1.146738156676292419e-01
-2.705788612365722656e-01
6.618163734674453735e-02
-2.644802033901214600e-01
1.262371689081192017e-01
-8.951883763074874878e-02
-1.324956715106964111e-01
-1.162172332406044006e-01
1.803701967000961304e-01
-3.049879707396030426e-02
-1.557833403348922729e-01
-2.629626095294952393e-01
-1.058228611946105957e-01
6.668663769960403442e-02
-2.160747535526752472e-02
-6.765047460794448853e-02
-1.654356867074966431e-01
5.709045007824897766e-02
2.027851529419422150e-02
3.392132371664047241e-02
-1.176214516162872314e-01
9.087517112493515015e-02
-8.428557217121124268e-02
-7.386007905006408691e-02
-1.023658365011215210e-01
-1.967830955982208252e-01
-3.393481373786926270e-01
4.877820983529090881e-02
2.111952379345893860e-02
-1.858235709369182587e-02
1.174263581633567810e-01
4.277700558304786682e-02
-2.869336493313312531e-02
2.074679173529148102e-02
3.982840850949287415e-02
-9.752431511878967285e-02
-6.519012153148651123e-02
-9.837385267019271851e-02
-1.638880074024200439e-01
-8.027028292417526245e-02
5.678501352667808533e-02
3.663115203380584717e-02
-3.599972426891326904e-01
1.120127439498901367e-01
-7.320761680603027344e-02
2.179209701716899872e-02
-4.038252532482147217e-01
-8.589266240596771240e-02
-1.775632500648498535e-01
-2.257695645093917847e-01
-2.890878170728683472e-02
-7.214842736721038818e-02
-4.788630083203315735e-02
-7.910522632300853729e-03
3.360765427350997925e-02
-7.124830037355422974e-02
2.349505573511123657e-02
6.258855015039443970e-02
-1.036710292100906372e-01
-1.467919498682022095e-01
-4.188457503914833069e-02
8.371169865131378174e-02
4.131718352437019348e-02
3.877222537994384766e-02
1.250775754451751709e-01
6.830604746937751770e-03
3.882067278027534485e-02
4.379067942500114441e-02
-4.746512696146965027e-02
5.358571559190750122e-02
2.124788938090205193e-03
-3.970861434936523438e-02
-2.584905028343200684e-01
-1.693701148033142090e-01
-2.148351222276687622e-01
-1.805868893861770630e-01
-3.020210862159729004e-01
-2.865918576717376709e-01
3.520687343552708626e-03
-1.155138984322547913e-01
-1.865774840116500854e-01
-7.819312810897827148e-02
-2.762005031108856201e-01
-2.139769792556762695e-01
-1.188824474811553955e-01
-2.132638543844223022e-01
6.562347710132598877e-02
-8.971465378999710083e-02
-4.493970796465873718e-02
-8.701762557029724121e-02
1.028391271829605103e-01
-8.649287372827529907e-02
-7.976245135068893433e-02
-2.249051034450531006e-01
2.056919736787676811e-03
-1.288233697414398193e-01
-1.125099062919616699e-01
-1.834792941808700562e-01
4.728836566209793091e-02
-1.650674492120742798e-01
1.532477140426635742e-02
5.978218838572502136e-02
-3.724435344338417053e-03
-1.475620716810226440e-01
-1.081827431917190552e-01
3.057511523365974426e-02
-8.170676417648792267e-03
-1.606860905885696411e-01
4.231573268771171570e-02
1.073167547583580017e-01
-9.948576241731643677e-02
-1.374563276767730713e-01
8.427633345127105713e-02
-3.464802205562591553e-01
1.347093097865581512e-02
4.611484706401824951e-02
-5.203894898295402527e-02
-1.392659246921539307e-01
2.564737014472484589e-02
-8.946175873279571533e-02
4.386091232299804688e-02
-1.140704825520515442e-01
8.010550588369369507e-02
-2.135315537452697754e-01
-1.917319595813751221e-01
-2.540276646614074707e-01
-4.997121542692184448e-02
-2.094516754150390625e-01
-7.485478371381759644e-02
-2.656995058059692383e-01
-1.457319855690002441e-01
-1.462068259716033936e-01
3.008934669196605682e-02
-1.024044081568717957e-01
-1.710245013236999512e-02
1.506974101066589355e-01
-1.111516281962394714e-01
-1.082940101623535156e-01
-7.007939368486404419e-02
-2.897784858942031860e-02
1.905935496324673295e-04
-7.417026907205581665e-02
-8.647017925977706909e-02
-1.061540320515632629e-01
8.304302394390106201e-02
-2.593864686787128448e-02
3.445601835846900940e-02
2.560407295823097229e-02
5.207868665456771851e-02
-3.407098725438117981e-02
-2.293032705783843994e-01
-1.340296715497970581e-01
-1.447608172893524170e-01
-9.223491698503494263e-02
-1.603555530309677124e-01
-1.669461131095886230e-01
-1.788645088672637939e-01
5.823303386569023132e-02
1.482458561658859253e-01
-1.870647966861724854e-01
-1.741461604833602905e-01
-1.999044790863990784e-02
-7.249527424573898315e-02
-1.511788815259933472e-01
-2.945245504379272461e-01
-1.225533932447433472e-01
-2.750919461250305176e-01
-1.463508009910583496e-01
-8.695270866155624390e-02
-2.991548180580139160e-01
-1.531771123409271240e-01
-2.461529970169067383e-01
3.192366659641265869e-02
-2.017051577568054199e-01
4.304123669862747192e-02
-3.066495656967163086e-01
-1.685686409473419189e-01
2.802422642707824707e-02
-1.612454503774642944e-01
-3.289501648396253586e-03
-2.798472940921783447e-01
5.411682650446891785e-02
-2.191349565982818604e-01
-4.864171743392944336e-01
-4.724642634391784668e-02
1.174138337373733521e-01
9.105103090405464172e-03
-5.421020463109016418e-02
-1.465603411197662354e-01
-1.072404012084007263e-01
2.436761185526847839e-02
5.877786129713058472e-02
-1.534088165499269962e-03
8.862834423780441284e-02
6.056663021445274353e-02
-2.056931108236312866e-01
5.842009559273719788e-03
-1.937681585550308228e-01
-2.163192033767700195e-01
-1.098041534423828125e-01
-1.953426748514175415e-01
-5.228787288069725037e-02
3.748736530542373657e-02
-1.250001341104507446e-01
-8.028798550367355347e-02
6.669628620147705078e-02
1.087674126029014587e-01
-2.232958525419235229e-01
-1.804284453392028809e-01
8.848489820957183838e-02
-1.989710628986358643e-01
-1.701046526432037354e-01
1.018137931823730469e-01
1.899966411292552948e-02
-7.524871826171875000e-02
-1.008352562785148621e-01
-5.216797068715095520e-02
7.037408649921417236e-02
-3.159203752875328064e-02
-2.168157882988452911e-02
-2.610582709312438965e-01
-9.863781929016113281e-02
-1.397643387317657471e-01
4.021491855382919312e-02
8.926112204790115356e-02
6.925973296165466309e-02
2.946594357490539551e-02
2.555033862590789795e-01
-1.200636401772499084e-01
2.241293340921401978e-01
1.197183877229690552e-02
-2.163416445255279541e-01
7.572202384471893311e-02
3.383591771125793457e-02
-2.798756062984466553e-01
6.214888393878936768e-02
2.303705364465713501e-02
-6.007065251469612122e-02
-1.444380637258291245e-02
1.010286211967468262e-01
-1.663762629032135010e-01
1.400504559278488159e-01
5.974956974387168884e-02
4.798295721411705017e-02
-2.393975853919982910e-01
-6.235722824931144714e-02
-1.619891077280044556e-02
-2.796089276671409607e-02
-4.592412710189819336e-02
1.064765155315399170e-01
-3.587868809700012207e-01
-1.820340156555175781e-01
-2.314947172999382019e-02
3.430603072047233582e-03
-1.793022453784942627e-01
-2.545958161354064941e-01
-2.978243865072727203e-03
1.632509827613830566e-01
-4.270701203495264053e-03
-1.329937577247619629e-01
3.246954083442687988e-02
2.696221135556697845e-02
-1.402284353971481323e-01
-1.912038028240203857e-01
-2.201426476240158081e-01
-1.075288951396942139e-01
-4.562864196486771107e-04
-1.151775419712066650e-01
-1.487182802520692348e-03
-5.571379326283931732e-03
-1.951471716165542603e-01
-4.384748265147209167e-02
-2.091970890760421753e-01
-9.619029611349105835e-02
-1.431380510330200195e-01
5.320397019386291504e-02
-4.887089505791664124e-02
-9.508058428764343262e-02
-3.235660865902900696e-02
-2.187553495168685913e-01
7.386357523500919342e-03
-4.447093605995178223e-02
5.499071255326271057e-02
1.106849685311317444e-01
-1.150692719966173172e-02
-1.230192705988883972e-01
-1.501357704401016235e-01
5.709864199161529541e-02
-2.599387764930725098e-01
-3.803056105971336365e-02
-1.090092435479164124e-01
-5.193641409277915955e-02
-1.087162550538778305e-02
1.167794317007064819e-01
7.026627659797668457e-02
-1.918251067399978638e-01
-9.157217293977737427e-02
-2.902666926383972168e-01
-1.653715372085571289e-01
4.031700268387794495e-02
1.568324565887451172e-01
2.987911365926265717e-02
1.241916697472333908e-02
-1.194869726896286011e-01
-3.421882688999176025e-01
-1.365943253040313721e-01
-2.258811742067337036e-01
-8.743785321712493896e-02
8.868604898452758789e-02
-2.984189093112945557e-01
-2.986747305840253830e-03
-1.293515861034393311e-01
9.245938062667846680e-02
-3.600822687149047852e-01
6.961414963006973267e-02
-7.652630656957626343e-02
-7.347398996353149414e-02
-7.616371661424636841e-02
3.254333138465881348e-02
2.497803047299385071e-02
-3.874681517481803894e-02
-6.078541651368141174e-02
5.914495512843132019e-02
-2.199638932943344116e-01
-1.421693861484527588e-01
-4.107160959392786026e-03
-1.348232328891754150e-01
-2.184617966413497925e-01
-2.432563900947570801e-01
1.564589515328407288e-02
-1.248045787215232849e-01
-3.273525089025497437e-02
-1.978026557480916381e-04
-2.468484789133071899e-01
-1.349663082510232925e-02
-2.171255275607109070e-02
-3.156580924987792969e-01
2.154046436771750450e-03
1.210716217756271362e-01
-1.201251149177551270e-01
-5.608640611171722412e-02
-2.030880888924002647e-03
5.460524186491966248e-02
-1.058335602283477783e-01
-6.488495320081710815e-02
-2.462461218237876892e-02
