-4.833707644138485193e-04 -1.054516877047717571e-03 3.449207916855812073e-02 -1.008544233627617359e-03 -2.225530624855309725e-04 1.110616372898221016e-03 1.333065144717693329e-02 1.934993313625454903e-03 8.778341114521026611e-02 1.094146064133383334e-04 1.984784193336963654e-02 8.961329003795981407e-04 1.367244590073823929e-02 5.141923247720114887e-05 7.861121412133798003e-05 8.935687132179737091e-03 -2.697165473364293575e-04 1.299618836492300034e-02 -4.286329075694084167e-02 2.688172971829771996e-04 -5.590389991994015872e-05 -2.063480933429673314e-04 2.394336042925715446e-03 1.501475198892876506e-04 -4.290854558348655701e-04 1.409064531326293945e-01 3.830133937299251556e-03 9.783866256475448608e-02 -4.433918278664350510e-03 -5.584420287050306797e-04 1.490492868470028043e-04 -1.340867456747218966e-04 -8.733268827199935913e-03 -2.129013300873339176e-04 -2.802053280174732208e-02 6.290000601438805461e-05 -4.104508552700281143e-03 1.861295429989695549e-03 -2.172043770551681519e-01 -3.040323965251445770e-02 7.229422219097614288e-03 -1.363907067570835352e-04 -2.601151936687529087e-04 8.909297757782042027e-04 -9.001236408948898315e-03 -4.150103777647018433e-02 1.860197819769382477e-02 -1.404742070008069277e-04 1.062600131263025105e-04 1.334412227151915431e-04 3.825442981906235218e-04 1.428979337215423584e-01 7.774498226353898644e-05 7.624124642461538315e-03 2.532892540330067277e-05 7.801373722031712532e-04 3.240779042243957520e-03 1.847200655902270228e-05 -6.067588692530989647e-04 2.336211036890745163e-04 4.069729521870613098e-02 2.478283931850455701e-06 2.863606996834278107e-02 6.954990793019533157e-03 2.947526425123214722e-02 5.505283921957015991e-02 7.830697577446699142e-04 3.502215840853750706e-04 7.037760224193334579e-05 -2.963696897495537996e-04 3.257916832808405161e-04 -4.820304166059941053e-04 -2.112241636496037245e-04 -1.218352554133161902e-04 -1.350497914245352149e-04 -1.369872770737856627e-04 1.321564079262316227e-03 1.254943385720252991e-02 -3.406062751309946179e-05 1.504482861491851509e-05 2.744508383329957724e-04 -1.157178450375795364e-02 -2.888418035581707954e-03 -2.153649227693676949e-03 -2.772189443930983543e-03 3.517272882163524628e-03 -1.013160916045308113e-03 -5.156331229954957962e-03 -3.476943675195798278e-05 3.680302761495113373e-03 2.339112805202603340e-03 9.161822497844696045e-02 3.556711226701736450e-02 4.989285953342914581e-04 -4.090784932486712933e-04 3.772943455260246992e-05 1.953639788553118706e-03 -1.856986636994406581e-04 -7.434172403009142727e-06 -2.950575901195406914e-03 -1.164615023299120367e-04 -1.861128606833517551e-03 -7.046850078040733933e-05 3.733721096068620682e-04 -1.648326776921749115e-02 5.771177820861339569e-03 2.290206030011177063e-02 -2.836979983840137720e-04 2.632411487866193056e-04 2.548273652791976929e-03 -5.744758163928054273e-05 4.313850309699773788e-03 -2.529546245932579041e-02 4.430266562849283218e-04 1.022053067572414875e-03 -6.365291774272918701e-04 7.163552800193428993e-05 6.326782517135143280e-03 -1.225489377975463867e-02 -1.223944709636271000e-03 -8.718168828636407852e-06 -3.897925489582121372e-04 8.156161755323410034e-03 -5.289512337185442448e-04 1.711063319817185402e-03 2.531295758672058582e-04 -3.711809695232659578e-04 -2.011869475245475769e-02 -1.090266159735620022e-03 -3.947239747503772378e-05 -4.985795239917933941e-04 -8.774592424742877483e-04 3.692332247737795115e-04 8.489489555358886719e-04 -6.166237290017306805e-04 -3.550676337908953428e-04 1.556488423375412822e-04 2.957548895210493356e-05 1.184054068289697170e-03 -8.262096089310944080e-04 -3.373794315848499537e-04 -3.842716396320611238e-04 -9.654222987592220306e-03 9.665411926107481122e-05 2.542631141841411591e-02 1.575769633054733276e-01 3.804038092494010925e-02 5.820542573928833008e-03 1.072195824235677719e-02 6.624324619770050049e-02 -2.112896763719618320e-04 -1.153315184637904167e-03 -8.339820429682731628e-03 2.684818394482135773e-02 2.640601946040987968e-03 -8.275326399598270655e-05 -1.732726581394672394e-03 4.948401823639869690e-02 1.818804303184151649e-03 -2.469658851623535156e-03 -1.038808189332485199e-02 9.627629333408549428e-05 3.941070288419723511e-03 2.831189485732465982e-04 9.998435853049159050e-04 3.075321204960346222e-03 -1.702113449573516846e-02 6.179177580634132028e-05 7.543473504483699799e-03 -4.117197386221960187e-05 9.373015724122524261e-03 -3.749272946151904762e-05 3.587843105196952820e-02 2.333136653760448098e-04 -2.558297128416597843e-04 3.094072744715958834e-04 1.366302603855729103e-03 5.993189406581223011e-04 -5.643377662636339664e-04 2.007180592045187950e-03 -2.744192257523536682e-03 -2.014291472733020782e-02 -8.835134096443653107e-03 -2.851028740406036377e-02 -8.732339367270469666e-03 9.322357946075499058e-04 -9.391588973812758923e-04 -2.802072279155254364e-02 8.910312899388372898e-04 -3.867076709866523743e-02 3.352542407810688019e-04 6.747205043211579323e-04 -2.604025357868522406e-04 1.552959147375077009e-04 -5.009216256439685822e-03 -8.343615918420255184e-04 2.647324290592223406e-04 1.411979645490646362e-01 -3.416676772758364677e-03 -1.792672835290431976e-02 9.040040895342826843e-04 -9.858213365077972412e-03 3.942826006095856428e-04 -1.213575340807437897e-02 -9.825428714975714684e-04 -6.061476888135075569e-04 9.759012755239382386e-05 -8.295798674225807190e-03 3.446370556048350409e-06 -1.680879108607769012e-02 9.709004079923033714e-04 -6.863446906208992004e-04 -3.274283185601234436e-02 -2.034042263403534889e-03 2.973635273519903421e-04 -1.377666834741830826e-03 -1.345052587566897273e-04 8.876062184572219849e-02 -4.831395926885306835e-05 5.991287156939506531e-02 7.333252578973770142e-03 1.939309368026442826e-05 -2.403455553576350212e-03 -3.946381912101060152e-05 -7.879147306084632874e-03 7.149024895625188947e-05 -7.909964188002049923e-05 1.144192901847418398e-05 2.091567264869809151e-03 8.593028178438544273e-04 -5.791057483293116093e-04 1.764145046472549438e-01 1.442811771994456649e-04 4.834385472349822521e-04 -2.005544025450944901e-03 8.037193678319454193e-03 6.742659606970846653e-04 1.676286628935486078e-04 2.119569182395935059e-01 1.065149903297424316e-02 -3.907298087142407894e-04 1.894412998808547854e-04 8.758575859246775508e-05 2.748853527009487152e-02 -1.751061412505805492e-03 3.860785363940522075e-05 2.132660895586013794e-02 8.552545914426445961e-04 1.317564165219664574e-04 1.649542391533032060e-04 -4.297940176911652088e-04 -3.523396117088850588e-06 -1.288908161222934723e-02 -1.354244595859199762e-04 2.939367732324171811e-05 -7.326482236385345459e-02 9.455764666199684143e-03 2.202181378379464149e-03 -1.360063161700963974e-02 1.315710542257875204e-04 2.003120183944702148e-01 7.803781330585479736e-02 5.556256510317325592e-03 1.648198347538709641e-03 3.578446921892464161e-04 -6.970477988943457603e-05 -3.596333321183919907e-03 1.092822402715682983e-01 3.902702406048774719e-02 -1.648193458095192909e-03 1.414871076121926308e-03 -6.060095620341598988e-04 -7.863690843805670738e-04 -2.528221812099218369e-04 6.482217577286064625e-05 1.462890504626557231e-04 -9.575205855071544647e-03 -2.120381966233253479e-02 4.933826159685850143e-03 4.774530604481697083e-02 6.551310070790350437e-04 -6.337916105985641479e-02 -1.018143211695132777e-05 2.024519629776477814e-02 -3.018592542503029108e-04 7.602071762084960938e-02 3.568925196304917336e-03 -5.609979270957410336e-04 9.428875148296356201e-02 -4.078670463059097528e-04 6.329952739179134369e-04 -5.535399913787841797e-02 7.186488364823162556e-04 -4.996134713292121887e-02 -7.832271978259086609e-03 -7.446035160683095455e-04 -1.351920422166585922e-03 -4.540706984698772430e-03 3.142341077327728271e-01 4.992007464170455933e-02 2.019687526626512408e-04 1.456508133560419083e-02 3.202343650627881289e-04 5.278368014842271805e-03 5.905465781688690186e-02 -2.019702224060893059e-04 3.917718713637441397e-04 3.136133775115013123e-03 -3.855786100029945374e-02 8.241837349487468600e-05 -4.933559522032737732e-02 -1.366813946515321732e-02 2.419610682409256697e-04 -5.199766746954992414e-06 1.317390007898211479e-03 4.593395715346559882e-05 1.862901495769619942e-03 -7.497501210309565067e-04 -1.465091947466135025e-03 1.808204688131809235e-03 -4.448039690032601357e-04 1.721268869005143642e-03 6.906738132238388062e-02 2.243044041097164154e-02 3.266297571826726198e-04 -1.198713928461074829e-01 -2.684902399778366089e-02 -2.081379643641412258e-04 7.613551570102572441e-04 5.874185822904109955e-03 1.458184327930212021e-03 7.707808166742324829e-02 -3.338553942739963531e-03 -6.199433846632018685e-05 -5.547495186328887939e-02 2.310448471689596772e-04 -2.546500880271196365e-03 3.403356671333312988e-01 2.172561362385749817e-02 -1.092436024919152260e-03 1.571157015860080719e-02 -2.674651041161268950e-04 -4.294860176742076874e-03 1.458848118782043457e-01 1.420042244717478752e-04 3.949659585487097502e-04 -8.087986498139798641e-04 -1.371701480820775032e-03 2.015585079789161682e-03 -1.463270891690626740e-04 -4.417803604155778885e-03 -4.824030620511621237e-04 4.734969884157180786e-02 -4.721036180853843689e-03 -5.808969214558601379e-02 3.834539558738470078e-03 3.379716508788987994e-05 -1.733580138534307480e-04 -1.783285188139416277e-05 -9.659021452534943819e-05 -9.836542885750532150e-04 1.029302715323865414e-03 -1.488792523741722107e-02 5.526596796698868275e-04 -7.584909908473491669e-03 -2.636166173033416271e-04 -5.022424738854169846e-04 -1.944650430232286453e-03 -7.068359991535544395e-04 -3.818879777099937201e-04 2.586695551872253418e-02 4.394131974549964070e-05 -1.087997879949398339e-04 -2.809088677167892456e-03 2.328206300735473633e-01 1.684746704995632172e-03 6.461033970117568970e-02 -1.721044885925948620e-03 4.329003393650054932e-02 3.055846095085144043e-01 1.109059550799429417e-03 7.298272103071212769e-02 -6.404666346497833729e-04 -2.121586352586746216e-03 -2.412080648355185986e-04 2.216683700680732727e-02 6.614799797534942627e-02 3.503333544358611107e-03 -5.197360296733677387e-04 4.509562859311699867e-04 6.907007191330194473e-04 1.175110955955460668e-04 -2.876425161957740784e-03 -2.475862018764019012e-02 1.091546655516140163e-04 3.828695917036384344e-04 -3.460332285612821579e-03 1.163999113487079740e-04 -7.442361861467361450e-02 -1.774036354618147016e-05
-7.177443421824136749e-07 9.536273637422709726e-07 -1.266430672330898233e-06 -2.190392649481509579e-07 -9.254749784304294735e-07 3.900767069353605621e-07 -1.086654492610250600e-06 -1.754127310960029718e-06 1.592622197676973883e-06 5.149582307240052614e-07 -4.984187285117513966e-07 -1.571878442518936936e-06 -3.045277026103576645e-06 -1.427347115168231539e-06 -2.000692091996825184e-07 -4.601647560775745660e-07 -6.207572766925295582e-08 -2.712495756895805243e-07 6.303300779109122232e-07 1.320791170655866154e-06 -1.179491277980559971e-06 -3.858988861793477554e-07 -1.100030715406319359e-07 -1.112564859795384109e-06 1.776708927536674310e-06 3.467243459454039112e-06 -1.249624688171024900e-06 2.926247816503746435e-06 6.938179240023600869e-07 -6.784595711906149518e-07 -1.309150661654712167e-06 -6.616353402932872996e-07 -7.363827876361028757e-07 -3.260946073169179726e-07 1.012416419143846724e-06 1.017580643747351132e-06 -6.719033649460470770e-07 -1.807143007681588642e-06 1.166100560112681706e-06 1.459621557842183392e-06 6.532620204779959749e-07 1.180388622401551402e-07 -1.299107310614999733e-07 4.977609364686941262e-07 3.305702875877614133e-07 -2.533726046749507077e-06 1.127974087467009667e-06 -5.194611389924830291e-07 -4.551338577130081831e-07 2.550839610648836242e-07 2.465573061272152700e-07 5.297828806760662701e-07 -3.133539223654224770e-07 -9.664901199357700534e-07 -1.830610813158273231e-06 -1.838073103499482386e-06 4.428332545103330631e-07 -8.157765023497631773e-07 -2.954071760541410185e-06 -9.899727047013584524e-07 -1.371852931697503664e-06 -2.219524048996390775e-06 4.272460500942543149e-07 3.134743451482790988e-07 -3.017682274730759673e-06 1.228321707458235323e-06 2.045714609266724437e-06 3.152591432353801792e-07 -1.353234438283834606e-06 -1.488565544605080504e-06 9.770781161932973191e-07 7.880192356424231548e-07 -8.682462748765829019e-07 -1.329163069385685958e-06 -6.412787456611113157e-07 5.996334380142798182e-07 5.901457029722223524e-07 -1.049923412210773677e-06 8.511335636285366490e-07 -1.590854481037240475e-06 -7.788358971083653159e-07 -1.499223287737549981e-07 -3.469342004791542422e-07 -8.928219017434457783e-07 -3.815206923718506005e-07 -7.272860784723889083e-07 4.071139017014502315e-07 -7.810096462890214752e-07 -1.460544694964482915e-06 -1.531807129140361212e-06 -3.374635070940712467e-06 4.084284910277347080e-08 -1.499317477282602340e-06 -1.576655783708247327e-08 -2.482419461102836067e-07 -7.527130492235301062e-07 -6.482714525191113353e-07 -1.153675611931248568e-06 -2.464800843426928623e-07 1.147270651813414588e-07 -1.615237692931259517e-06 -9.278988386540731881e-07 -7.711062721682537813e-08 -1.249014189852459822e-07 2.388387656537815928e-06 -8.335264851666579489e-07 9.877847332973033190e-06 -1.879540604932117276e-06 -1.043416801849161857e-07 4.715690806733618956e-07 2.398602646280778572e-06 -1.666225841745472280e-07 -2.149737838408327661e-06 -4.802662445513306011e-08 -8.851350230543175712e-07 -1.595715502844541334e-06 -4.179918562385864789e-07 9.416597501754608857e-10 1.491400780651019886e-08 -2.770462515400140546e-06 -1.935394720931071788e-06 4.788804517374956049e-07 -4.577383947435009759e-07 5.632500688079744577e-06 -1.047286900757171679e-06 1.574001430526550394e-06 2.748985536982218036e-07 1.708423951640725136e-06 -2.504033318473375402e-06 -1.560955070090130903e-06 -9.073568207895732485e-07 -1.829962457122746855e-07 6.267698040574032348e-07 -5.831520866195205599e-07 1.861535906755307224e-06 -3.915837964996171650e-07 -1.341221604889142327e-06 1.115146460506366566e-06 -6.863180601612839382e-07 -9.198357702189241536e-07 2.614299035030853702e-07 -4.102017499008070445e-07 -1.168046708244219190e-07 1.302236114497645758e-06 8.641277418064419180e-07 2.603356733743567020e-06 -2.111310777763719670e-06 -1.778789737727493048e-06 1.058441966961254366e-06 -3.029207960025814828e-07 2.568926902313251048e-07 -1.845619692630862119e-07 -8.591500773036386818e-07 -6.612783067794225644e-07 1.174342969534336589e-07 -2.481715739577339264e-07 6.240342713681457099e-07 9.768204023430371308e-08 -5.403468321674154140e-07 -3.414151251490693539e-06 -1.126497863879194483e-06 5.724128868678235449e-07 4.346854041159531334e-07 -9.684443966762046330e-07 5.741474637943611015e-07 -1.663999569245788734e-06 1.019062210616539232e-06 -3.613729688822786557e-07 6.673232633147563320e-07 -8.610072086412401404e-07 -1.019815499603282660e-06 -1.556928737045382150e-07 3.633461574281682260e-06 -7.404231610053102486e-07 -2.063056626866455190e-06 4.378848359465337126e-07 -4.055659985624515684e-07 1.359502675768453628e-06 -9.781532526176306419e-07 -9.160263516605482437e-07 -3.389177209101035260e-06 -4.515692708650931309e-08 -1.458120550523744896e-06 -1.664637920839595608e-07 -1.140115841735678259e-06 -4.940691837873600889e-07 -6.034610464666911867e-07 6.692687861686863471e-07 -1.151507149188546464e-06 6.811329740230576135e-07 6.678975523755070753e-07 -1.864616052671408397e-07 -5.125876327838341240e-07 -7.868619888995453948e-08 8.177248105312173720e-07 4.860737021772365551e-07 -9.068091912922682241e-07 5.349019716049951967e-07 7.278612770278414246e-07 2.003542476813890971e-06 -5.136463414601166733e-07 -1.024096377477690112e-06 -7.497367278119781986e-07 -3.040890305783250369e-06 -3.764004645745444577e-07 -1.059025976246630307e-06 -1.267223638024006505e-06 -1.764256353453674819e-06 -1.015282506955372810e-07 -2.716535334457148565e-07 -1.482446805312065408e-06 -8.551480732421623543e-07 7.212689183688780759e-07 -5.042246357334079221e-06 -1.194689048134023324e-06 -2.050762937244599016e-08 -5.567791205862704373e-08 -1.166115097817055357e-07 7.124534704416873865e-07 -2.046932792154620984e-07 -7.619023563165683299e-07 7.293483577086590230e-07 -6.500490599137265235e-07 4.554544830170925707e-08 -1.451765911042457446e-06 -5.561691409639024641e-07 -1.661830992816248909e-06 -7.782185775795369409e-07 -9.865233323580469005e-07 1.865071112661098596e-06 -8.500804921096616340e-11 1.180149524770968128e-06 -1.181561017915555567e-07 -1.297235826314135920e-06 -5.959096824881271459e-07 -1.887309650783208781e-07 -1.055029201779689174e-06 -1.068156961991917342e-06 7.097782486198411789e-07 1.301576389778347220e-06 -9.918592240865109488e-07 -6.727974550813087262e-07 -1.539581148790603038e-06 -2.153112745872931555e-06 -7.279477642896381440e-08 -1.176279738501762040e-06 -1.699841163826931734e-06 -9.464731647312873974e-07 -5.049388960287615191e-07 -8.850675747851255437e-09 5.814493420075450558e-07 -1.301698148381547071e-06 -1.344162001259974204e-06 1.336827892828296172e-07 -5.056579652773507405e-07 -5.417897455117781647e-07 4.757513067943364149e-07 1.826740287924621953e-07 1.272047938982723281e-06 -3.118352367437182693e-07 -5.017158244413622015e-08 -9.971896588467643596e-07 -1.255950792256044224e-06 3.435900680415215902e-06 -6.739699074387317523e-07 -5.137427194767951733e-08 3.266968064963293727e-07 -1.176574983219325077e-06 -1.526143250885070302e-06 -1.011506128634209745e-06 -7.683277658543374855e-08 -9.917476262444324675e-08 -1.338635001957300119e-06 -5.055305791756836697e-07 -1.956643558287396445e-07 -7.987537742337735835e-07 -8.482357998218503781e-07 1.345313194178743288e-06 -3.518433970839396352e-07 1.011874815048940945e-06 -8.062690994847798720e-07 6.565009016412659548e-07 -2.008090120853012195e-07 4.893060463473375421e-07 -4.428279680723790079e-07 3.454790657997364178e-07 -1.572632754687219858e-06 -2.287760878516564844e-07 -3.474936420388985425e-06 -1.241340186197703588e-07 -1.378478827973594889e-06 1.461357612697611330e-07 -5.208974585002579261e-07 -2.258532916243893851e-08 5.899338475501281209e-07 1.061424427462043241e-06 -2.051332558039575815e-06 6.121700835137744434e-07 -1.308661290444490533e-09 6.804363010814995505e-07 2.735624207161890808e-07 -2.041045490841497667e-06 1.412947767676087096e-06 1.368295784232032020e-06 -1.435248464076721575e-06 -2.066222123175975867e-06 -6.086365829105488956e-07 6.651334274465625640e-07 3.558936043646099279e-07 2.437902367091737688e-06 -2.042759433606988750e-06 1.476654574616986793e-06 -6.677399255750060547e-07 1.049907609740330372e-06 -4.536145752354059368e-07 -4.937559765494370367e-07 4.234679238379612798e-07 4.414220882154040737e-07 8.315913646583794616e-07 -5.449016953207319602e-07 1.326279971181065775e-06 -4.252260907833260717e-07 1.559796487526909914e-07 2.198285528720589355e-06 2.782161061531951418e-07 8.795512940196203999e-07 -6.056112624719389714e-07 9.685328983266572322e-09 5.996430445520672947e-07 -3.026148363005631836e-07 -1.087832515622721985e-06 3.036947191503713839e-07 -4.469758323466521688e-07 -1.002905719360569492e-06 -7.746222649984702002e-07 -8.725702969059057068e-07 -1.217985754919936880e-06 1.022641299641691148e-06 1.362387934022990521e-06 1.674094818326921086e-07 1.059162855199247133e-06 3.916293564998341026e-07 1.581333549438568298e-06 -1.737394541123649105e-06 2.894776685025135521e-07 -6.098917424424143974e-07 -1.563968794471293222e-06 -1.019364276544365566e-06 -1.099796918424544856e-06 3.506092483007705596e-08 -1.500921371189178899e-06 -3.388432787687634118e-07 -6.326025072667107452e-07 7.482050818907737266e-07 6.638756531174294651e-07 2.368363425375719089e-07 -6.054123105059261434e-07 -2.947674317965720547e-07 4.662164769797527697e-07 -7.547041036559676286e-07 -3.850042503472650424e-06 -1.201696818498021457e-06 -1.857558459050778765e-06 8.403466722484154161e-07 -2.358695155635359697e-06 -4.306641017137735616e-07 7.076766905811382458e-07 -1.412126380273548421e-06 -1.286885435547446832e-06 -1.005245621854555793e-06 -7.279361966538999695e-07 -5.733831471843586769e-07 -6.862139798613497987e-07 -3.663942891307669925e-07 5.445767214951047208e-07 -9.765197539479686384e-09 1.060826889442978427e-06 -7.216387984954053536e-07 -2.200394874307676218e-06 3.707519624640553957e-07 -5.791521857645420823e-07 -2.482823902028030716e-07 -8.516358889210096095e-07 -9.284725592806353234e-07 -6.322201784314529505e-08 2.957542619697051123e-07 -3.757299282369785942e-06 -1.782827553142851684e-06 1.692800850605635787e-07 7.148303780013520736e-07 5.771298674517311156e-07 -9.967758387574576773e-07 -8.795851158538425807e-07 -5.293381377668993082e-07 2.019569592448533513e-06 1.307808588535408489e-06 7.301005666704440955e-07 -4.516338378834916512e-07 -1.420699732079810929e-06 3.444266894803149626e-06
-1.159852952696382999e-03 -1.760033424943685532e-03 1.518676895648241043e-02 -1.225917600095272064e-03 6.992695853114128113e-05 3.607988473959267139e-04 2.067803591489791870e-02 4.279003944247961044e-03 9.980920702219009399e-03 3.154536243528127670e-04 -4.752310458570718765e-03 -3.087607026100158691e-02 2.509834468364715576e-01 -4.515923210419714451e-04 -2.214565174654126167e-03 1.299713999032974243e-01 -1.210413058288395405e-03 -7.132833125069737434e-04 2.344621578231453896e-03 -4.828820528928190470e-04 -9.362240234622731805e-05 -3.187663154676556587e-03 -1.845266111195087433e-02 2.174177207052707672e-02 -7.794349949108436704e-05 -4.108753637410700321e-04 2.657083678059279919e-04 -4.097345750778913498e-03 2.618530094623565674e-01 2.766566351056098938e-03 -1.145143178291618824e-03 1.514212880283594131e-02 -8.923013508319854736e-02 1.168168243020772934e-02 -1.698532886803150177e-02 8.327609975822269917e-04 -9.434870444238185883e-04 1.330807805061340332e-02 -1.758271269500255585e-02 -4.613322205841541290e-03 1.923373900353908539e-02 -5.961333215236663818e-02 -5.939684342592954636e-05 1.924394513480365276e-03 5.564873665571212769e-02 -2.732079103589057922e-02 1.056741736829280853e-02 5.241450294852256775e-02 3.355130553245544434e-02 8.363269444089382887e-05 1.289721967623336241e-05 -1.063662301748991013e-02 5.700106266885995865e-04 3.410326316952705383e-02 5.890204920433461666e-04 -1.703048939816653728e-03 1.418179483152925968e-03 1.650979102123528719e-04 -5.593741079792380333e-04 5.677825305610895157e-03 6.333059817552566528e-02 1.637890527490526438e-04 1.417961344122886658e-02 1.455057691782712936e-02 -2.046828856691718102e-03 1.576467329869046807e-04 2.760018687695264816e-04 7.126559503376483917e-04 -2.247338561573997140e-04 8.353104931302368641e-05 1.755536650307476521e-04 1.496868953108787537e-02 -2.446856815367937088e-04 -2.712479908950626850e-04 2.809944376349449158e-02 -2.850563905667513609e-04 5.037751980125904083e-04 4.160870239138603210e-02 -8.279519388452172279e-04 -2.007699658861383796e-04 1.425783731974661350e-03 6.746465340256690979e-03 -3.618607763200998306e-03 2.338099293410778046e-03 -5.256888456642627716e-03 -3.807269036769866943e-03 2.527948655188083649e-02 -1.370370620861649513e-03 1.371248275972902775e-03 7.112416788004338741e-04 -6.615436822175979614e-02 -6.102842744439840317e-03 -2.196907065808773041e-03 3.129809920210391283e-04 9.059572592377662659e-03 2.689977409318089485e-04 8.893121965229511261e-03 -5.323623190633952618e-04 1.407268107868731022e-03 -3.228103276342153549e-03 1.214750343933701515e-03 -1.733170007355511189e-03 -4.872175923082977533e-04 9.340112446807324886e-04 -8.266231045126914978e-03 1.241210382431745529e-03 1.014296989887952805e-02 2.365839201956987381e-03 2.527405449654906988e-04 3.697898704558610916e-03 3.493551863357424736e-03 -2.522239927202463150e-03 -6.242926232516765594e-03 1.466072630137205124e-03 3.874011803418397903e-03 -4.491595609579235315e-04 4.375107120722532272e-03 3.380654612556099892e-03 -7.193816453218460083e-02 -1.056845579296350479e-02 3.329986066091805696e-04 9.357575618196278811e-05 1.108100861310958862e-01 1.293546756642172113e-05 -1.080887857824563980e-02 -1.347177429124712944e-03 1.237366814166307449e-03 -1.632695831358432770e-02 2.150134387193247676e-04 -2.431992325000464916e-04 7.417224114760756493e-04 -1.422383822500705719e-03 -2.275147999171167612e-04 3.650057988124899566e-05 2.264111069962382317e-03 -9.310822933912277222e-04 7.620479911565780640e-02 -3.560146433301270008e-04 -1.775730983354151249e-03 -5.343408556655049324e-04 -4.896876635029911995e-04 3.531973052304238081e-04 -2.703258767724037170e-03 -3.109731778749846853e-06 -5.926372832618653774e-04 5.632910411804914474e-03 -1.542215934023261070e-03 5.366818979382514954e-03 3.481081919744610786e-03 2.321384614333510399e-03 7.400980684906244278e-04 -5.414120969362556934e-04 -4.184156190603971481e-03 -4.005032125860452652e-03 1.639563404023647308e-02 1.425176451448351145e-04 -9.724337724037468433e-05 2.646068809553980827e-03 -7.662618160247802734e-02 6.692377501167356968e-04 3.430024953559041023e-04 -5.813813550048507750e-05 2.558537817094475031e-04 -1.154889934696257114e-03 3.274156770203262568e-04 -7.756929844617843628e-02 4.304456524550914764e-03 6.300581619143486023e-03 7.275790907442569733e-03 -5.443177069537341595e-04 2.248759381473064423e-02 -4.071465809829533100e-04 1.439379993826150894e-02 -1.179572078399360180e-03 1.041542924940586090e-02 -7.812379626557230949e-04 1.310330815613269806e-03 1.418022438883781433e-03 -8.185814134776592255e-03 -1.067915931344032288e-02 7.244101911783218384e-02 -1.561152935028076172e-02 -4.293289093766361475e-04 1.460154657252132893e-03 5.823940737172961235e-04 1.611806824803352356e-02 -3.083049668930470943e-04 3.558984724804759026e-03 -3.294521942734718323e-02 -3.486752510070800781e-02 -1.395968283759430051e-04 1.607047975994646549e-03 -2.421728568151593208e-03 -1.493346993811428547e-03 1.848907768726348877e-01 3.636621404439210892e-04 1.161198131740093231e-03 6.464635225711390376e-05 -3.750537754967808723e-03 6.047390401363372803e-03 2.024110406637191772e-02 -9.451358579099178314e-03 -1.480166800320148468e-03 -3.201146842911839485e-03 -1.357904111500829458e-04 1.029759272933006287e-02 6.703437975374981761e-05 9.897127747535705566e-04 2.791568113025277853e-04 -6.305241549853235483e-05 8.834811742417514324e-04 -8.073775097727775574e-05 -1.499902456998825073e-02 -1.534506585448980331e-02 -5.425952622317709029e-05 1.731523126363754272e-02 -1.274630427360534668e-03 1.052425615489482880e-02 -1.467878028051927686e-04 8.523779251845553517e-05 -1.206795335747301579e-03 -6.648960709571838379e-02 9.283159160986542702e-04 2.630764152854681015e-03 2.136678667739033699e-03 1.508364948676899076e-04 -1.242040598299354315e-04 -1.787517248885706067e-05 -1.131841214373707771e-03 2.438611583784222603e-03 3.160064225085079670e-04 1.380230188369750977e-01 -5.466503716888837516e-05 1.940896809101104736e-01 -1.257842086488381028e-04 -3.801840590313076973e-03 2.853558980859816074e-04 -1.488640555180609226e-04 -1.456992351450026035e-03 9.293816983699798584e-04 -2.801886294037103653e-04 1.688925665803253651e-03 1.558933581691235304e-04 1.202354673296213150e-03 -9.666618425399065018e-04 -2.055734221357852221e-04 -7.445722818374633789e-03 -8.807014673948287964e-03 -1.177736907266080379e-03 -1.035966910421848297e-03 1.572386710904538631e-03 1.760077284416183829e-04 -2.983127348124980927e-02 -3.402138099772855639e-05 -1.807771332096308470e-04 1.649186247959733009e-03 1.558522582054138184e-01 -1.511638402007520199e-04 -4.821078386157751083e-03 -2.178385911975055933e-04 7.151645421981811523e-02 -4.030620213598012924e-03 -4.513680469244718552e-03 -1.446413458324968815e-03 -2.895033685490489006e-03 -6.462205055868253112e-05 -1.727765193209052086e-04 3.188844770193099976e-02 2.540748938918113708e-02 -3.708570962771773338e-03 7.079830393195152283e-04 -1.379150152206420898e-02 -1.867556362412869930e-03 -8.821013034321367741e-05 7.244892913149669766e-05 6.869094213470816612e-04 -5.045511716161854565e-05 1.103644375689327717e-03 7.905538077466189861e-04 1.009087311103940010e-03 -4.071959760040044785e-03 -6.497348099946975708e-02 3.177533298730850220e-02 -9.708468802273273468e-03 -7.842181948944926262e-04 1.248215558007359505e-03 -2.748460741713643074e-03 6.029446376487612724e-04 -4.052443546243011951e-04 -2.840002300217747688e-03 -1.911065168678760529e-02 -1.037150342017412186e-02 -6.002387963235378265e-04 4.224810749292373657e-02 -2.517865970730781555e-03 -8.448566659353673458e-04 -1.022012089379131794e-03 -2.560863085091114044e-02 2.931351959705352783e-01 1.915331115014851093e-03 1.886096899397671223e-03 -1.794457784853875637e-03 -5.624816403724253178e-04 -3.317290684208273888e-03 -3.077996429055929184e-03 -7.046863320283591747e-04 1.277794688940048218e-02 8.085514418780803680e-03 -5.414580926299095154e-03 -9.633973240852355957e-05 -7.965681143105030060e-03 -9.103742428123950958e-03 -8.437260112259536982e-05 -2.978653064928948879e-04 4.184507124591618776e-04 -5.100406240671873093e-03 2.328085480257868767e-03 3.652805229648947716e-03 1.854085130617022514e-03 5.869052186608314514e-02 2.579085994511842728e-04 6.534860003739595413e-04 2.364290505647659302e-02 -2.109627984464168549e-02 -2.358335256576538086e-02 2.749108476564288139e-03 -6.161016877740621567e-03 -1.080833535525016487e-04 1.636107335798442364e-04 4.170000102021731436e-05 -6.669018766842782497e-04 1.627266057766973972e-03 4.588127194438129663e-04 -5.159895494580268860e-02 6.072237621992826462e-03 4.233500733971595764e-02 -2.872439334169030190e-03 -1.706487871706485748e-02 -8.131735958158969879e-03 -3.122579655610024929e-04 3.968292381614446640e-03 -5.352373700588941574e-03 -2.696540672332048416e-03 2.084731608629226685e-01 8.537003397941589355e-02 -5.445331800729036331e-03 1.430468546459451318e-04 -4.843711387366056442e-03 7.961514405906200409e-03 -9.926339983940124512e-02 -1.370089128613471985e-03 -6.249846192076802254e-04 4.837415181100368500e-04 -2.894763601943850517e-03 -4.731753468513488770e-02 -4.446103237569332123e-03 -1.686348207294940948e-02 -5.037342384457588196e-02 -6.533385203510988504e-06 5.244589596986770630e-02 -2.271316479891538620e-03 1.784396590664982796e-03 -5.714812316000461578e-03 2.322338114026933908e-04 -6.269607692956924438e-03 -2.838167129084467888e-04 -1.792775234207510948e-03 -1.049474580213427544e-03 9.801569394767284393e-03 -2.193566039204597473e-02 -1.900264644064009190e-03 1.985132548725232482e-04 1.821223832666873932e-02 -3.106936579570174217e-03 -9.852838702499866486e-03 6.020629405975341797e-02 1.482258141040802002e-01 1.066799042746424675e-03 1.842343132011592388e-03 -1.189408637583255768e-02 -7.576582138426601887e-04 -9.000640129670500755e-04 -1.110618613893166184e-04 1.705098748207092285e-01 6.783169374102726579e-05 -2.845811424776911736e-03 3.146056784316897392e-03 -3.744215646293014288e-04 -2.989654894918203354e-04 1.700967084616422653e-03 1.527147333035827614e-07 2.114321832777932286e-04 2.102761995047330856e-03 1.876082023954950273e-05 -8.076313533820211887e-04 2.753809676505625248e-04 -1.114646345376968384e-02 -1.186010122182779014e-04 3.782916115596890450e-03 7.829722017049789429e-05
-3.288506716489791870e-02 -2.770801307633519173e-03 3.971250727772712708e-03 -4.733383189886808395e-03 8.461453253403306007e-04 -2.037298167124390602e-03 -7.274650037288665771e-03 3.999381791800260544e-03 -8.801021613180637360e-03 5.950212478637695312e-02 -8.325790986418724060e-03 -9.984237141907215118e-03 8.274589478969573975e-02 3.524461528286337852e-03 -5.626812926493585110e-04 8.809706568717956543e-02 3.526261448860168457e-02 -1.728331111371517181e-02 3.437870368361473083e-02 -1.837464951677247882e-04 5.001056124456226826e-04 -4.800961818546056747e-03 4.060873761773109436e-03 4.177204682491719723e-04 4.944093059748411179e-03 2.504914999008178711e-03 2.090857378789223731e-05 4.351098090410232544e-03 -6.404152140021324158e-03 -4.208543803542852402e-03 1.007387042045593262e-02 -6.374869029968976974e-03 -4.692569002509117126e-02 -1.201226725243031979e-03 1.912896521389484406e-02 -8.664732449688017368e-04 -8.322107605636119843e-03 6.487384904175996780e-03 -1.703697256743907928e-02 -7.407750934362411499e-03 -8.281806483864784241e-03 7.645905134268105030e-05 6.104847881942987442e-03 1.280000782571732998e-03 2.513800002634525299e-02 1.030360255390405655e-02 -9.700911119580268860e-03 2.417017705738544464e-03 2.142789959907531738e-02 -2.616230165585875511e-03 1.684001646935939789e-02 -4.729241132736206055e-03 3.816072829067707062e-03 -1.298024691641330719e-02 9.426456526853144169e-04 2.521629903640132397e-05 -5.590515211224555969e-03 -4.903020453639328480e-04 -9.073567576706409454e-03 -1.203440129756927490e-03 7.570081204175949097e-02 3.652330196928232908e-04 -5.741236358880996704e-02 1.818115264177322388e-02 4.860799293965101242e-03 8.378738421015441418e-04 -3.568615647964179516e-04 -1.353058614768087864e-03 6.022538946126587689e-05 2.555111050605773926e-02 1.821184158325195312e-02 -5.873080343008041382e-02 -9.431494399905204773e-04 5.321661010384559631e-03 2.134118221874814481e-05 -3.547963278833776712e-04 -2.467727288603782654e-03 4.497742652893066406e-02 -7.236196193844079971e-03 5.126750329509377480e-04 -7.675756933167576790e-04 1.602450944483280182e-02 -2.675980888307094574e-02 2.145200781524181366e-02 -1.695067249238491058e-02 -1.163092162460088730e-02 9.401769377291202545e-03 2.031154232099652290e-03 -1.613702438771724701e-02 1.275349990464746952e-03 -2.070305636152625084e-03 -2.635724376887083054e-03 1.118569867685437202e-03 -3.578739473596215248e-03 -2.411606907844543457e-02 -1.541995559819042683e-03 -8.719173260033130646e-03 -1.816638931632041931e-02 1.159679237753152847e-02 -1.318952301517128944e-03 -7.183036068454384804e-04 -1.930366735905408859e-03 3.332417691126465797e-04 -4.790708771906793118e-04 3.164837136864662170e-03 6.417673546820878983e-03 -1.092932769097387791e-03 3.086119145154953003e-02 -3.191076219081878662e-02 -5.466531496495008469e-03 -6.815420091152191162e-02 -1.174052525311708450e-02 -3.599286451935768127e-02 8.419142104685306549e-03 -2.195653691887855530e-02 9.699518792331218719e-03 4.103078041225671768e-03 -5.380672216415405273e-02 7.622313499450683594e-02 -7.035705493763089180e-04 1.518703647889196873e-03 -1.328673097304999828e-03 4.316617548465728760e-02 1.938835484907031059e-03 -2.058139629662036896e-02 8.402753621339797974e-03 -1.560817006975412369e-03 7.555554155260324478e-03 2.912180498242378235e-03 6.399347446858882904e-03 -1.651936559937894344e-03 7.492133229970932007e-02 9.712377213872969151e-04 9.525847621262073517e-03 -1.135713141411542892e-02 7.945286924950778484e-04 1.833623624406754971e-03 1.382982265204191208e-02 -1.250825822353363037e-03 -1.496990676969289780e-03 3.849945962429046631e-03 -8.654783479869365692e-03 1.229460816830396652e-03 -4.971552989445626736e-04 -3.196890279650688171e-02 3.188169561326503754e-03 -3.678066132124513388e-04 -9.258168749511241913e-03 -3.300426900386810303e-02 8.714412339031696320e-03 -1.977985230041667819e-04 1.156793674454092979e-03 1.810179464519023895e-02 -3.236263524740934372e-03 -8.932058699429035187e-03 -7.218962418846786022e-04 -3.648366546258330345e-03 -3.821894060820341110e-03 -4.051265865564346313e-02 -1.962137408554553986e-02 -1.178451627492904663e-02 8.997292025014758110e-04 -3.558976342901587486e-03 3.405009163543581963e-03 -1.397532643750309944e-03 -1.859677024185657501e-02 1.271259132772684097e-02 -5.437109991908073425e-02 1.889469660818576813e-02 9.308044798672199249e-03 8.748672902584075928e-02 -2.310605533421039581e-02 3.886794904246926308e-03 -2.202818728983402252e-02 1.265979837626218796e-02 -1.185926608741283417e-02 2.024952089414000511e-03 3.474727505818009377e-03 -2.386620268225669861e-03 1.912903040647506714e-02 1.007419154047966003e-01 2.129444852471351624e-02 -7.110727485269308090e-03 -6.163342390209436417e-03 -7.601978257298469543e-03 1.480620168149471283e-02 6.904293317347764969e-03 2.390944631770253181e-03 -2.129435725510120392e-02 -8.691273629665374756e-03 1.428375137038528919e-03 -9.088767692446708679e-03 5.779802799224853516e-03 5.388243589550256729e-04 1.891291700303554535e-02 1.611129147931933403e-03 1.321439049206674099e-03 1.160613144747912884e-03 3.035410642623901367e-01 2.069323789328336716e-03 -1.833764254115521908e-03 -9.700503200292587280e-03 1.896504871547222137e-02 -2.826827205717563629e-02 4.494981374591588974e-03 6.967689096927642822e-02 -5.856271018274128437e-04 2.217132860096171498e-04 -1.509322505444288254e-02 1.274774200282990932e-03 -5.183964036405086517e-03 -1.031938474625349045e-02 -9.811161458492279053e-02 -2.960572717711329460e-03 6.788829923607409000e-04 -8.958062971942126751e-04 3.603541105985641479e-02 1.857876963913440704e-02 -9.020217694342136383e-04 9.818855673074722290e-03 -4.537545901257544756e-04 -5.494578555226325989e-02 5.095667764544487000e-02 4.656314384192228317e-03 -2.665592764969915152e-04 -6.117924931459128857e-04 -3.980839101132005453e-04 -4.409937537275254726e-05 -4.781452938914299011e-03 1.932286773808300495e-03 8.230006205849349499e-04 1.117478907108306885e-01 4.771650419570505619e-04 1.298915594816207886e-01 2.076640259474515915e-03 -1.769525744020938873e-02 2.799218753352761269e-03 -2.689635221031494439e-05 6.577142048627138138e-03 -7.363856304436922073e-03 5.539398174732923508e-03 -5.301858618622645736e-05 2.057108213193714619e-04 -2.505633514374494553e-03 3.951411694288253784e-03 -8.258695597760379314e-04 3.577857278287410736e-03 -4.818462301045656204e-03 1.696533174254000187e-03 6.339906156063079834e-02 1.403450816869735718e-01 -1.563744008308276534e-04 4.329842980951070786e-03 -6.340712425298988819e-04 -8.291634917259216309e-02 1.899748807772994041e-03 -5.823880061507225037e-02 -5.255563650280237198e-03 2.509162575006484985e-02 -5.118355154991149902e-03 5.726367607712745667e-02 -6.026828777976334095e-04 -2.370455535128712654e-03 1.828179135918617249e-02 5.106701981276273727e-03 4.034444282297044992e-05 -2.029047161340713501e-02 -3.417311701923608780e-03 8.337286300957202911e-03 2.394829876720905304e-03 8.434977644355967641e-05 8.926345966756343842e-03 -3.903369605541229248e-02 4.420413449406623840e-02 4.505154862999916077e-02 -5.405035335570573807e-04 -1.585341524332761765e-03 1.300261472351849079e-03 -1.718998551368713379e-01 -5.219894647598266602e-02 -6.229318212717771530e-03 -3.431351110339164734e-02 6.523572956211864948e-04 -4.430627077817916870e-02 -6.410981994122266769e-03 -1.737918006256222725e-03 9.703033603727817535e-03 -1.761081861332058907e-03 3.113150829449295998e-03 -9.385895682498812675e-04 1.419986132532358170e-02 -4.166807979345321655e-03 6.382410065270960331e-04 -1.911307685077190399e-02 -3.508656984195113182e-03 -8.303425274789333344e-04 2.197571098804473877e-03 6.029566749930381775e-02 1.150957792997360229e-01 9.594046277925372124e-04 -1.753468764945864677e-03 6.765762344002723694e-03 2.344325557351112366e-02 6.707516312599182129e-02 1.582888769917190075e-03 4.145630449056625366e-02 -3.063867101445794106e-03 1.503928215242922306e-03 6.292639300227165222e-03 -4.694430681411176920e-04 -4.911122843623161316e-03 -8.994612842798233032e-02 -1.368375122547149658e-02 2.977694012224674225e-02 -6.334823556244373322e-03 -8.646246045827865601e-03 7.261847704648971558e-02 -1.954403240233659744e-03 -3.113732207566499710e-03 -2.204925054684281349e-03 1.893602777272462845e-03 4.590983968228101730e-03 2.038214355707168579e-02 -1.567647419869899750e-02 -1.159947086125612259e-02 4.640608676709234715e-04 -1.348338183015584946e-02 1.201212638989090919e-03 -9.969488019123673439e-04 1.640954171307384968e-03 1.178393512964248657e-02 -1.024001860059797764e-03 9.407698176801204681e-03 4.393468610942363739e-03 1.499070669524371624e-03 9.397058933973312378e-02 5.355773027986288071e-03 -9.173296391963958740e-03 -8.728245273232460022e-03 9.420759230852127075e-02 -8.201769669540226460e-04 -1.653427444398403168e-02 5.163441412150859833e-03 1.161909401416778564e-01 8.200064301490783691e-03 1.726573519408702850e-02 2.076077274978160858e-02 -6.452801171690225601e-03 7.633945439010858536e-03 -8.574810624122619629e-02 -7.827507331967353821e-03 -2.610006602481007576e-03 2.869178075343370438e-03 1.062551960349082947e-01 -6.680550426244735718e-02 -9.400088340044021606e-03 -6.877211853861808777e-03 -7.127714343369007111e-03 5.554576218128204346e-02 1.011382788419723511e-02 -1.347379176877439022e-03 9.046334773302078247e-03 -2.448723651468753815e-03 8.910107681003864855e-06 -1.849326118826866150e-02 -3.695335704833269119e-03 -2.430928405374288559e-03 -1.197344437241554260e-02 -9.550253860652446747e-03 5.329726729542016983e-03 2.702602185308933258e-03 -1.264186226762831211e-03 5.485613364726305008e-03 3.378338180482387543e-03 8.563057519495487213e-03 6.619461625814437866e-02 9.986120462417602539e-02 8.912363555282354355e-04 -2.387109911069273949e-03 5.465812049806118011e-03 2.776268310844898224e-02 1.967499032616615295e-03 3.002895740792155266e-03 8.273182809352874756e-02 -2.977998182177543640e-02 8.794161491096019745e-03 1.620731549337506294e-03 -8.523304946720600128e-03 1.057369168847799301e-02 -1.321867108345031738e-02 -2.968873886857181787e-04 6.794396904297173023e-04 1.254668575711548328e-03 3.662539413198828697e-03 2.703469805419445038e-02 5.712251644581556320e-03 1.909100450575351715e-02 -3.844062611460685730e-02 -2.307483693584799767e-03 2.514397492632269859e-04
-1.270216656848788261e-03 -1.218182221055030823e-01 1.098530460149049759e-02 -3.380955895408987999e-04 -1.137446495704352856e-03 3.426233772188425064e-03 -1.872643455862998962e-02 3.124115616083145142e-02 -1.276082731783390045e-02 5.637944923364557326e-05 -9.090391919016838074e-03 -1.569223357364535332e-03 6.722661852836608887e-02 -2.314607147127389908e-03 -4.568776057567447424e-04 8.884928375482559204e-02 2.544855524320155382e-04 -4.898221231997013092e-03 -5.031953100115060806e-03 1.274048554478213191e-04 3.736474900506436825e-04 -1.471181982196867466e-03 -5.215923301875591278e-03 1.024876022711396217e-03 1.309283397858962417e-04 -3.154972335323691368e-03 -3.194642777089029551e-04 2.275804523378610611e-03 -5.700964480638504028e-03 1.859245821833610535e-02 9.424050222150981426e-04 -4.031841235700994730e-04 -5.506993830204010010e-02 1.198686775751411915e-03 -9.709066711366176605e-03 -1.302827615290880203e-02 -1.288100611418485641e-02 4.468863364309072495e-03 1.915799081325531006e-02 2.077138796448707581e-02 1.496200542896986008e-02 -2.737487666308879852e-04 1.250987988896667957e-03 -6.751820910722017288e-04 2.436063066124916077e-02 9.791308548301458359e-04 4.896292835474014282e-02 1.785005151759833097e-04 5.415865452960133553e-04 -9.874714305624365807e-04 -1.925328397192060947e-03 2.150985412299633026e-03 2.566754701547324657e-04 -9.669796563684940338e-03 4.944376996718347073e-04 5.084949661977589130e-04 2.426040882710367441e-04 3.930969614884816110e-05 -5.481833359226584435e-04 1.588967279531061649e-03 5.833129212260246277e-02 2.739521674811840057e-02 7.092454470694065094e-03 -2.176841720938682556e-02 -1.526870066300034523e-03 -1.351656625047326088e-03 -4.883695510216057301e-04 -3.142678644508123398e-03 4.469841314858058468e-06 -1.709322794340550900e-03 1.053122244775295258e-02 -9.994192805606871843e-05 4.493828117847442627e-02 -6.804136093705892563e-03 3.104304196313023567e-04 1.879133433103561401e-01 -3.021474112756550312e-04 -8.496521972119808197e-03 -2.254003193229436874e-04 -5.173219251446425915e-04 -7.838849909603595734e-03 3.136886982247233391e-03 -1.833419688045978546e-02 -8.496984839439392090e-03 -7.465000730007886887e-03 2.912593190558254719e-04 -3.311162581667304039e-03 8.268097415566444397e-03 4.950046422891318798e-04 3.675687313079833984e-02 -3.212564915884286165e-04 2.189777325838804245e-03 4.362029954791069031e-03 -5.002472316846251488e-04 -5.104817100800573826e-04 6.304683629423379898e-04 1.101264730095863342e-02 -3.182346699759364128e-03 -3.215944452676922083e-04 1.064835814759135246e-03 1.148837967775762081e-03 -2.541595697402954102e-02 -9.189840406179428101e-02 9.003760060295462608e-04 -2.177809923887252808e-02 1.679659122601151466e-03 -3.654665499925613403e-02 -1.991058234125375748e-03 -1.141188386827707291e-02 -1.244877837598323822e-02 2.327065216377377510e-03 3.861138597130775452e-03 -1.715419930405914783e-03 3.676007036119699478e-03 2.753846812993288040e-03 7.140360539779067039e-04 4.328402690589427948e-03 9.645493701100349426e-03 -5.049062892794609070e-02 1.876506372354924679e-03 2.876971848309040070e-02 2.023278474807739258e-01 3.280691057443618774e-02 1.615377259440720081e-04 1.490422058850526810e-03 1.470302115194499493e-03 3.314740490168333054e-03 -4.652804508805274963e-02 1.652995939366519451e-03 1.332543673925101757e-03 1.648484845645725727e-03 -5.504514410858973861e-05 -4.605454159900546074e-04 1.010489091277122498e-02 2.037894353270530701e-02 -2.859980450011789799e-04 -5.367744961404241621e-05 4.062472376972436905e-03 5.839522927999496460e-02 1.339395181275904179e-03 -1.795725896954536438e-02 8.373169839615002275e-05 -4.066165070980787277e-03 -1.876779278973117471e-04 -1.282767672091722488e-02 -7.128615397959947586e-03 9.275915101170539856e-03 1.531464396975934505e-03 1.866752980276942253e-03 3.136406652629375458e-03 4.379981255624443293e-04 -1.164031127700582147e-04 1.568353548645973206e-02 -1.574218971654772758e-03 -6.103850319050252438e-04 1.270241849124431610e-02 -4.185426980257034302e-03 6.895773694850504398e-04 -4.008846823126077652e-03 -2.112573944032192230e-02 -3.094548010267317295e-04 3.745524736586958170e-05 4.690807685256004333e-02 -2.255985746160149574e-03 -7.991894148290157318e-03 1.193500705994665623e-03 1.750996336340904236e-02 1.217859244206920266e-04 6.881122477352619171e-03 -6.231968291103839874e-05 4.023548588156700134e-02 -3.623399970820173621e-05 6.748548243194818497e-03 -6.288671283982694149e-04 2.278347499668598175e-02 1.605311059392988682e-03 -1.045084372162818909e-02 2.534281229600310326e-03 1.167878217529505491e-04 -2.167232707142829895e-02 7.958800531923770905e-03 -1.261504087597131729e-02 -3.653113963082432747e-03 1.436159666627645493e-02 -1.764767803251743317e-02 -1.021446567028760910e-02 -1.489020069129765034e-03 2.733621746301651001e-03 -2.519880421459674835e-03 -2.765379659831523895e-02 -1.050737846526317298e-04 8.413437171839177608e-04 9.854441741481423378e-04 -2.661963691934943199e-03 -8.415253832936286926e-04 -3.472555661574006081e-03 8.201617165468633175e-04 -2.662492042873054743e-04 -3.446016926318407059e-03 -6.070278212428092957e-02 5.216944264248013496e-04 6.312938872724771500e-03 -1.985179260373115540e-04 -4.977725911885499954e-03 -2.532263169996440411e-04 1.092075603082776070e-03 -5.447509139776229858e-02 1.397765125147998333e-03 1.535734918434172869e-04 7.909310515969991684e-04 1.594777335412800312e-03 8.473170921206474304e-03 -1.146010588854551315e-02 -1.693096384406089783e-02 -1.775607815943658352e-03 -8.036587387323379517e-04 -1.523186685517430305e-03 4.142995458096265793e-03 -4.256547836121171713e-04 -2.035317476838827133e-03 -8.710477501153945923e-03 -1.277270494028925896e-03 2.969116903841495514e-04 4.292215220630168915e-03 -1.865929109044373035e-03 3.393662336748093367e-04 -1.760154031217098236e-02 3.009656071662902832e-02 2.485067583620548248e-03 9.312979527749121189e-04 3.317841910757124424e-04 2.292410284280776978e-01 4.363064363133162260e-05 1.255673635751008987e-02 9.762952686287462711e-04 7.104470860213041306e-03 1.470639108447358012e-04 4.383860528469085693e-02 -2.735449001193046570e-03 -4.231905040796846151e-04 -2.128419466316699982e-03 5.091983824968338013e-02 -5.601945519447326660e-02 3.721171291545033455e-03 5.562654696404933929e-03 -2.358573110541328788e-04 2.626888453960418701e-02 1.928519573993980885e-03 -3.454990917816758156e-03 -4.738230782095342875e-04 -1.493315794505178928e-03 5.446242541074752808e-02 6.304344162344932556e-03 4.301244020462036133e-02 -2.734019607305526733e-02 1.374684361508116126e-04 8.809420280158519745e-03 -2.905267989262938499e-03 -4.108004644513130188e-02 -2.094336523441597819e-04 6.993933767080307007e-02 -6.824936252087354660e-03 1.625566929578781128e-02 8.054929785430431366e-03 -5.671277176588773727e-04 -5.232671648263931274e-02 -9.007140062749385834e-03 -8.267237246036529541e-02 1.536701992154121399e-02 -6.103991065174341202e-03 -2.947220345959067345e-03 2.256016712635755539e-03 -2.262314781546592712e-03 -7.483659283025190234e-05 4.774405970238149166e-04 5.132826045155525208e-02 -3.090443322435021400e-03 -1.441068132407963276e-03 1.015776768326759338e-02 5.378635134547948837e-03 1.578904804773628712e-03 -4.572941735386848450e-02 -1.525888183095958084e-05 -1.843042299151420593e-02 -1.218401826918125153e-03 7.501676445826888084e-04 -5.344701465219259262e-03 5.540232086787000299e-05 -1.033650245517492294e-03 2.565316110849380493e-02 1.765524619258940220e-03 1.711591379716992378e-03 4.554211336653679609e-04 -1.014726050198078156e-02 1.519529614597558975e-02 4.887247341684997082e-04 3.024880716111510992e-04 -4.393359646201133728e-03 2.685410678386688232e-01 -2.999539487063884735e-03 -7.855622097849845886e-04 -5.400316789746284485e-02 -3.510395472403615713e-04 1.370008010417222977e-02 -3.322767792269587517e-03 -7.729398203082382679e-05 1.251239591510966420e-04 -2.967360662296414375e-03 -2.294875914230942726e-03 8.041718602180480957e-02 -1.039271359331905842e-03 -2.982433419674634933e-03 3.612738219089806080e-04 -7.807656947989016771e-05 -3.170701093040406704e-04 -1.380344183417037129e-04 5.027485080063343048e-03 6.735002622008323669e-03 -1.927269808948040009e-02 7.111824816092848778e-04 6.074330955743789673e-02 4.817377310246229172e-03 4.144800081849098206e-02 -9.945679455995559692e-03 -1.204659114591777325e-03 -1.821725862100720406e-03 -1.362869609147310257e-02 1.395673734805313870e-06 3.507979854475706816e-04 3.248432651162147522e-02 -4.262885823845863342e-02 5.885153543204069138e-03 -3.672662004828453064e-02 2.829903096426278353e-04 -3.534191986545920372e-03 2.407583035528659821e-02 4.320272710174322128e-03 9.290636517107486725e-04 -6.637491285800933838e-03 9.509637020528316498e-03 5.264604929834604263e-03 4.942197701893746853e-04 4.352862015366554260e-02 1.375460475683212280e-01 2.401465462753549218e-04 -1.540648634545505047e-03 8.934647776186466217e-04 -5.474606994539499283e-03 -1.111833611503243446e-03 -6.138876546174287796e-03 -2.317659556865692139e-03 -6.156478048069402575e-05 -3.024699632078409195e-03 1.663688383996486664e-02 -6.960947066545486450e-02 4.622941371053457260e-03 1.327319652773439884e-03 -1.215723343193531036e-03 -6.762682460248470306e-06 1.892505533760413527e-04 -6.483879406005144119e-04 2.824684488587081432e-04 7.088661077432334423e-04 -9.981387993320822716e-04 5.867812316864728928e-03 -8.899447857402265072e-05 -1.975732622668147087e-03 -1.330505241639912128e-03 -1.559264492243528366e-04 -1.773951342329382896e-03 -4.327476490288972855e-03 -3.141847264487296343e-04 -3.233015013393014669e-04 -1.979584107175469398e-03 1.707402290776371956e-03 3.178448602557182312e-02 1.171232908964157104e-01 3.073766827583312988e-03 1.217760145664215088e-03 -1.399241038598120213e-03 2.179736475227400661e-04 8.206635713577270508e-03 3.880870935972779989e-04 -9.000708814710378647e-04 4.018441773951053619e-03 -1.032664906233549118e-03 4.187406972050666809e-03 4.447770770639181137e-03 -1.643795985728502274e-04 -7.001042366027832031e-03 4.802330513484776020e-04 4.576158151030540466e-02 3.749695315491408110e-04 -3.299800446256995201e-04 -1.897569745779037476e-03 3.272898495197296143e-02 -1.304996851831674576e-02 7.619085226906463504e-05 -2.592850243672728539e-03 3.778785094618797302e-02
-1.345772668719291687e-02 6.141568999737501144e-03 1.734733930788934231e-03 -4.978176672011613846e-03 4.520565562415868044e-04 3.979442175477743149e-03 1.824339479207992554e-02 -3.968569915741682053e-03 -3.830431727692484856e-03 1.312346081249415874e-03 -6.873556412756443024e-03 -7.499564904719591141e-03 1.565629392862319946e-01 1.275590504519641399e-03 2.694181725382804871e-02 8.950070291757583618e-02 -9.764331392943859100e-03 -1.260756235569715500e-02 7.227140665054321289e-02 -5.031204316765069962e-03 -5.110640195198357105e-04 1.160258334130048752e-02 -1.467296574264764786e-02 5.427225027233362198e-03 4.474313929677009583e-03 4.853257443755865097e-03 1.837588264606893063e-03 8.095785044133663177e-03 -2.404723782092332840e-03 1.501424796879291534e-02 1.821125857532024384e-02 -2.452451037243008614e-03 -6.875450909137725830e-02 -2.365845575695857406e-04 -3.439628053456544876e-03 -7.497975020669400692e-04 9.257086552679538727e-03 5.546687636524438858e-03 -2.097257971763610840e-02 7.245145738124847412e-03 9.394501335918903351e-03 -2.935438603162765503e-02 3.195734228938817978e-03 1.293306821025907993e-03 3.673084080219268799e-02 2.157872729003429413e-02 3.084319829940795898e-02 3.304678015410900116e-03 2.039154991507530212e-02 -3.119805362075567245e-03 -3.286030376330018044e-03 6.282920017838478088e-03 -1.318201702088117599e-02 -1.801812555640935898e-03 2.823744527995586395e-02 1.893457141704857349e-03 -6.067259237170219421e-03 -2.200159360654652119e-04 -2.313534962013363838e-03 2.098391298204660416e-03 1.111736670136451721e-01 1.889734994620084763e-04 -3.105774894356727600e-02 -7.847769185900688171e-03 6.187657359987497330e-03 5.473362762131728232e-05 8.139482815749943256e-04 -1.076216343790292740e-02 1.315026171505451202e-02 -6.179233081638813019e-03 1.726178452372550964e-02 2.874784171581268311e-01 -3.170722047798335552e-04 2.860493725165724754e-03 8.892436744645237923e-05 -3.767638700082898140e-04 -4.565259907394647598e-03 2.584333531558513641e-02 4.842094704508781433e-02 8.687623194418847561e-04 8.316351100802421570e-03 8.529529906809329987e-03 -2.073580957949161530e-02 1.860965229570865631e-02 -2.367736306041479111e-03 -5.647960677742958069e-02 9.372712112963199615e-03 -6.218122318387031555e-03 -1.486864965409040451e-02 2.669642679393291473e-02 1.820386759936809540e-02 1.271454431116580963e-02 3.580124350264668465e-03 -4.222235875204205513e-04 1.168555859476327896e-02 1.610495819477364421e-04 4.427972715348005295e-03 -1.078400388360023499e-02 -2.091459231451153755e-03 2.410359308123588562e-02 4.546180833131074905e-03 -2.558027021586894989e-02 -3.488292859401553869e-04 9.912315290421247482e-04 -1.408753730356693268e-02 6.315500941127538681e-03 -2.267188020050525665e-02 2.943675499409437180e-03 -3.008026443421840668e-02 4.141073208302259445e-03 -1.895743235945701599e-02 -3.761744825169444084e-03 -1.531381066888570786e-02 -2.089023962616920471e-02 -2.511833980679512024e-02 -3.731089644134044647e-03 6.540948152542114258e-02 3.966634348034858704e-02 -1.745316572487354279e-02 -1.640512258745729923e-03 -1.374910701997578144e-03 -2.068047615466639400e-04 6.771967560052871704e-02 8.279617177322506905e-04 -1.016570068895816803e-02 4.078479483723640442e-03 1.642367686145007610e-03 -2.976284176111221313e-02 2.892017597332596779e-03 1.207595109008252621e-03 -1.658613618928939104e-04 4.991720244288444519e-02 8.954752411227673292e-05 9.808263741433620453e-03 -2.880157437175512314e-03 2.377191744744777679e-02 -9.161867201328277588e-04 1.046015508472919464e-02 -1.218134420923888683e-03 6.958238780498504639e-03 -1.564026065170764923e-02 -1.785621163435280323e-03 -2.850622404366731644e-04 -1.372095084661850706e-05 -2.234538644552230835e-02 1.130358595401048660e-02 -5.666587967425584793e-03 2.182120922952890396e-03 -2.423066087067127228e-02 1.098107639700174332e-02 -1.714169746264815331e-03 -3.244085237383842468e-04 1.030148100107908249e-02 1.064963435055688024e-04 -1.384312938898801804e-02 -7.967426790855824947e-04 -4.760115407407283783e-03 -3.735256846994161606e-03 -4.165392741560935974e-02 -2.684792503714561462e-02 -1.497549656778573990e-02 2.409988455474376678e-02 8.597039617598056793e-03 -1.366855110973119736e-02 -6.692291703075170517e-03 -1.236149854958057404e-02 1.926440186798572540e-02 2.226907573640346527e-02 2.047262899577617645e-02 -6.364866276271641254e-04 8.190478384494781494e-02 -1.535975141450762749e-03 7.653476670384407043e-03 -2.592331916093826294e-02 -3.841267153620719910e-02 -5.497999954968690872e-04 4.901109728962182999e-03 3.761992091313004494e-03 -4.962002858519554138e-03 -4.064960405230522156e-02 9.171169251203536987e-02 -4.207062348723411560e-02 1.591810025274753571e-02 5.962102208286523819e-03 3.513074247166514397e-03 4.480291157960891724e-03 7.901261560618877411e-03 -5.753299337811768055e-04 -1.404692512005567551e-02 -3.231719508767127991e-02 5.512386560440063477e-04 1.135529298335313797e-02 1.069516409188508987e-02 -3.030221210792660713e-03 2.021960541605949402e-02 -3.139924025163054466e-03 -4.931081831455230713e-02 -5.241509061306715012e-03 -9.567696601152420044e-03 -3.222009167075157166e-02 1.628833077847957611e-02 -5.240004975348711014e-03 -8.769189007580280304e-03 -1.720228046178817749e-02 1.563824596814811230e-03 8.060061931610107422e-02 -1.289526582695543766e-03 -4.656211007386445999e-03 3.277203359175473452e-04 3.973898128606379032e-04 8.968108333647251129e-03 -3.762936918064951897e-03 -7.210391014814376831e-02 -1.625786349177360535e-02 8.434060961008071899e-02 3.994206781499087811e-05 2.838978078216314316e-03 1.620982587337493896e-02 -5.393616738729178905e-04 9.846854023635387421e-03 -2.738106530159711838e-03 -5.135027319192886353e-02 1.191152445971965790e-02 4.298301879316568375e-03 -8.175658993422985077e-03 4.295350238680839539e-02 -1.835394185036420822e-03 3.912275715265423059e-04 -4.826720803976058960e-03 2.072205068543553352e-03 1.544678350910544395e-03 6.452301889657974243e-02 3.425521208555437624e-05 1.327967941761016846e-01 1.712017692625522614e-04 1.149981468915939331e-02 7.808540831319987774e-04 -1.273501664400100708e-03 1.568301208317279816e-02 -3.969441168010234833e-03 8.505228906869888306e-03 1.617671572603285313e-03 -6.050137453712522984e-04 7.517690770328044891e-03 -4.484338220208883286e-03 -2.374118892475962639e-03 -9.290232323110103607e-03 -1.309578889049589634e-03 -3.956327214837074280e-03 -1.699255313724279404e-03 1.587157137691974640e-02 2.186777965107467026e-05 -2.324920706450939178e-02 7.793791592121124268e-04 -6.878699362277984619e-02 3.056781133636832237e-04 -6.223592907190322876e-02 -7.063864730298519135e-03 -3.895197808742523193e-02 -2.354369033128023148e-03 5.730583891272544861e-02 -3.196493955329060555e-03 7.575980387628078461e-03 1.221380475908517838e-02 -3.995840996503829956e-02 3.083136980421841145e-04 -1.781741715967655182e-02 -5.378562957048416138e-02 6.380704790353775024e-02 -8.545925840735435486e-03 1.875985786318778992e-02 9.500145912170410156e-03 -3.254211321473121643e-02 -1.594391069374978542e-03 1.124895364046096802e-02 6.376973469741642475e-04 -6.725072395056486130e-03 9.697169996798038483e-03 -3.048244677484035492e-02 -1.118215173482894897e-01 1.192511431872844696e-02 2.494143880903720856e-02 1.311766209255438298e-05 -3.337677195668220520e-02 -4.230466671288013458e-03 2.067182213068008423e-03 -1.408332306891679764e-02 1.749390549957752228e-02 5.159385036677122116e-03 -7.092745974659919739e-03 6.088817026466131210e-03 -3.154959296807646751e-03 -5.385733675211668015e-04 -2.374672517180442810e-02 9.858998470008373260e-03 -3.839615092147141695e-04 -2.648537606000900269e-02 1.902031302452087402e-01 1.434126943349838257e-01 -9.780512191355228424e-04 5.948844552040100098e-02 -2.533223293721675873e-02 6.656103767454624176e-03 -1.922391057014465332e-01 -3.817955148406326771e-04 -1.311598112806677818e-03 -3.097902750596404076e-03 -3.187099006026983261e-03 1.751225069165229797e-02 -4.431970955920405686e-05 -5.455244798213243484e-03 -5.097780004143714905e-02 4.263385199010372162e-03 6.558405584655702114e-04 -8.452007547020912170e-03 -6.059093400835990906e-03 1.111740544438362122e-01 5.904624238610267639e-03 -2.056811191141605377e-02 3.595175966620445251e-02 3.888620762154459953e-03 2.665208186954259872e-03 -7.379176560789346695e-03 -5.631905514746904373e-03 -2.078223275020718575e-03 -3.443177265580743551e-04 5.329046398401260376e-03 5.275452858768403530e-04 2.685413346625864506e-04 6.582793314009904861e-03 2.245205827057361603e-02 8.190938271582126617e-03 -1.599049568176269531e-02 5.729029886424541473e-03 -3.821803024038672447e-03 7.644852995872497559e-02 -1.328518992522731423e-04 -1.946331746876239777e-02 -1.192699372768402100e-02 6.126969680190086365e-02 1.647454872727394104e-02 -1.342700049281120300e-02 2.845670469105243683e-02 4.470296669751405716e-03 5.097229499369859695e-03 1.187866181135177612e-02 1.053135376423597336e-02 9.267722256481647491e-03 5.510219838470220566e-03 -7.717685401439666748e-02 5.173734971322119236e-04 2.200928283855319023e-03 1.426317729055881500e-03 9.046598523855209351e-02 -1.015026196837425232e-01 8.426102809607982635e-03 -7.655480410903692245e-03 -1.184149552136659622e-02 1.224556588567793369e-03 1.398606691509485245e-02 6.230111420154571533e-02 -7.107018027454614639e-03 -3.088568104431033134e-03 -4.341365420259535313e-04 -7.729386445134878159e-03 3.911101818084716797e-02 -9.426390752196311951e-04 -5.934020504355430603e-03 3.705239854753017426e-03 -8.081090636551380157e-03 2.296941587701439857e-03 -2.680001221597194672e-02 -1.957177557051181793e-02 -3.061476163566112518e-04 1.295309141278266907e-02 6.686624139547348022e-02 1.613335162401199341e-01 3.877762705087661743e-03 -2.246648800792172551e-04 2.962549775838851929e-02 1.865843869745731354e-02 8.498918265104293823e-03 -1.195011645904742181e-04 6.001158803701400757e-02 4.490828886628150940e-02 2.884176792576909065e-03 1.919478178024291992e-03 1.796487346291542053e-02 -4.837867745663970709e-04 1.148554217070341110e-02 -1.263095764443278313e-03 -3.277834912296384573e-04 -1.393193379044532776e-03 9.142884984612464905e-03 3.267045691609382629e-02 8.996860124170780182e-03 -2.600913168862462044e-03 -5.711013916879892349e-03 -6.440761964768171310e-03 3.361681010574102402e-04
4.862065252382308245e-04 9.322988800704479218e-03 -5.333764944225549698e-03 1.159072108566761017e-02 -3.755515813827514648e-02 5.483622662723064423e-03 1.658950559794902802e-02 -1.815079944208264351e-03 -4.842114448547363281e-02 -4.062688676640391350e-04 1.617809198796749115e-02 4.016831808257848024e-04 9.889624081552028656e-03 -2.135344408452510834e-02 -1.975931227207183838e-04 3.152513178065419197e-03 -1.351247192360460758e-03 -4.523047432303428650e-02 -3.077094070613384247e-02 -1.174380481243133545e-01 -7.117880741134285927e-04 -1.532847643829882145e-03 -3.334698034450411797e-03 -2.281482593389227986e-04 5.012623220682144165e-02 -1.374411489814519882e-02 -2.354411408305168152e-03 6.373398937284946442e-03 2.087070140987634659e-03 -1.925359712913632393e-03 -6.046621128916740417e-04 2.058123354800045490e-04 -1.173605094663798809e-03 6.811671191826462746e-04 4.232411831617355347e-02 2.441932520014233887e-05 1.051927730441093445e-02 -3.237257944419980049e-03 -2.036556042730808258e-02 3.715500608086585999e-02 -3.863560408353805542e-02 1.519654470030218363e-04 5.987706407904624939e-02 2.919672988355159760e-04 1.534102298319339752e-02 1.615154370665550232e-02 -8.933436125516891479e-03 -8.080450788838788867e-05 -1.693259109742939472e-04 -3.373748436570167542e-02 4.725463688373565674e-02 9.350138716399669647e-03 7.564437692053616047e-05 -3.756198287010192871e-02 -8.761859135120175779e-06 6.510082312161102891e-05 -7.271968573331832886e-02 -9.877649135887622833e-04 -9.654724597930908203e-02 -7.598590105772018433e-03 -5.793660134077072144e-02 1.382902610203018412e-05 -1.921001076698303223e-01 -1.019083149731159210e-02 2.164220623672008514e-02 -1.403135946020483971e-03 5.822068080306053162e-02 6.899444852024316788e-03 6.283140101004391909e-05 -1.611148618394508958e-04 1.749066263437271118e-02 2.977909753099083900e-03 1.626530865905806422e-04 -1.014361251145601273e-02 -2.698326352401636541e-05 5.815013719256967306e-05 3.236176073551177979e-02 -1.771543174982070923e-02 -7.579804514534771442e-05 3.783280774950981140e-02 -3.056024434044957161e-04 -1.054568216204643250e-01 -4.969545453786849976e-02 1.355520263314247131e-02 -4.130328539758920670e-03 2.591548953205347061e-03 7.440002518706023693e-04 -1.265002321451902390e-02 1.464896922698244452e-04 3.827265277504920959e-02 -1.269895001314580441e-04 -1.341683603823184967e-02 -1.457403297536075115e-03 2.239770442247390747e-02 6.732171459589153528e-05 -3.808428719639778137e-02 -2.307951264083385468e-02 7.388484082184731960e-04 1.097582644433714449e-04 -1.044392287731170654e-01 1.687611220404505730e-03 -3.382970765233039856e-02 -7.793058466631919146e-05 -9.466618648730218410e-04 -1.491976715624332428e-02 4.681256413459777832e-02 -3.482294455170631409e-02 -2.600614971015602350e-04 -1.606736332178115845e-02 6.615224294364452362e-03 8.243404328823089600e-03 -1.025843154639005661e-02 -3.630466386675834656e-02 -3.430474607739597559e-04 1.195123884826898575e-03 3.724805428646504879e-04 8.071733755059540272e-04 5.480401217937469482e-03 -8.743352442979812622e-02 6.167730316519737244e-03 1.369336852803826332e-03 -1.028917264193296432e-03 7.161725312471389771e-03 -4.106255993247032166e-02 -3.076443099416792393e-04 2.638564631342887878e-02 5.962864961475133896e-03 -2.685988694429397583e-02 9.046800434589385986e-02 7.043782621622085571e-02 1.613382017239928246e-03 -1.571587636135518551e-04 2.672915458679199219e-01 3.842822974547743797e-03 1.509665884077548981e-02 9.749376913532614708e-04 -8.972149225883185863e-05 6.136301904916763306e-02 -6.051865406334400177e-03 6.150818243622779846e-02 -2.559697721153497696e-03 3.032660484313964844e-02 -6.144792586565017700e-02 6.737309694290161133e-02 -1.971388161182403564e-01 5.564589984714984894e-03 3.171507501974701881e-03 -1.084371190518140793e-02 1.781263202428817749e-01 2.565805427730083466e-02 -6.032954843249171972e-05 3.840598464012145996e-02 1.439870148897171021e-02 -7.323554251343011856e-03 -4.054147866554558277e-04 2.785011929518077523e-05 5.346128717064857483e-03 -1.458766870200634003e-02 -2.054879674687981606e-03 -7.287175208330154419e-02 2.027166821062564850e-02 1.583569974172860384e-04 -7.559953257441520691e-03 -3.502463921904563904e-03 2.718651434406638145e-03 2.753877779468894005e-03 -8.041212707757949829e-02 5.220083403401076794e-04 -1.071233954280614853e-02 2.502324350643903017e-04 -4.270066041499376297e-03 2.747738290054257959e-05 1.843179576098918915e-02 2.383002865826711059e-04 -7.661155541427433491e-04 1.066396385431289673e-01 -2.875968930311501026e-04 6.070687994360923767e-02 -3.307401668280363083e-03 -6.695354357361793518e-03 -2.361466176807880402e-03 -2.960808761417865753e-02 3.275008872151374817e-02 9.512669406831264496e-03 8.643435314297676086e-03 -1.794887823052704334e-03 -4.998392984271049500e-02 -6.535924971103668213e-03 8.305957890115678310e-04 1.647322811186313629e-02 1.679079681634902954e-01 6.969976238906383514e-04 6.438234122470021248e-04 8.239437639713287354e-02 3.306423604954034090e-04 -1.673456281423568726e-03 2.563025336712598801e-04 -1.180659382953308523e-04 -1.785667554941028357e-04 -9.731665253639221191e-02 7.672581705264747143e-04 -5.541888531297445297e-04 -5.211668903939425945e-04 -8.513316512107849121e-02 1.189906895160675049e-01 -1.154597848653793335e-03 -4.767126301885582507e-05 2.939884923398494720e-02 -4.295261896913871169e-05 9.118600748479366302e-03 1.215729676187038422e-02 -7.908972911536693573e-03 -4.818836972117424011e-02 8.534759399481117725e-05 -2.810674595821183175e-05 5.295781302265822887e-04 1.040765047073364258e-01 -3.370092716068029404e-03 9.141911141341552138e-05 -1.240918133407831192e-02 5.410689860582351685e-03 1.685121787886600941e-05 -1.701311022043228149e-02 2.630017325282096863e-02 1.327950321137905121e-02 2.255792060168460011e-05 -9.643663361202925444e-05 -2.706722807488404214e-05 -6.864590104669332504e-03 -1.952257822267711163e-03 2.376679889857769012e-02 3.116988018155097961e-02 1.212685406208038330e-01 -4.214990185573697090e-04 2.162640448659658432e-04 3.750454401597380638e-03 5.568361282348632812e-02 -5.616607377305626869e-04 -2.852783724665641785e-02 -8.016542345285415649e-02 -1.779520069248974323e-03 5.247311200946569443e-04 -6.355807272484526038e-05 -2.203697338700294495e-03 -2.897903614211827517e-04 -4.982806742191314697e-02 2.620887197554111481e-02 -4.167022183537483215e-03 3.817591117694973946e-03 -5.796923651359975338e-04 2.336632023798301816e-04 1.192376294056884944e-04 -2.227089367806911469e-02 -7.825112697901204228e-05 -3.695238754153251648e-02 -7.672624196857213974e-03 3.597078379243612289e-03 -2.166945487260818481e-03 -2.533641830086708069e-02 -3.166228905320167542e-02 4.680969193577766418e-02 -1.300822757184505463e-02 7.156773004680871964e-03 -1.276229619979858398e-01 -5.863517071702517569e-05 -1.469562175770988688e-05 -2.463461086153984070e-02 -1.459566503763198853e-01 1.181740546599030495e-03 8.176626870408654213e-04 1.263289595954120159e-03 -3.250906302127987146e-04 7.144732866436243057e-03 -6.556948064826428890e-04 -1.942188828252255917e-03 -1.594732864759862423e-03 9.205289185047149658e-02 -1.094376854598522186e-02 1.773770712316036224e-02 2.861699834465980530e-02 3.404119925107806921e-04 -1.901145675219595432e-03 -5.659923772327601910e-05 -2.897674441337585449e-01 -5.574195459485054016e-02 3.936338238418102264e-03 -2.194677246734499931e-03 -1.216182208736427128e-04 -1.775845303200185299e-03 -2.546175615862011909e-03 -2.582734159659594297e-04 -2.524854498915374279e-04 2.552670426666736603e-03 9.366872720420360565e-03 -4.930959083139896393e-03 -6.329719908535480499e-04 5.619596922770142555e-04 -1.327014761045575142e-03 3.087101737037301064e-03 2.928192960098385811e-03 -5.260997568257153034e-04 -2.274904772639274597e-02 2.625528257340192795e-03 6.316540762782096863e-03 -1.276104804128408432e-02 1.388310647598700598e-05 3.847074913210235536e-05 -3.437819425016641617e-03 3.935838863253593445e-02 1.196160214021801949e-03 -2.861199434846639633e-03 -1.634609252214431763e-01 1.245708204805850983e-02 -1.163758861366659403e-04 -5.885639041662216187e-02 -6.367601599777117372e-05 1.343876821920275688e-03 6.706166313961148262e-04 -2.467441186308860779e-02 4.957855562679469585e-04 1.070449012331664562e-03 4.647059366106987000e-02 1.780860242433845997e-03 1.189465355128049850e-02 -5.433488171547651291e-03 9.238148108124732971e-03 3.032127581536769867e-02 1.134343519806861877e-01 1.137931481935083866e-03 -2.990891458466649055e-03 4.091021046042442322e-02 1.052952185273170471e-02 -8.964262902736663818e-03 -5.164881440578028560e-05 -2.390443161129951477e-02 -4.396256525069475174e-03 -2.062328159809112549e-02 1.550289243459701538e-02 -1.150356023572385311e-03 1.456489413976669312e-01 5.250392016023397446e-03 3.021634474862366915e-04 6.686810404062271118e-02 1.599088869988918304e-02 -2.229643869213759899e-04 1.034853048622608185e-03 4.090390211786143482e-05 -4.151124041527509689e-03 1.387920230627059937e-02 5.739063999499194324e-05 -3.340166062116622925e-02 2.610089257359504700e-03 -6.620050873607397079e-03 -6.000017747282981873e-03 4.628049582242965698e-02 -2.289276104420423508e-03 -1.768212823662906885e-04 1.503981911810114980e-05 6.239329377422109246e-05 -2.815568768710363656e-05 -5.305510130710899830e-04 5.755159072577953339e-03 5.428363801911473274e-04 4.830702382605522871e-04 -3.810116648674011230e-02 -2.005234418902546167e-04 1.266106218099594116e-02 -5.048401281237602234e-02 7.990708400029689074e-05 1.048724516294896603e-03 1.672750106081366539e-03 -7.403056952171027660e-05 -7.345072808675467968e-04 3.647086676210165024e-03 -1.482367608696222305e-02 -4.987389966845512390e-02 1.377474330365657806e-02 -7.832124829292297363e-04 7.681796792894601822e-03 -2.820614911615848541e-02 -3.273773763794451952e-04 -1.084591727703809738e-03 1.490537077188491821e-01 3.240821650251746178e-03 4.185143858194351196e-03 2.840431965887546539e-02 -3.245727345347404480e-02 7.464755792170763016e-03 -1.091291778720915318e-04 6.689371541142463684e-03 1.947248820215463638e-04 -9.592730784788727760e-04 -3.921332769095897675e-03 3.017406724393367767e-02 -3.933974367100745440e-04 -3.897617280017584562e-04 8.977208286523818970e-02 1.572948967805132270e-04 1.580624026246368885e-03 -6.574152394023258239e-06
1.977990759769454598e-04 8.808729238808155060e-03 -4.277999047189950943e-03 1.296748290769755840e-03 -9.527614456601440907e-04 2.711190879344940186e-01 -1.477413028478622437e-01 -7.755378610454499722e-04 -1.586298644542694092e-01 -5.725474693463183939e-05 1.324964687228202820e-02 -1.780427846824750304e-04 2.432605484500527382e-03 -1.319456472992897034e-02 7.148193981265649199e-05 -7.998481742106378078e-04 3.994518774561583996e-04 2.056699432432651520e-02 1.124239992350339890e-02 -1.397905754856765270e-03 -6.908071786165237427e-02 4.791053943336009979e-04 -1.236138790845870972e-01 6.740249227732419968e-05 -1.606577658094465733e-03 2.542641386389732361e-02 -6.919374316930770874e-02 2.010593423619866371e-03 -1.442288630641996861e-03 1.168726608157157898e-01 2.992871450260281563e-04 1.134881531470455229e-04 1.689499942585825920e-03 -7.449730765074491501e-04 -1.657199561595916748e-01 1.043997326632961631e-04 2.321717143058776855e-02 3.770011477172374725e-03 -4.996717441827058792e-03 2.906786277890205383e-02 -2.520154463127255440e-03 5.706136289518326521e-05 2.368543355260044336e-04 1.281501948833465576e-01 3.153016790747642517e-02 1.194864884018898010e-02 -3.401745855808258057e-02 8.499097748426720500e-05 -1.809369132388383150e-05 5.008120206184685230e-04 -2.865684684365987778e-03 -4.576553590595722198e-03 4.692907677963376045e-04 2.283215150237083435e-02 -2.872029654099605978e-05 6.330041587352752686e-02 1.940323854796588421e-04 4.296600818634033203e-02 3.094164421781897545e-03 7.422699779272079468e-02 3.144395072013139725e-03 5.626753045362420380e-05 -1.724708825349807739e-02 -1.128914859145879745e-02 -3.925878554582595825e-04 -1.314539811573922634e-03 -7.372502295766025782e-05 -1.009524683468043804e-03 -1.660672714933753014e-04 2.982624573633074760e-04 5.155827966518700123e-04 -4.759354982525110245e-03 -3.921059833373874426e-04 -2.087178872898221016e-04 -1.738332939567044377e-04 -2.454517198202665895e-05 -6.471155211329460144e-04 -1.681258529424667358e-02 -8.844790136208757758e-05 -3.501966129988431931e-04 5.357192130759358406e-04 5.371877457946538925e-03 3.184230299666523933e-03 -2.156787319108843803e-03 1.102467300370335579e-03 -3.139049047604203224e-03 -7.339653093367815018e-04 -5.499639082700014114e-03 3.512387775117531419e-05 4.047854337841272354e-03 -9.850748756434768438e-05 2.467233571223914623e-04 8.264417760074138641e-03 -4.196866648271679878e-04 -3.061770985368639231e-04 2.269690157845616341e-04 1.481448579579591751e-02 -7.527917478000745177e-05 -1.927200937643647194e-04 1.284573227167129517e-02 1.078713461756706238e-01 -1.103168874979019165e-01 1.217755270772613585e-04 7.174709439277648926e-02 6.606415659189224243e-02 -2.850580494850873947e-04 -5.710918083786964417e-02 -4.113385803066194057e-04 2.372592825850006193e-05 7.479350897483527660e-04 -6.697314674966037273e-04 -3.231963515281677246e-02 4.161705449223518372e-02 3.432589874137192965e-04 1.063983887434005737e-03 8.594566606916487217e-04 8.682438055984675884e-04 -4.816807340830564499e-03 1.339778155088424683e-01 4.311677068471908569e-02 2.283629291923716664e-04 -1.109912875108420849e-03 2.089691843139007688e-04 6.080575403757393360e-04 1.994959311559796333e-04 -1.008273381739854813e-02 3.295486420392990112e-02 -1.955060064792633057e-01 1.507211360149085522e-03 8.187745115719735622e-04 2.147580869495868683e-02 4.708898486569523811e-04 -9.537445293972268701e-05 -8.941335254348814487e-04 7.397256325930356979e-03 -1.332331157755106688e-04 2.958698198199272156e-03 4.267701879143714905e-03 -8.047344163060188293e-03 6.295535247772932053e-03 -1.570841181091964245e-03 -3.940884489566087723e-03 1.705297641456127167e-02 -8.170666114892810583e-05 -1.004151254892349243e-02 -1.054453197866678238e-02 1.312427595257759094e-02 1.517347693443298340e-01 -8.592358790338039398e-03 -9.840509854257106781e-03 -7.638706266880035400e-02 7.430362747982144356e-04 -2.827070187777280807e-03 -7.412511040456593037e-04 8.983368752524256706e-04 -5.437288564280606806e-05 1.386993285268545151e-02 -4.544842522591352463e-03 -2.820418914780020714e-03 -2.308270521461963654e-02 -6.360701285302639008e-03 -1.203765204991213977e-04 -6.179985357448458672e-04 5.813707248307764530e-04 2.654087245464324951e-01 -5.430019926279783249e-03 -8.585268259048461914e-02 -1.569606363773345947e-03 -3.758808597922325134e-02 -4.523581083049066365e-05 -4.387104709167033434e-04 4.810571226698812097e-06 -5.888205394148826599e-02 6.034027683199383318e-05 3.280019445810467005e-04 8.133644587360322475e-04 -9.078965522348880768e-04 3.245398029685020447e-02 2.776621654629707336e-02 -5.042806733399629593e-03 -6.791716907173395157e-03 -2.074421048164367676e-01 1.049579307436943054e-01 3.224395960569381714e-02 9.045002982020378113e-03 1.533462200313806534e-03 9.082886390388011932e-04 -5.584093276411294937e-03 -6.323292036540806293e-04 -1.591604351997375488e-01 -2.087109605781733990e-04 -7.619703683303669095e-05 3.702476096805185080e-04 -2.735708467662334442e-02 1.504937885329127312e-03 1.995503306388854980e-01 1.085173134924843907e-04 -6.187421269714832306e-03 -1.572041655890643597e-03 -3.215353190898895264e-02 -2.745083293120842427e-05 -8.657678699819371104e-05 -4.033616860397160053e-04 2.621837891638278961e-02 4.012944642454385757e-03 -6.914488621987402439e-04 -1.938730565598234534e-04 8.713058196008205414e-03 -3.011316039192024618e-05 -4.694082774221897125e-03 8.488545566797256470e-02 -6.088339141570031643e-04 1.599884778261184692e-02 -1.218496486544609070e-01 -3.670406613309751265e-06 8.711285190656781197e-04 1.691954676061868668e-04 -3.902307525277137756e-02 -9.691704064607620239e-02 -2.820066548883914948e-02 1.212813798338174820e-02 -8.733601862331852317e-05 3.236858872696757317e-03 4.854292795062065125e-02 1.702272146940231323e-02 1.658497603784780949e-05 4.381711187306791544e-05 -3.833178561762906611e-05 -2.904555387794971466e-02 1.857332438230514526e-01 1.367784279864281416e-04 1.470017433166503906e-01 -5.611720262095332146e-04 -2.583754830993711948e-04 7.773046940565109253e-02 -1.125030778348445892e-02 -2.104101149598136544e-04 7.879103213781490922e-05 4.631717875599861145e-02 -4.285278171300888062e-02 1.153863384388387203e-03 -1.897257607197389007e-04 -1.289962092414498329e-04 -1.991547644138336182e-02 -4.180885106325149536e-02 -2.160878357244655490e-04 2.678572200238704681e-02 -1.956995762884616852e-02 -6.068520247936248779e-02 1.879822521004825830e-04 4.784374323207885027e-04 1.795041498553473502e-05 2.298236824572086334e-02 1.982671528821811080e-04 -3.645063552539795637e-04 1.127701438963413239e-02 -8.149627596139907837e-03 4.166192933917045593e-02 -2.423398494720458984e-01 1.404594513587653637e-03 1.098578572273254395e-01 8.082517979346448556e-07 4.449607804417610168e-03 -3.317202674224972725e-03 5.073504871688783169e-04 -1.184500524686882272e-05 3.945483826100826263e-03 5.439876019954681396e-02 2.552725374698638916e-01 -7.894970476627349854e-02 -1.300042029470205307e-03 -2.368360001128166914e-04 7.320824079215526581e-04 2.713810245040804148e-04 -5.783553933724761009e-04 -7.389753009192645550e-04 3.986740484833717346e-03 4.239285364747047424e-03 -5.372227169573307037e-03 -1.428661681711673737e-02 1.309283543378114700e-04 -7.997370325028896332e-03 6.562434718944132328e-04 -8.899377658963203430e-03 1.478379825130105019e-03 1.629200577735900879e-02 -6.507820449769496918e-03 -1.233969087479636073e-04 -2.724746591411530972e-04 -1.308887032791972160e-03 2.088216133415699005e-03 -3.136783139780163765e-03 -2.522340416908264160e-02 -2.079038508236408234e-02 1.371116470545530319e-02 -7.783302664756774902e-02 9.487993083894252777e-04 4.376931581646203995e-03 2.063124775886535645e-01 -2.955418638885021210e-02 -4.370629903860390186e-04 -1.760383248329162598e-01 -5.450878525152802467e-04 7.982157403603196144e-04 -4.218901507556438446e-03 -3.788956382777541876e-05 -5.063051357865333557e-04 -5.651226383633911610e-04 3.824871033430099487e-02 -3.801475744694471359e-03 -4.340438172221183777e-02 1.133257243782281876e-02 1.268487772904336452e-03 3.945619755540974438e-05 1.648666220717132092e-03 -1.239602352143265307e-05 -4.287560295779258013e-04 1.558186560869216919e-01 -9.766723215579986572e-02 1.080756168812513351e-02 4.329057410359382629e-04 5.290552144288085401e-05 -6.936131045222282410e-03 -5.036467220634222031e-03 1.945861801505088806e-02 5.438110791146755219e-03 1.656774282455444336e-01 1.070823869667947292e-03 2.468612343072891235e-01 -1.700671017169952393e-02 1.145727001130580902e-02 5.338907241821289062e-03 7.761446293443441391e-03 8.884100680006667972e-05 1.629216037690639496e-02 4.812500905245542526e-03 1.600097515620291233e-03 -2.637506090104579926e-02 -3.966338932514190674e-03 -1.561833661980926991e-03 7.900930941104888916e-02 2.244663046440109611e-04 1.836046576499938965e-02 5.401721224188804626e-02 3.539234458003193140e-04 -7.831535185687243938e-04 -6.678858335362747312e-05 -7.790286326780915260e-04 -4.373522847890853882e-02 7.919445124571211636e-06 6.465537101030349731e-02 7.872152328491210938e-02 -2.165792323648929596e-02 7.060565985739231110e-04 2.571515180170536041e-02 -4.402243997901678085e-03 -6.467322236858308315e-05 8.272937702713534236e-05 -7.596433533763047308e-06 4.458127077668905258e-04 -1.509284920757636428e-04 1.561292330734431744e-03 -1.393689122051000595e-02 1.406440138816833496e-01 4.055887460708618164e-03 1.367686490993946791e-04 -3.163356101140379906e-03 1.978429732844233513e-03 -2.082428254652768373e-04 -2.988380038004834205e-05 -1.199247781187295914e-02 -6.236148328753188252e-05 -8.721605991013348103e-04 -4.194473475217819214e-02 1.133902929723262787e-03 -5.075930431485176086e-02 -8.827433921396732330e-03 9.614431858062744141e-02 -2.204004302620887756e-02 5.495214462280273438e-02 -3.879505384247750044e-04 -1.431536767631769180e-02 1.075952313840389252e-03 1.035616500303149223e-03 1.331748906522989273e-03 -3.673135861754417419e-02 -1.769921160303056240e-03 1.843592524528503418e-01 2.826919953804463148e-04 -3.559060860425233841e-03 -6.660904735326766968e-02 -1.063243835233151913e-03 -5.793660506606101990e-02 5.540458112955093384e-02 1.268699561478570104e-04 -2.914961078204214573e-04 -1.401820182800292969e-01 -2.172898675780743361e-04 8.657966740429401398e-03 -5.850592788192443550e-05
-2.498203741652105236e-07 -1.616272015780850779e-06 1.556194547447375953e-06 1.263913304683228489e-06 5.411327492765849456e-06 -1.245350745193718467e-06 -4.451241238712100312e-06 1.074041733772901352e-06 -1.830651626733015291e-06 2.888667495426489040e-06 -2.686772972992912401e-07 1.113929783969069831e-06 4.175261437922017649e-06 1.949734951267600991e-06 2.490796305210096762e-06 5.389590569393476471e-07 5.815099939354695380e-07 1.976258545255404897e-06 -1.874797249001858290e-06 1.314345240643888246e-06 7.885745390012743883e-07 1.338586116617079824e-06 -2.701457106013549492e-06 1.543924213365244213e-06 1.618649747570088948e-07 -4.119545337744057178e-06 7.332766358558728825e-07 1.864948330876359250e-06 -1.026042923513159622e-06 2.859927235476789065e-06 2.233502073067938909e-06 6.703471058244758751e-07 1.886611045165409450e-07 2.266122237415402196e-06 -1.720096065582765732e-06 1.145232545241015032e-06 9.530349984743224923e-07 1.016056785374530591e-06 2.652787088663899340e-06 1.583869106980273500e-06 5.882241111976327375e-06 8.056109663812094368e-07 5.736881689699657727e-07 1.852353193498856854e-06 1.682448441897577140e-06 -3.072438857998349704e-06 2.973092932734289207e-06 8.401544278058281634e-07 -1.193939510812924709e-06 1.226273639076680411e-06 2.216779790842338116e-07 -8.673124284541700035e-06 -1.165010189652093686e-06 1.937914476002333686e-06 1.731547058625437785e-06 6.250047022149374243e-07 1.426436256224405952e-06 2.404129418209777214e-06 -2.567723413449130021e-06 1.518685849077883177e-06 9.397919598086446058e-07 2.708756483116303571e-06 -7.528566925429913681e-07 3.402224137971643358e-06 2.334883902221918106e-06 -1.095559809982660227e-06 9.360191143059637398e-06 -4.482895974433631636e-07 1.104014927477692254e-06 1.229777240041585173e-06 1.669892753852764145e-06 -1.233203875017352402e-06 1.982765752472914755e-06 1.288073349314799998e-06 2.326122285012388602e-06 -1.252225615644420031e-06 4.828734176953730639e-07 1.862557269305398222e-06 1.481531512581568677e-06 1.483619826103677042e-06 -6.405052204172534402e-07 2.288894165758392774e-06 -2.191684274066574289e-07 1.681579419710033108e-06 4.469097348192008212e-06 1.906473585222556721e-06 -6.823543117207009345e-07 1.735607611408340745e-06 2.829232471412979066e-06 -9.920340744429267943e-07 2.795344698824919760e-06 1.634068894418305717e-06 2.394140892647556029e-06 7.793792065058369190e-07 1.656283075135434046e-06 2.658459834492532536e-06 2.655435309861786664e-06 -5.669922984452568926e-07 5.036580930095624353e-08 -3.330563458803226240e-06 -6.827820016042096540e-07 3.505616632537567057e-06 3.640158865891862661e-06 3.252453552704537287e-06 -2.366611852266942151e-06 6.900228299855371006e-07 7.178493433457333595e-06 2.700988943615811877e-06 -9.708844572742236778e-07 2.156208438464091159e-06 5.909261290071299300e-06 3.349552798681543209e-06 3.028545961569761857e-06 2.437750026729190722e-06 1.124510163208469748e-06 -1.016798591990664136e-06 1.132000988945947029e-06 -1.637731543269183021e-06 -1.299827317780000158e-06 1.961987663889885880e-06 1.268114431240974227e-07 -1.051692720466235187e-06 5.167127596905629616e-07 -7.388853759948688094e-07 1.566932155583344866e-06 -2.147591970924622728e-07 1.585926383995683864e-06 1.214756935041805264e-06 5.119088655192172155e-06 9.259943567485606764e-08 1.518221779406303540e-06 4.269411419954849407e-06 -1.316363750447635539e-06 1.839068886511086021e-06 1.699676772659586277e-06 1.540195626148488373e-06 2.597474804133526050e-06 3.810374892054824159e-06 1.613365157027146779e-06 2.447603719701874070e-06 1.541922756587155163e-06 2.682296326383948326e-06 2.310014451722963713e-06 -2.659943447724799626e-06 1.878138675692753168e-07 2.508601710360380821e-06 7.035886255835066549e-07 1.606690034350322094e-06 -1.309053800468973350e-06 1.532771307211078238e-06 2.825463752742507495e-06 1.875719590316293761e-06 -6.011833306729386095e-07 -6.974006510063190944e-07 3.026894091817666776e-06 1.374990233671269380e-06 1.812035179682425223e-06 -1.040973074850626290e-06 8.316367257066303864e-07 -1.749933176142803859e-06 2.679202452782192267e-06 1.914294671223615296e-06 1.920165004776208661e-06 2.929134325313498266e-06 -1.072320287676120643e-06 1.991124918276909739e-06 -1.051752406056039035e-06 1.590689606700834702e-07 2.007406237680697814e-06 5.315326916388585232e-07 3.965802079619606957e-06 1.256940663552086335e-06 -2.983820422741700895e-06 1.647344788580085151e-06 8.413034038312616758e-07 -1.522872935311170295e-06 1.156234816335199866e-06 -2.216124130427488126e-06 1.494258071943477262e-06 4.967726567883801181e-07 1.016833948597195558e-06 -1.297170115321932826e-06 -1.458489236938476097e-06 1.631661234569037333e-06 -3.730472599272616208e-06 6.726556875946698710e-07 1.805979536584345624e-06 -4.938682707233965630e-08 2.457212303852429613e-06 -2.882230546674691141e-06 -1.255107008546474390e-06 6.916199168927050778e-08 6.421326474992383737e-07 -1.698438040875771549e-06 -7.538685053987137508e-07 -9.568582299834815785e-07 -7.620212016945515643e-08 -2.090972657242673449e-06 -8.215008620027219877e-07 -4.020529559056740254e-06 2.047819180006626993e-06 9.694490472611505538e-07 7.007756721577607095e-07 1.840739173530892003e-06 2.385070501986774616e-06 1.982177991521894000e-06 2.071293238259386271e-06 1.445177645109652076e-06 2.917850679295952432e-06 -2.218599206571525428e-07 1.203541614813730121e-06 4.071240709890844300e-06 -1.381610559292312246e-06 8.316093271787394769e-07 1.236111756952595897e-06 -1.623066765432668035e-07 -7.681804277126502711e-07 1.024907533064833842e-06 8.434696496806282084e-07 -2.910755085849814350e-07 4.054026703670388088e-06 -1.230890802617068402e-06 1.211353151120420080e-06 1.156490270659560338e-06 1.846280952122469898e-06 -3.396862894078367390e-06 2.658680102740618167e-07 2.638068963278783485e-06 1.227242023560393136e-06 6.915573180776846129e-07 1.297058702220965642e-06 3.381759597687050700e-06 -7.993991744115191977e-07 2.927540208474965766e-06 2.651575186973786913e-06 2.958649020001757890e-06 2.388245775364339352e-06 1.471981022405088879e-06 -7.624001909789512865e-07 -2.055726554317516275e-06 -1.426773451385088265e-06 -6.083789685362717137e-07 1.399176596805773443e-07 1.885506776488909964e-06 -2.454560217302059755e-07 2.893379473789536860e-07 2.003553618123987690e-06 1.860271026998816524e-06 1.816279905142437201e-06 2.630947335546807153e-07 -1.061324155671172775e-06 1.970069206436164677e-06 -8.108812608043081127e-07 4.478486516745761037e-06 -9.157108138424518984e-07 3.324706540297484025e-06 -9.894242793961893767e-07 1.336525087936024647e-06 -1.067368202711804770e-06 -7.133928079383622389e-07 -7.149709517761948518e-07 3.490119979687733576e-07 7.102905783540336415e-07 1.837174750107806176e-06 2.763907787084463052e-06 3.975733591232710751e-07 -3.224210104235680774e-06 -1.484116410210845061e-06 2.090692760248202831e-06 4.369514044810784981e-06 -9.350094956062093843e-07 1.705480826785787940e-06 -1.644570630787711707e-07 7.918401365714089479e-07 2.039375431195367128e-06 2.253159891552058980e-06 5.671493568115693051e-07 4.178270955890184268e-06 -1.621745582269795705e-06 -8.725164661882445216e-07 -1.776795386376761599e-07 -1.146213207903201692e-06 1.781713194759504404e-06 -1.099641394830541685e-06 4.519225171861762647e-07 2.791429778881138191e-06 6.928566449460049625e-07 2.288784116899478249e-06 6.042643718728868407e-08 -6.873319193800853100e-07 -1.487790086684981361e-07 3.785523404076229781e-06 1.329944439021346625e-06 -1.609883838682435453e-06 2.177817123083514161e-06 1.165676053460629191e-06 1.558040253257786389e-06 -4.839084795094095170e-07 9.722579306981060654e-06 2.944692141682025976e-06 -1.149820832324621733e-06 -1.498151959822280332e-06 2.052323225143481977e-06 -1.053519440574746113e-06 1.944896894201519899e-06 1.874994836725818459e-06 2.047061570920050144e-06 -1.530028725937881973e-06 1.442737470824795309e-06 2.893269481774041196e-07 1.456357495044358075e-06 -6.115590167610207573e-07 7.491306064366654027e-07 1.937411752805928700e-06 -8.950040637500933371e-07 1.971071981188288191e-07 6.135391572570370045e-07 -2.240443564005545340e-06 1.189179897664871532e-06 1.276502416658331640e-06 6.993490387685596943e-06 1.208152184517530259e-06 6.163144007587106898e-06 2.517115262890001759e-06 1.517078999313525856e-06 1.959954488484072499e-06 1.048703438755183015e-06 -2.066989736704272218e-06 -1.576009594828065019e-06 8.670862428061809624e-08 2.054917786153964698e-06 1.497890366408682894e-06 1.738172954901529010e-06 2.387816039117751643e-06 5.919440226875849476e-08 6.752368335583014414e-07 4.258255557942902669e-06 -5.420407660494674928e-07 -1.332904844275617506e-06 2.149908596038585529e-06 2.108647322529577650e-06 1.696183602462042472e-07 1.413089762536401395e-06 -2.675816176633816212e-06 1.516300130788295064e-06 -2.134309511347964872e-07 7.651092346350196749e-07 1.566297214594669640e-06 1.503525481894030236e-06 2.192473175455234013e-06 7.635043175469036214e-07 1.709760113044467289e-06 -1.629400401270686416e-07 -7.932568450996768661e-07 -1.535852675260684919e-06 1.894568185889511369e-06 2.932603138106060214e-07 8.514729756825545337e-07 -6.777945600333623588e-07 1.162841954283067025e-06 -2.115388269885443151e-06 -8.135703524203563575e-07 -1.232477302437473554e-06 -3.007344503203057684e-06 -2.454169134580297396e-06 -8.685206012160051614e-07 4.877815172221744433e-06 2.998787977048777975e-06 6.958873086659878027e-07 1.889439317892538384e-06 1.938393552336492576e-06 1.444828285457333550e-06 1.201065060740802437e-06 -1.335967795057513285e-06 -4.533567050657438813e-07 7.607047223245899659e-07 -2.473909944455954246e-06 1.873391624940268230e-06 2.188902271882398054e-06 -1.053485448210267350e-06 2.034222916336148046e-06 2.663959548954153433e-06 7.262724466272629797e-07 3.066229282921995036e-06 1.607838498784985859e-06 -3.356994966452475637e-06 6.302975180005887523e-06 3.262624204580788501e-06 3.523803343341569416e-06 8.940879752117325552e-07 2.459339611959876493e-06 6.198625897013698705e-07 1.877316208265256137e-06 1.720729756016226020e-06 -8.512851081832195632e-07 1.548169166198931634e-06 -2.469643504809937440e-06 2.395908268226776272e-06 6.089381940910243429e-07 -6.305521793592561153e-08
